ENSP00000000233,0.029945487,-0.045794457,0.009174713,0.017917035,-0.018379692,-0.012903174,0.001421348,-0.042637248,-0.016546972,-0.034975898,0.041020565,-0.021534609,-0.002436465,-0.0462781,0.03999355,-0.031206021,0.0073794555,0.03836014,-0.02750004,-0.04910587,0.008915386,-0.0041715764,-0.048272885,0.0328258,0.047765553,0.037740607,0.0050023524,-0.0031408004,-0.0007301782,0.026073456,0.00038842577,-0.031629156,-0.0059387563,0.008553917,-0.034726236,-0.037476275,-0.0095449,-0.006917569,-0.0049972804,-0.04156815,-0.018451307,-0.01706121,-0.053964075,0.04701039,0.019542605,-0.030476404,-0.041288536,-0.011284328,0.004776246,-0.0041897465,0.03179543,-0.02315083,0.01272985,-0.047893535,-0.04515563,-0.04624504,-0.018248498,-0.02202171,-0.010699922,-0.008169066,-0.010921089,0.019040994,0.015910093,-0.042346623,0.025090361,-0.027490152,-0.02796139,0.0045119193,0.03237634,0.0062733283,0.042963665,-0.03734234,-0.027247611,-0.01131616,-0.05506502,0.04963921,0.045872413,0.0033825096,0.021581072,0.03535831,-0.036725413,-0.055559468,-0.023308197,-0.016978748,-0.0039638574,0.02440116,0.009509539,0.024582054,0.014352609,-0.0150690535,-0.01522001,-0.006600223,-0.01826675,0.013150254,0.03055578,-0.034732696,-0.038651824,0.010852819,-0.033471663,-0.035897404,-0.022893577814102173,-0.012521990574896336,7.485784590244293e-05,-0.0018709845608100295,0.0006589426193386316,-0.018219290301203728,-0.00811308529227972,-0.013088235631585121,0.010700659826397896,-0.02177160233259201,0.0008246926590800285,-0.043265167623758316,-0.005065599922090769,-0.008778133429586887,-0.016579480841755867,-0.015236575156450272,-0.007232580799609423,-0.003192777279764414,-0.003353390609845519,-0.02572721429169178,-0.000733296328689903,-0.025256766006350517,-0.0022411709651350975,-0.0076636360026896,-0.02554965764284134,0.0044148932211101055,-0.0017272447003051639,0.003225135151296854,-0.023867301642894745,0.021148905158042908,-0.01351418811827898,-0.008482039906084538,0.04794445261359215,-0.0014287595404312015,-0.010464657098054886,-0.018463199958205223,-0.012353881262242794,-0.0015264801913872361,-0.03154787793755531,0.02192564308643341,-0.0062789712101221085,-0.009358852170407772,-0.012161328457295895,0.0029201058205217123,-0.010595849715173244,0.0004153460031375289,-0.02181970328092575,-0.011252722702920437,0.0010255023371428251,-0.010613822378218174,0.024318277835845947,0.007354495115578175,-0.0142497094348073,-0.011687411926686764,0.0035599484108388424,-0.0031932175625115633,-0.008694527670741081,-0.02941654436290264,-0.018250757828354836,-0.022326821461319923,-0.009127446450293064,0.011493761092424393,-0.017553960904479027,-0.01678653620183468,-0.011119937524199486,-0.00017759991169441491,-0.012478690594434738,-0.012472347356379032,-0.003966703079640865,-0.0006849290220998228,0.0006697674398310483,-0.0023012361489236355,0.0001641807029955089,-0.011736985296010971,-0.011059236712753773,-0.011180466040968895,-0.00978305097669363,-0.00409343559294939,-0.003378255758434534,-0.0017896827775985003,0.002698572352528572,0.0011847886489704251,-0.019098414108157158,-0.029263334348797798,-0.0023816062603145838,-0.0024011346977204084,-0.004842728842049837,-0.002540329936891794,-0.0010283176088705659,0.0513899102807045,-0.001504414132796228,0.011849487200379372,-0.021424269303679466,-0.03745970502495766,0.01137094758450985,-0.019409269094467163,-0.007123443763703108,-0.0014212839305400848,0.004499670583754778,0.0017596055986359715,-0.015707584097981453,-0.0028161732479929924,0.014079105108976364,-0.005137050524353981,-0.004033151548355818,-0.022078748792409897,-0.005402297247201204,-0.023698966950178146,-0.005621152464300394,-0.014118116348981857,-0.013439560309052467,-0.0002990204084198922,0.00515335239470005,-0.005096960347145796,0.020422380417585373,-0.005130504723638296,-0.0016359490109607577,-0.009984072297811508,0.0058453502133488655,0.03518810123205185,-0.03586553409695625,-0.0074043539352715015,-0.005911560729146004,-0.0025556408800184727,-0.008886212483048439,-0.018152467906475067,-0.004441889002919197,0.005420258268713951,0.026619095355272293,-0.017521951347589493,0.025102466344833374,-0.012203272432088852,-0.008226309902966022,-0.021700290963053703,-0.007546792738139629,0.017235049977898598,-0.011623677797615528,-0.0012075480772182345,-0.01020890660583973,0.03882956877350807,0.038926053792238235,-0.007874411530792713,-0.021769674494862556,0.00768444687128067,0.0007454580045305192,0.006229807157069445,-0.006676675286144018,-0.06937126070261002,0.0037724249996244907,0.02780403010547161,-0.017723647877573967,-0.028601432219147682,-0.010375105775892735,-0.006019572727382183,0.0013165526324883103,-0.004249350167810917,-0.0041343229822814465,-0.00818884652107954,0.009951858781278133,0.015571653842926025,-0.009708625264465809,-0.020435689017176628,-0.013252105563879013,-0.004449752159416676,-0.0109790014103055,-0.020083725452423096,-0.02745678834617138,-0.01633075624704361,-0.01372417900711298,0.001558757619932294,-0.00844654068350792,-0.0014683118788525462,0.009160885587334633,0.0063029020093381405,-0.01167399249970913,-0.02301996387541294,-0.005781078245490789,-0.005196442827582359,-0.022014310583472252,0.0004599760577548295,-0.027384644374251366,-0.02615460194647312,-0.014303318224847317,-0.01791207678616047,-0.0014702067710459232,-0.02189052850008011,-0.004959493409842253,0.0036217765882611275,-0.010091968812048435,0.02217795141041279,0.002487137448042631,0.018332527950406075,0.021003568544983864,0.009970750659704208,-0.015500635839998722,-0.019661245867609978,-0.011010000482201576,-0.011409390717744827,-0.020316841080784798,-0.009596395306289196,-0.008540443144738674,-0.025967977941036224,-0.0026518895756453276,-0.013948101550340652,-0.005498938728123903,-0.003852906869724393,-0.004253551829606295,0.00015815872757229954,-0.010984119027853012,-0.014959165826439857,0.004990679211914539,-0.010170395486056805,-0.005773307289928198,-0.012970083393156528,-0.01495201513171196,-8.402900130022317e-05,-0.00043750007171183825,-0.015951363369822502,0.001043909345753491,0.012191852554678917,-0.0028193118050694466,-0.021136857569217682,0.013044851832091808,-0.011896939016878605,-0.018587756901979446,0.00399633776396513,-0.013170973397791386,0.015070690773427486,-0.013517627492547035,0.010501568205654621,-0.014528858475387096,-0.024900974705815315,-0.018552452325820923,-0.013520208187401295,-0.006218135356903076,-0.0012692909222096205,0.01868855021893978,0.006696812342852354,-0.02099812962114811,-0.0122852036729455,0.007870401255786419,-0.005252659786492586,-0.016344117000699043,-0.020244736224412918,0.003916606307029724,7.124634430510923e-05,-0.032674770802259445,-0.019313596189022064,-0.032596949487924576,-0.006308600306510925,-0.01843317225575447,-0.011020583100616932,0.003989594057202339,-0.0003495489072520286,-0.006783181335777044,-0.000264508998952806,-0.008797913789749146,-0.023939909413456917,-0.015541037544608116,0.00012745869753416628,0.0015383762074634433,-0.015773069113492966,-0.01945619471371174,-0.013341024518013,-0.021568117663264275,-0.009267664514482021,-0.01888374797999859,0.012330499477684498,-0.0020081193652004004,-0.024767138063907623,-0.004022181499749422,-0.0015969082014635205,-0.004441441968083382,-0.012611275538802147,-0.031080305576324463,0.00284645170904696,0.003581721568480134,-0.01849718950688839,0.02283792942762375,0.0007901323842816055,-0.02768681012094021,-0.011023181490600109,0.013325998559594154,-0.0018855984089896083,-0.009688681922852993,0.003256487660109997,0.02203308418393135,-0.020502706989645958,-0.008295184001326561,-0.006808365695178509,0.02057133987545967,0.002867672359570861,-0.008932461030781269,-0.019984371960163116,-0.013382744044065475,-0.013213577680289745,0.021715344861149788,0.0012514052214100957,0.00010506284161238,-0.015544574707746506,-0.007731955964118242,-0.0042193736881017685,0.0038323006592690945,-0.011291754432022572,-0.03541769087314606,0.009163814596831799,-0.015347694978117943,-0.01492586825042963,-0.016042115166783333,-0.007421994581818581,0.0069400714710354805,0.0023102639243006706,-0.003356967819854617,-0.009535185992717743,0.030971141532063484,0.006711048074066639,0.005756385624408722,-0.01905960775911808,0.002733602887019515,-0.002417640993371606,0.012531578540802002,0.010537585243582726,0.0027558384463191032,-0.00042592649697326124,-0.002056883415207267,-0.012765917927026749,-0.009450947865843773,0.019353216513991356,0.0010157233336940408,-0.019547609612345695,-0.023490117862820625,-0.001831795321777463,0.007737422361969948,-0.01924007199704647,0.00022273858485277742,-0.010401025414466858,-0.007922186516225338,-0.00486766966059804,-0.005844771862030029,0.03175905719399452,0.00428021140396595,-0.00012213457375764847,-0.011248758062720299,-0.011832513846457005,-0.004695031326264143,0.0008766092360019684,-0.008433196693658829,-0.0446346141397953,0.05071842670440674,0.014844357036054134,-0.02169686183333397,-0.01591096632182598,-0.02106638066470623,-0.003808719804510474,0.0015765648568049073,-0.027833765372633934,0.014122012071311474,-0.011697644367814064,-0.028248948976397514,-0.013160296715795994,-0.013561361469328403,-0.015359591692686081,-0.03250254690647125,-0.02517486736178398,-0.007819827646017075,0.002222068840637803,0.003231600159779191,-0.017453381791710854,-0.014958715997636318,-0.003287294413894415,-0.012102114968001842,-0.009412349201738834,-0.011244373396039009,-0.007739318534731865,0.044784437865018845,-0.0571867935359478,-0.009296761825680733,-0.012780210934579372,0.016476945951581,-0.0037494779098778963,-0.003833590541034937,-0.004411039873957634,0.01102654542773962,-0.023753629997372627,0.011207728646695614,0.0005134856910444796,-0.021232979372143745,-0.007009995169937611,0.011301427148282528,0.00664567993953824,-0.009479398839175701,0.002001739339902997,0.00043398700654506683,-0.002043630462139845,0.015567037276923656,-0.036263905465602875,0.011306808330118656,-0.0035983643028885126,0.005656110122799873,-0.003211431438103318,0.004506000783294439,-0.0059295715764164925,-0.013835576362907887,-0.009301901794970036,0.0034359367564320564,-0.0017786960816010833,0.004492718260735273,-0.007395930588245392,-0.018653951585292816,-0.01786881498992443,-0.02838166430592537,-0.013435191474854946,-0.016696972772479057,-0.03282180801033974,-0.01077468041330576,-0.011794503778219223,-0.01117506343871355,0.017388558015227318,-0.008856145665049553,0.00025935174198821187,0.028652938082814217,0.037684131413698196,0.03668565675616264,-0.0011475537903606892,0.012437847442924976,-0.004246802534908056,0.003190416842699051,0.012941003777086735,0.008482366800308228,-0.02120998501777649,-0.040144722908735275,-0.0040196869522333145,0.02199816331267357,-0.006681947037577629,-0.0031580624636262655,0.014829480089247227,-0.0035202084109187126,-0.010366406291723251,-0.007774700410664082,0.0045097568072378635,-0.016677824780344963,-0.012855791486799717,0.006731792818754911,-0.000767155026551336,-0.017270255833864212,-0.002752907807007432,-0.006003469228744507,-0.004987694788724184,-0.00019497830362524837,-0.011411228217184544,-0.0298243947327137,0.0031327344477176666,-0.02858249470591545,-0.022636542096734047,-0.03435378894209862,-0.0016156435012817383,0.007198237348347902,0.003865348407998681,-0.014878267422318459,-0.023034416139125824,-0.006330358795821667,-0.02288634143769741,-0.027497587725520134,-0.020083943381905556,-0.0185552965849638,-0.011341472156345844,-0.0038607304450124502,-0.008126717060804367,-0.034905657172203064,-0.01587487757205963,-0.014612979255616665,-0.006137482821941376,-0.0097043476998806,-0.0031814805697649717,0.001633616629987955,-0.002636103890836239,0.0009446233743801713,-0.009393742308020592,-0.009083368815481663,0.0037309452891349792,0.00818631798028946,0.007045084144920111,-0.00599469942972064,-0.02057054452598095,-0.02377871237695217,0.006596687715500593,-0.0027140816673636436,0.03585075959563255,0.01404205895960331,0.0010175489587709308,-0.000286564405541867,-0.0018372813938185573,-0.016955317929387093,-0.005149974022060633,-0.006317587569355965,-0.002967210253700614,-0.009721852838993073,0.0078040375374257565,-0.010092781856656075,-0.008976475335657597,0.0001521814992884174,0.004103667568415403,-0.026719003915786743,-0.010374858044087887,-0.005039440933614969,-0.023364877328276634,-0.0006814664811827242,0.004724856000393629,0.0051675778813660145,-0.013927820138633251,-0.007681533228605986,0.0073784771375358105,-0.03217679262161255,-0.01677064783871174,0.0020239604637026787,-0.01084547583013773,-0.011587223038077354,-0.013180464506149292,0.00019677565433084965,-0.0021631030831485987,-0.016144325956702232,-0.008260815404355526,0.008063923567533493,0.007300682831555605,-0.002351329894736409,-0.02271208167076111,0.008745339699089527,-0.019381575286388397,0.005754994228482246,0.009816830977797508,-0.0020674595143646,0.01788054220378399,-0.019200630486011505,0.005722564645111561,-0.030229568481445312,-0.007563843857496977,-0.005403759423643351,0.005164052825421095,-0.01917879655957222,-0.011787652969360352,-0.003016718430444598,-0.011017614044249058,-0.017282171174883842,-0.020711373537778854,0.003885101294144988,0.0036085108295083046,-0.021587125957012177,-0.01752435602247715,-0.004271587822586298,-0.012718073092401028,-0.006543095223605633,-0.031516119837760925,-0.006372012663632631,-0.017141180112957954,-0.012900280766189098,-0.006637233309447765,0.011635896749794483,0.00046225477126426995,0.007843769155442715,-0.008472961373627186,-0.00010931144788628444,-0.002707049949094653,0.010728341527283192,-0.0035271989181637764,-0.021649183705449104,-0.010839089751243591,0.002950819442048669,-0.003028281731531024,-0.003931412938982248,-0.017646802589297295,0.006378309801220894,0.0055421520955860615,0.008205561898648739,-0.008544187992811203,0.020248403772711754,-0.003495150012895465,-0.024762939661741257,-0.014580249786376953,-0.005234612617641687,0.009310507215559483,0.005181822460144758,-0.012291114777326584,-0.019691238179802895,0.02692277543246746,0.0023751314729452133,-0.003817145014181733,0.01039387658238411,-0.016734987497329712,-0.004821306560188532,0.011573194526135921,-0.011390959843993187,-0.03745180740952492,0.012317643500864506,0.013394627720117569,-0.0036080998834222555,0.0289495587348938,-0.026678822934627533,-0.0016516787000000477,-0.012794185429811478,-0.016889704391360283,-0.0180722177028656,-0.0143739590421319,-0.0011626154882833362,-0.022125758230686188,-0.01157425343990326,0.0028461506590247154,-0.006665559019893408,0.020432323217391968,0.003502017818391323,-0.008902198635041714,-0.005394453182816505,-0.023558741435408592,-0.013222702778875828,-0.020540408790111542,-0.012162216939032078,-0.008547041565179825,0.00018387161253485829,0.00785333476960659,0.01421573106199503,-0.010625455528497696,0.0032887207344174385,-0.008484753780066967,-0.032862402498722076,-0.013380005024373531,0.0026971197221428156,-0.014049314893782139,-0.0018576522124931216,0.006134900730103254,-0.018018456175923347,-0.004640744533389807,0.012479576282203197,-0.004494739696383476,0.03070303052663803,-0.0030166313517838717,-0.013666101731359959,0.002807355485856533,-0.0025263994466513395,-0.018300605937838554,0.0038646033499389887,-0.004387959372252226,0.0009772054618224502,-0.021901102736592293,-0.006018363405019045,0.0053346059285104275,-0.0020827578846365213,-0.028628073632717133,0.04270731285214424,0.015257526189088821,0.015349087305366993,0.014618691056966782,-0.030331043526530266,-0.00959098245948553,-0.02098689042031765,4.9380607379134744e-05,0.0053108613938093185,-0.013381165452301502,-0.041682422161102295,-1.9167253412888385e-05,-0.022607197985053062,-0.012660234235227108,-0.019122645258903503,-0.009578940458595753,-0.007262991741299629,-0.0025946483947336674,-0.004592173732817173,0.013657962903380394,-0.0022769009228795767,-0.02143116295337677,-0.009420778602361679,-0.0013585631968453526,0.01734905131161213,-0.006196805741637945,0.017794253304600716,-0.022516099736094475,-0.010781190358102322,-0.024272950366139412,-0.01010033767670393,-0.024278677999973297,-0.011290015652775764,0.009521625004708767,-0.00465369364246726,0.008646483533084393,0.027840614318847656,-0.0003096775326412171,-0.002764521399512887,-0.0010076961480081081,-0.03502694517374039,-0.022172190248966217,-0.003094846848398447,-0.0005741354543715715,-0.007854573428630829,-0.02433527261018753,0.007385879755020142,0.008089235052466393,0.013318121433258057,0.010820171795785427,-0.014603258110582829,-0.002016671234741807,-0.026924289762973785,-0.033136095851659775,-0.018895050510764122,-0.0041144718416035175,-0.02757260389626026,-0.0068575371988117695,-0.016400543972849846,-0.029559040442109108,-0.017294172197580338,-0.010323467664420605,-0.02484302408993244,0.007916192524135113,-0.015668462961912155,0.011449622921645641,-0.0100721949711442,-0.013612822629511356,-0.011512044817209244,-0.03868362680077553,-0.018298273906111717,-0.007127006538212299,0.04240518808364868,-0.01616257056593895,-0.034853383898735046,0.013272449374198914,0.0120363375172019,-0.02140677161514759,-0.008624923415482044,-0.020177654922008514,-0.002458245726302266,0.005696433596313,0.034122221171855927,0.008759638294577599,-0.01477783638983965,0.01296297274529934,0.006836890708655119,0.003775615943595767,-0.01627945899963379,-0.006378501653671265,-0.029371846467256546,-0.0068146479316055775,0.004264927934855223,0.010094786994159222,-0.01498730480670929,0.00917479395866394,-0.003512365510687232,-0.026935217902064323,0.008880949579179287,0.006509407889097929,0.0009221869986504316,-0.001274029491469264,-0.021094249561429024,-0.012151879258453846,-0.028328757733106613,0.006401704624295235,-0.016199318692088127,-0.017483144998550415,-0.009310700930655003,-0.010298722423613071,-0.007294422015547752,-0.006207405123859644,0.008674279786646366,-0.018835561349987984,0.00014985856250859797,-0.022916032001376152,0.004763501230627298,0.01200789213180542,-0.0037186744157224894,0.00013294188829604536,-0.021125635132193565,0.002713786903768778
ENSP00000158762,-0.028079867,0.042776298,-0.04408616,-0.036957182,0.011661969,-0.016730953,-0.023729717,-0.040859103,0.012496091,-0.03271828,0.028415713,0.044804882,0.0075439587,-0.041356683,0.013448302,0.032667886,-0.028045202,-0.048767567,-0.038040124,0.024923597,0.009341646,0.003050577,0.0264442,0.018312965,0.03531636,0.017200205,-0.012540687,0.03185134,-0.029100155,0.016384292,0.03313862,-0.037329555,0.03103752,0.008847617,0.01722378,0.007020712,-0.02084583,-0.02308625,0.00014249235,0.0022963062,0.023520458,0.02112082,-0.029756963,0.032603387,-0.018182196,0.030062523,-0.010259472,0.049518395,-0.033877004,-0.031277202,0.043279614,0.017230753,0.034488264,0.01616465,0.011094429,0.012708712,0.037837062,0.018126283,-0.002044715,-0.01395756,-0.04837209,-0.01805389,0.04131421,0.027145032,-0.019817984,0.022993956,0.018279854,-0.02744229,-0.014028847,-0.009095289,-0.012678217,-0.00026701763,-0.0067100897,-0.015756715,0.018762741,0.028302398,-0.031580046,0.0158219,-0.010627139,0.036291253,-0.01795771,0.048808683,0.042759325,0.021855924,-0.026497817,-0.04200109,0.022270296,-0.03800274,-0.026125956,-0.013930179,-0.04049796,-0.024619985,0.047609475,0.020358551,-0.049526643,-0.037466694,-0.013716947,0.044339787,0.019071173,0.033034097,-0.009939275681972504,-0.0174802765250206,-0.00623541371896863,-0.006787037011235952,-0.0014934269711375237,-0.016051845625042915,-0.0052782390266656876,-0.012059315107762814,0.002947632921859622,-0.012701691128313541,-0.004569635260850191,-0.04544821009039879,-0.011420357041060925,-0.011806674301624298,-0.013791904784739017,-0.00745023600757122,-0.0025294963270425797,-0.009183906950056553,-0.004511251579970121,-0.01369000319391489,-0.006465503480285406,-0.023802943527698517,-0.005177381448447704,-0.021966196596622467,-0.023370830342173576,-0.001500071957707405,-0.0025069171097129583,-0.002147701336070895,-0.013908001594245434,0.014654181897640228,-0.011538021266460419,-0.010106750763952732,0.03817140311002731,0.00045033605420030653,-0.011731757782399654,-0.012676653452217579,-0.015502356924116611,0.0019239321118220687,-0.025690050795674324,0.017429007217288017,-0.0011060253018513322,-0.013267342932522297,-0.011608649976551533,0.007658287417143583,-0.008466843515634537,0.0015317383222281933,-0.022201446816325188,-0.0031730951741337776,7.993060717126355e-05,-0.011767745949327946,0.015668248757719994,-0.0001528767606941983,-0.012767191976308823,-0.016372643411159515,-0.00011927355080842972,-0.0025507984682917595,-0.002879935083910823,-0.02780841290950775,-0.01711217872798443,-0.013793968595564365,-0.010582063347101212,0.007663377095013857,-0.02417687140405178,-0.018435871228575706,-0.009679221548140049,4.6886270865797997e-05,-0.00966565776616335,-0.01808813214302063,0.0007929293788038194,0.00750734144821763,0.0036058092955499887,-0.0010893987491726875,0.00030705289100296795,-0.008491809479892254,-0.010881095193326473,-0.005670277867466211,0.006855877581983805,0.00042529625352472067,-0.0034902479965239763,-0.0028023712802678347,-0.0014459723606705666,-0.00522209657356143,-0.02088276483118534,-0.016414854675531387,0.003716094186529517,-0.01414409652352333,-0.0017422899836674333,-0.002966524800285697,0.003668116172775626,0.043036848306655884,-0.010881967842578888,0.01981167681515217,-0.019313106313347816,-0.022428078576922417,0.0074018617160618305,-0.014761795289814472,-0.008054657839238644,-0.0018195105949416757,0.004943243693560362,-0.0017626089975237846,-0.006189593579620123,-0.0062503330409526825,0.006228836253285408,0.0005888866726309061,-0.00685539236292243,-0.03279976174235344,-0.00471390038728714,-0.017291536554694176,-0.002888445509597659,-0.0006448074127547443,-0.014528035186231136,0.003814591793343425,-0.00047549940063618124,-0.00986931286752224,0.017740735784173012,-0.0021770840976387262,-0.0020391910802572966,-0.010759357362985611,0.002848943928256631,0.033158138394355774,-0.031841766089200974,0.0013779299333691597,0.003896604524925351,-0.004830088932067156,-0.007582689169794321,-0.021114327013492584,-0.006410317961126566,0.00048799076466821134,0.020247697830200195,-0.005514249671250582,0.02322293259203434,-0.012441404163837433,-0.017137436196208,-0.02218153327703476,-0.015055198222398758,0.0075522903352975845,-0.01164698600769043,0.004759639035910368,-0.007944929413497448,0.03548159822821617,0.042360033839941025,-0.01118652056902647,-0.015291981399059296,0.001595305628143251,-0.0016739200800657272,0.008405384607613087,0.005413910374045372,-0.062079306691884995,0.004460762720555067,0.026323018595576286,-0.020814234390854836,-0.028620021417737007,-0.007273601833730936,-0.012753140181303024,-0.0016259666299447417,-0.009095432236790657,-0.003465096466243267,-0.010546728037297726,0.0075773620046675205,0.004086848348379135,-0.006771595682948828,-0.021016718819737434,-0.007455929648131132,-0.014623749069869518,-0.01206169556826353,-0.0153840696439147,-0.026081658899784088,-0.02080882154405117,-0.017943063750863075,-0.0007040919736027718,-0.007295963820070028,-0.0030016738455742598,0.005401024129241705,0.007393552456051111,-0.017891770228743553,-0.01892654411494732,-0.0071414560079574585,-0.007865356281399727,-0.01819196715950966,-0.005096807610243559,-0.01915598474442959,-0.011991121806204319,-0.016750359907746315,-0.017504079267382622,-0.009948724880814552,-0.017982007935643196,-0.004660035017877817,0.008766348473727703,-0.007056507747620344,0.01529362890869379,0.0031861949246376753,0.012331001460552216,0.016024509444832802,0.010783524252474308,-0.012066167779266834,-0.011418811976909637,-0.012940294109284878,0.0027633195277303457,-0.02295149862766266,-0.018704373389482498,-0.009262439794838428,-0.026618508622050285,-0.00620868057012558,-0.012403217144310474,-0.007216411177068949,-0.006318921688944101,-0.005733643192797899,0.0016643210547044873,-0.013502541929483414,-0.014878182671964169,0.008237656205892563,-0.004424059297889471,-0.0024360583629459143,-0.010846548713743687,-0.006471844855695963,0.011981576681137085,-0.0013967184349894524,-0.007083210628479719,0.005465859081596136,0.00143167853821069,-0.009637595154345036,-0.018567537888884544,0.007104336749762297,-0.010588183999061584,-0.014662208966910839,0.008766952902078629,-0.019194303080439568,0.0058466908521950245,-0.026447013020515442,0.006711103022098541,-0.012953492812812328,-0.025974996387958527,-0.017636260017752647,-0.005190036725252867,-0.000696893606800586,-0.006494275759905577,0.013375289738178253,0.006239354144781828,-0.019141079857945442,-0.004355818498879671,0.011030022986233234,-0.004969618748873472,-0.015107589773833752,-0.014215812087059021,8.463681297143921e-05,0.00205752975307405,-0.023316754028201103,-0.021940648555755615,-0.026819465681910515,-0.005580872762948275,-0.019774798303842545,-0.016019770875573158,0.0016916915774345398,-0.0029955508653074503,-0.0015734522603452206,-0.013180945999920368,-0.011291936971247196,-0.010084398090839386,-0.007874433882534504,-0.006041015964001417,-0.0067222644574940205,-0.01583682745695114,-0.02021295763552189,-0.015163465403020382,-0.01810026355087757,-0.007551873102784157,-0.009475569240748882,0.00649774307385087,1.838585922087077e-05,-0.01761874370276928,-0.0007503965753130615,-0.00044539369991980493,-0.0042045386508107185,-0.01696438528597355,-0.027105266228318214,0.006372678559273481,0.005671916529536247,-0.017335133627057076,0.015142232179641724,0.005084628239274025,-0.02773287147283554,-0.014681723900139332,-3.718258813023567e-05,0.003316618502140045,-0.008703414350748062,-0.005725072231143713,0.004015508573502302,-0.02424234338104725,-0.006827857345342636,0.001881739473901689,0.016530385240912437,-0.004440919030457735,-0.004819185007363558,-0.02000264637172222,-0.004224034491926432,-0.016843391582369804,0.009950404986739159,0.0048338742926716805,-0.0062294453382492065,-0.015733493492007256,-0.015022221952676773,-0.0048162671737372875,-0.005428124684840441,-0.007542854640632868,-0.028717197477817535,0.01148314494639635,-0.017838118597865105,-0.018185703083872795,-0.017115896567702293,-0.00319091253913939,0.010360305197536945,0.0005496357916854322,0.0009786589071154594,-0.011164311319589615,0.03261549398303032,-0.0013418077724054456,0.005111025646328926,-0.020834634080529213,-0.003819168545305729,-0.004811387043446302,0.006161507219076157,-0.0016308646881952882,0.004028387367725372,-0.005318116396665573,-0.012375063262879848,-0.014674112200737,-0.013002082705497742,0.01542737428098917,0.008216691203415394,-0.02013920433819294,-0.013488014228641987,-0.0034526633098721504,-0.0051050130277872086,-0.0079351756721735,0.013207306154072285,-0.014417103491723537,-0.009217667393386364,-0.006018143612891436,-0.004034623969346285,0.02380320243537426,-0.002842222573235631,0.002687830477952957,0.0007982622482813895,-0.008695757947862148,-0.005511079449206591,0.001030363724566996,-0.0015270086005330086,-0.038192469626665115,0.03840097784996033,0.011820920743048191,-0.008067257702350616,-0.017149953171610832,-0.020066706463694572,-0.004720551893115044,-0.00410654628649354,-0.03204621374607086,0.003352108644321561,-0.004082192201167345,-0.021892769262194633,-0.018350690603256226,-0.005573628470301628,-0.011362824589014053,-0.02706773579120636,-0.015382084995508194,-0.011091262102127075,-0.00791905727237463,-0.0026553766801953316,-0.01811514049768448,-0.017694510519504547,-0.007027632091194391,-0.015497937798500061,-0.012348583899438381,-0.01767614483833313,-0.006604878231883049,0.029589304700493813,-0.04326673224568367,-0.004195120185613632,-0.010912601836025715,0.02220146544277668,-0.008946836926043034,-0.009261243976652622,-0.008688227273523808,0.013899974524974823,-0.01433185487985611,0.006006963551044464,0.0048126340843737125,-0.017168262973427773,-0.012190799228847027,0.00780867924913764,0.003466443857178092,-0.012030056677758694,-0.011488880962133408,-0.004672843497246504,-0.0034559115301817656,0.015630805864930153,-0.031701963394880295,0.01133657991886139,-0.004738062620162964,-0.0007702542352490127,-0.0045558554120361805,-0.000466478755697608,-0.011685811914503574,-0.021709516644477844,-0.0068400464951992035,0.00203032442368567,-0.002782084047794342,0.00011577996338019148,-0.012421973049640656,-0.013189929537475109,-0.01595967635512352,-0.028360066935420036,-0.007923304103314877,-0.015327062457799911,-0.01788470521569252,-0.0043355245143175125,-0.01659119874238968,-0.014910489320755005,0.011084708385169506,-0.010951678268611431,0.0008993155788630247,0.019209330901503563,0.031477659940719604,0.03304267302155495,-0.004988935310393572,0.010632866062223911,-0.0022060060873627663,-0.004146620165556669,0.012056523002684116,0.005232646595686674,-0.022754529491066933,-0.036663591861724854,-0.0023171966895461082,0.025758033618330956,-0.006137145217508078,-0.006124799605458975,0.008418187499046326,0.0012893035309389234,-0.012648520059883595,-0.005484535824507475,-0.0029581121634691954,-0.014771953225135803,-0.008052834309637547,-0.002833661390468478,-0.0017549135955050588,-0.016103560104966164,-0.014906506985425949,-0.0037853068206459284,-0.007546503096818924,-0.002267615171149373,-0.01370547991245985,-0.03178528696298599,-0.004748368635773659,-0.024039655923843384,-0.017851997166872025,-0.02694137580692768,0.006676982622593641,0.004626129288226366,-0.0019509760895743966,-0.002923824591562152,-0.025281643494963646,-0.011715863831341267,-0.020139850676059723,-0.02374984510242939,-0.027654416859149933,-0.025807635858654976,-0.01089527364820242,-0.004524237010627985,-0.015038177371025085,-0.029498161748051643,-0.00669404910877347,-0.007852571085095406,-0.006569238379597664,-0.0037230458110570908,-0.00367724965326488,0.002472169930115342,-0.008684487082064152,-0.0039016881491988897,-0.008839496411383152,-0.018514595925807953,-0.00907097291201353,0.006331798154860735,0.013080433942377567,-0.014712877571582794,-0.010682911612093449,-0.02086164988577366,0.008681363426148891,-0.005928222555667162,0.03222585842013359,0.010289137251675129,-0.010389803908765316,-0.003291859058663249,0.0004551041347440332,-0.007637783885002136,-0.002925420878455043,-0.011867333203554153,-0.005677696783095598,-0.007523065898567438,0.005931841675192118,-0.01355296652764082,-0.006806316319853067,0.004157093819230795,-8.7786465883255e-06,-0.01922030560672283,-0.009264505468308926,0.0028112654108554125,-0.01659167744219303,-0.005901163909584284,-0.0003488323127385229,0.011354494839906693,-0.016747944056987762,-0.012746982276439667,-0.001956949708983302,-0.02628488838672638,-0.013520356267690659,-0.004190854262560606,-0.013568074442446232,-0.010284810326993465,-0.008927668444812298,-0.011608608067035675,-0.009773234836757183,-0.014120914041996002,-0.009135952219367027,0.0020920441020280123,-0.0019455138826742768,0.006442919839173555,-0.016935937106609344,0.0009593991562724113,-0.020869886502623558,0.002523630391806364,0.007625479716807604,-0.002606334863230586,0.013606134802103043,-0.015339677222073078,-0.010682606138288975,-0.029244208708405495,-0.00019482003699522465,-0.002861959161236882,0.0032462028320878744,-0.009384029544889927,-0.012901338748633862,-0.00018177863967139274,-0.0037520499899983406,-0.018936272710561752,-0.020866023376584053,0.004759398754686117,0.006146794650703669,-0.017322007566690445,-0.015547442249953747,-0.0020234419498592615,-0.019912032410502434,-0.011527936905622482,-0.029213735833764076,-0.010178678669035435,-0.026683682575821877,-0.011350882239639759,-0.003489031456410885,-0.0021909596398472786,-0.005443045403808355,0.007659451570361853,-0.009662589989602566,0.001076019136235118,-0.010538437403738499,-0.0007104421965777874,-0.006644116714596748,-0.012418095953762531,-0.018014561384916306,0.00289786234498024,-0.0038749456871300936,-0.007411161903291941,-0.02248244732618332,0.0017578901024535298,0.0004891489516012371,-0.0004065317625645548,-0.011114146560430527,0.010883886367082596,-0.001848050975240767,-0.02571246214210987,-0.009773232974112034,-0.00844834465533495,0.0015185653464868665,-0.0075135803781449795,-0.005110747646540403,-0.024760326370596886,0.021767228841781616,-0.002439014846459031,0.003742445958778262,0.007906422950327396,-0.011997472494840622,0.0028309228364378214,0.011843972839415073,-0.012946505099534988,-0.028189286589622498,0.006797072943300009,0.014217319898307323,-0.004641117062419653,0.03201839700341225,-0.02170635759830475,-4.075700417160988e-05,0.0033023133873939514,-0.01297865528613329,-0.021449580788612366,-0.00953149888664484,-0.004945411812514067,-0.02037079818546772,-0.007633391302078962,-0.0012092149117961526,-0.008509852923452854,0.014318262226879597,-0.003460427513346076,-0.006363702472299337,-0.0022579198703169823,-0.03063092939555645,-0.018671182915568352,-0.0197873767465353,-0.01914353482425213,-0.010226047597825527,-0.004959823098033667,5.418744990492996e-07,0.010587509721517563,-0.007506344933062792,-0.009180417284369469,-0.010696209967136383,-0.01859668642282486,-0.01667645201086998,-0.00010818553710123524,-0.017193062230944633,-0.000988702871836722,0.010017269290983677,-0.021207237616181374,-0.011479186825454235,0.013155296444892883,-0.004289715085178614,0.016039999201893806,-0.010321001522243023,-0.024287782609462738,0.007343873381614685,0.003701636800542474,-0.009503625333309174,0.004677204415202141,-0.010658771730959415,0.0030753782484680414,-0.013925292529165745,-0.013808991760015488,0.0072227721102535725,-0.008205917663872242,-0.026894956827163696,0.0338713712990284,0.004390088375657797,0.012094334699213505,0.013467058539390564,-0.02198154479265213,-0.007736677303910255,-0.016613589599728584,0.0028858736623078585,-0.0006632606382481754,-0.013748432509601116,-0.040476951748132706,-0.010268956422805786,-0.016251249238848686,-0.01487982738763094,-0.023363696411252022,-0.014080711640417576,-0.012526066042482853,-0.004050879273563623,-0.010764474980533123,0.016631700098514557,0.0018419051775708795,-0.027791298925876617,-0.01769403927028179,0.0014340836787596345,0.020266415551304817,-0.005074577406048775,0.019760170951485634,-0.019661735743284225,-0.015150426886975765,-0.021124960854649544,-0.014710698276758194,-0.017826126888394356,-0.002090106252580881,0.0057346150279045105,0.005362590309232473,-0.0012391713680699468,0.015368394553661346,0.0023343637585639954,-0.010111716575920582,-8.032292680582032e-05,-0.03311934322118759,-0.018451586365699768,-0.0015851442003622651,-0.009499318897724152,-0.009851367212831974,-0.027676237747073174,0.008299783803522587,0.005280403885990381,0.011484403163194656,0.009918398223817348,-0.004192373715341091,-0.0006723152473568916,-0.023110343143343925,-0.028172001242637634,-0.01743403449654579,0.0015845425659790635,-0.016488730907440186,-0.004733717069029808,-0.011216430924832821,-0.02715320885181427,-0.013226843439042568,-0.014985851012170315,-0.02036341093480587,0.004451327957212925,-0.012995249591767788,-0.005194616038352251,-0.002846313640475273,-0.017230167984962463,-0.011193874292075634,-0.030359536409378052,-0.02007962577044964,-0.008968410082161427,0.032360780984163284,-0.015675021335482597,-0.024926746264100075,0.013038825243711472,0.010288562625646591,-0.017765386030077934,-0.002908892696723342,-0.014636251144111156,-0.006466945633292198,-0.006880754139274359,0.027004221454262733,0.013648093678057194,-0.01639886200428009,0.013642027974128723,0.006031067576259375,0.006742116063833237,-0.018242090940475464,0.0024047025945037603,-0.016728023067116737,-0.0020005963742733,0.005017282906919718,0.005917033180594444,-0.016098303720355034,0.015692928805947304,0.002246367046609521,-0.03048883192241192,0.0018997063161805272,-0.0019915709272027016,-0.0024523893371224403,-0.0012887767516076565,-0.015947949141263962,-0.01992817036807537,-0.015165573917329311,-0.003851843997836113,-0.011846426874399185,-0.008936538361012936,-0.017641233280301094,-0.00881098210811615,-0.007112841587513685,-0.0100983502343297,-0.004774037748575211,-0.02386312186717987,-0.005241286475211382,-0.021182872354984283,-0.0010014675790444016,0.012264125049114227,-0.003089840756729245,-0.00012019509449601173,-0.0230522770434618,0.0018568886443972588
ENSP00000160827,-0.007845603,0.009955931,0.0046859756,-0.021330703,0.014221396,-0.040325485,0.03349969,0.028571371,0.0076362863,-0.04992893,0.011310659,-0.022106636,0.025976565,-0.014666498,0.04379565,0.008166991,0.014158074,-0.009717204,-0.0067601576,-0.0100495815,-0.040709592,0.020761166,0.04179493,-0.017965116,0.0047644377,-0.017378367,-0.041227687,-0.03217584,-0.014082931,-0.007940959,-0.010764908,-0.00080587715,-0.012840152,0.013753403,0.0076751597,0.028299797,0.049881708,0.04573934,0.02549005,0.01994909,0.021331836,-0.03898556,0.029150534,-0.03958384,0.0272501,-0.022177339,-0.03799572,-0.0169742,0.03804631,-0.014422536,0.018834952,-0.023307336,0.042874347,-0.033286132,0.036616396,-0.00042643398,-0.040053833,0.029092994,0.020963158,0.044897784,0.044839967,0.008526493,-0.004114449,-0.022729551,0.042861294,0.022477102,-0.031445146,0.0066680796,-0.011053719,-0.0026484951,0.014698517,-0.0015529618,0.025654767,-0.0066866986,-0.03436204,0.034841444,-0.048587084,-0.02037151,0.021444056,-0.02755065,-0.009782709,0.029237304,-0.046920966,-0.049854863,-0.03069967,-0.04700705,0.005130507,0.018028725,-0.032010317,0.0017355792,-0.04953555,-0.009144019,0.012045074,0.019016337,-0.035560153,-0.0056448095,-0.01210741,-0.03734677,0.015818287,0.037067126,-0.018280034884810448,-0.01035916619002819,0.0015218144981190562,-0.007058320101350546,-0.002092244103550911,-0.02293708175420761,-0.002506089862436056,-0.011408760212361813,0.00652862386777997,-0.01602022908627987,0.0018777198856696486,-0.039914194494485855,-0.005731623154133558,-0.010113104246556759,-0.018351081758737564,-0.012315300293266773,-0.009537563659250736,-0.0022353974636644125,-0.002891931449994445,-0.01830969750881195,-0.0042235660366714,-0.02730683423578739,-0.01070223469287157,-0.017605364322662354,-0.021725445985794067,-0.00011705516226356849,-0.0013779141008853912,-0.009094242937862873,-0.010632876306772232,0.01470268052071333,-0.0067313131876289845,-0.010952644981443882,0.038125354796648026,0.007663873955607414,-0.002325642155483365,-0.017662202939391136,-0.014540932141244411,0.002742825075984001,-0.01900051161646843,0.015415046364068985,-7.580235978821293e-05,-0.010424371808767319,-0.01935332827270031,0.0059232935309410095,-0.010738781653344631,-0.009036529809236526,-0.029986636713147163,-0.00948090199381113,-0.0036963254678994417,-0.004703162238001823,0.01464600395411253,-8.175211405614391e-05,-0.007524514105170965,-0.018469175323843956,-0.0052419002167880535,-0.002893222263082862,0.0017728355014696717,-0.036569930613040924,-0.016486456617712975,-0.02322990447282791,-0.013123948127031326,0.0009911864763125777,-0.014103698544204235,-0.011918634176254272,-0.006979505997151136,-0.011273623444139957,-0.0161580927670002,-0.009354962036013603,-0.001999728614464402,0.004563156981021166,-0.0025186704006046057,-0.0106308339163661,0.0028548922855407,-0.00698815518990159,-0.005232173949480057,-0.008122585713863373,7.410786201944575e-05,0.0020262866746634245,-0.007709361147135496,-0.0025474566500633955,-0.008312311954796314,-0.0021348961163312197,-0.012332438491284847,-0.0210676621645689,0.0018702587112784386,-0.013606283813714981,-0.010125973261892796,0.004152870271354914,0.004338644444942474,0.036391232162714005,-0.006659327540546656,0.01628914289176464,-0.018832793459296227,-0.026972884312272072,0.0006494642002508044,-0.00820187572389841,-0.011072513647377491,0.00015823263674974442,0.0026193903759121895,-0.0025292448699474335,-0.003684469498693943,-0.008647866547107697,0.003263913793489337,-0.009601988829672337,-0.002705789403989911,-0.02559266798198223,-0.006992655340582132,-0.016536740586161613,-0.008751950226724148,-0.009700527414679527,-0.012891293503344059,0.0008764804224483669,-0.0073891282081604,-0.009959904477000237,0.0215113777667284,-0.001678772852756083,0.00040780985727906227,-0.008978168480098248,0.0063034831546247005,0.02260109782218933,-0.033282432705163956,-0.0047208028845489025,0.005683783907443285,0.0001933158637257293,-0.008113356307148933,-0.020940914750099182,-0.007590086665004492,0.000943938095588237,0.014975481666624546,-0.00936118047684431,0.019960394129157066,-0.005807767156511545,-0.017001604661345482,-0.022046679630875587,-0.011862955056130886,0.017620477825403214,-0.01072767749428749,0.0017646527849137783,-0.00027007670723833144,0.028059830889105797,0.04061153158545494,-0.0019193995976820588,-0.01777590997517109,0.0005996885593049228,-0.007725406438112259,-0.0024772551842033863,-0.0108473626896739,-0.06281633675098419,-0.001988065429031849,0.020891286432743073,-0.018206559121608734,-0.02674984186887741,0.0010481817880645394,-0.017963988706469536,-0.004228170495480299,-0.007963829673826694,-0.002859307685866952,-0.013884150423109531,0.002682459307834506,0.007537153083831072,-0.005336660426110029,-0.0262540802359581,-0.006843493785709143,-0.00872380007058382,-0.008117946796119213,-0.012449216097593307,-0.03077092207968235,-0.02243524044752121,-0.016231216490268707,-0.0015046739717945457,-0.009484048932790756,9.829923510551453e-05,0.0049498723819851875,0.0020624364260584116,-0.015175718814134598,-0.02134249359369278,-0.004794295411556959,-0.0025013538543134928,-0.01939503662288189,-0.007083866745233536,-0.021420808508992195,-0.016011090949177742,-0.01090297568589449,-0.016314154490828514,-0.008827962912619114,-0.019732443615794182,-0.003960785921663046,0.012166713364422321,-0.0017946073785424232,0.013707450591027737,-0.004100652877241373,0.006760793272405863,0.016309205442667007,0.016270970925688744,-0.014404945075511932,-0.016663435846567154,-0.011924192309379578,0.0017526395386084914,-0.025828516110777855,-0.013333399780094624,-0.007500689011067152,-0.025918537750840187,-0.0063138362020254135,-0.018188657239079475,-0.00852416455745697,-0.0019621194805949926,-0.003462297609075904,0.004803931340575218,-0.016995767131447792,-0.013358592987060547,0.0013938186457380652,-0.011655673384666443,-0.006625927984714508,-0.013685083948075771,-0.011279836297035217,0.004939250182360411,-0.0036389066372066736,-0.00853258091956377,0.011230450123548508,0.0011252178810536861,-0.006014225538820028,-0.013529866933822632,0.004897364415228367,-0.00683216517791152,-0.011278382502496243,0.005056813824921846,-0.01297913771122694,0.01114153116941452,-0.015916401520371437,0.005880748853087425,-0.020603299140930176,-0.025998590514063835,-0.019743716344237328,-0.009165572933852673,-0.0003047299396712333,-0.002488936996087432,0.0131544703617692,-0.0009959788294509053,-0.019747134298086166,-0.009688946418464184,0.007906037382781506,-0.0012520410818979144,-0.01577463187277317,-0.013311102986335754,0.008240076713263988,0.0028273595962673426,-0.02240898460149765,-0.02114909328520298,-0.024562856182456017,-0.0017584472661837935,-0.0248007420450449,-0.01930694840848446,0.0054296222515404224,-0.000725894293282181,0.008686692453920841,-0.008166171610355377,-0.0008079195395112038,-0.017921598628163338,-0.013295079581439495,-0.010336756706237793,-0.005991786252707243,-0.00931344274431467,-0.028181904926896095,-0.01184430718421936,-0.012486894614994526,-0.008319954387843609,-0.009429086931049824,0.01188719179481268,0.0011082125129178166,-0.01870112307369709,-0.0004778435977641493,-0.006703994702547789,-0.003884276608005166,-0.016312375664711,-0.03076663427054882,0.00824799109250307,0.0022067157551646233,-0.022386573255062103,0.014197983779013157,-0.0026206776965409517,-0.0255883876234293,-0.007013816852122545,-0.0013869618996977806,-0.0024296038318425417,-0.010091344825923443,-0.0014836011687293649,0.0037168357521295547,-0.023569175973534584,0.0011461084941402078,-0.001254018279723823,0.016666123643517494,-0.009249267168343067,0.0018494442338123918,-0.01483906153589487,-0.009109590202569962,-0.016058819368481636,0.0038847734685987234,0.00044296527630649507,-0.002869340358301997,-0.015176348388195038,-0.007403499912470579,-0.011794451624155045,-0.001845023944042623,-0.009314977563917637,-0.027096949517726898,0.015202482230961323,-0.020184800028800964,-0.010075249709188938,-0.013987741433084011,-0.0064325532875955105,0.008573702536523342,-0.005412692204117775,-0.0007607606239616871,-0.01302263792604208,0.031064704060554504,-0.0017550941556692123,-0.004848188254982233,-0.02145109511911869,0.0016769403591752052,-0.0038610920310020447,0.003049663035199046,-0.00025023255147971213,0.0026381423231214285,-0.00889170914888382,-0.007149467710405588,-0.017403995618224144,-0.012237179093062878,0.020841164514422417,0.007933706976473331,-0.00899623055011034,-0.016517095267772675,-0.001330485218204558,-0.003637673333287239,-0.01316218450665474,0.009075253270566463,-0.008672556839883327,-0.012266493402421474,-0.002757740905508399,-0.004848729819059372,0.023165909573435783,0.005794254597276449,0.00486154155805707,-0.007091385778039694,-0.011935693211853504,-0.0039053624495863914,-0.00024720095098018646,-0.0007893924484960735,-0.03129395470023155,0.039245158433914185,0.006757200229912996,-0.011037440039217472,-0.022335736081004143,-0.025099819526076317,0.0012927589705213904,-0.007588149514049292,-0.032233577221632004,0.011832484044134617,-0.006902016699314117,-0.019768811762332916,-0.01674935221672058,0.0004655000229831785,-0.01844099350273609,-0.026843219995498657,-0.012594115920364857,-0.013718371279537678,-0.004311210010200739,0.002434966852888465,-0.015425541438162327,-0.006466699298471212,-0.009474438615143299,-0.016464514657855034,-0.007443482056260109,-0.00729927234351635,-0.010414984077215195,0.02972082793712616,-0.049146492034196854,-0.00400119973346591,-0.018553724512457848,0.01780041866004467,-0.004252458456903696,-0.0025643392000347376,-0.004452479537576437,0.00402572937309742,-0.018898386508226395,0.0061157275922596455,0.0012033726088702679,-0.016239769756793976,-0.017617106437683105,0.010379945859313011,0.005240140948444605,-0.008306658826768398,-0.014516913332045078,0.0027501590084284544,-0.00532514089718461,0.01808508299291134,-0.031174758449196815,0.011312487535178661,-0.00519118458032608,0.003201102837920189,-0.011148451827466488,-0.003327190177515149,-0.013189278542995453,-0.013655051589012146,-0.004653347190469503,-0.007128893863409758,0.0015634908340871334,0.00309702823869884,-0.00833573006093502,-0.013374020345509052,-0.01523315254598856,-0.0234635379165411,-0.01350200641900301,-0.0201644916087389,-0.023440979421138763,-0.008564252406358719,-0.014697135426104069,-0.016571300104260445,0.01568549871444702,-0.007010415196418762,-0.0048899115063250065,0.018719494342803955,0.04079994186758995,0.03266995772719383,-0.00572011386975646,0.012418846599757671,0.001339827780611813,-0.005448030773550272,0.007525534834712744,0.00239068572409451,-0.016204847022891045,-0.03467956557869911,0.00020420672080945224,0.025929898023605347,-0.004367377609014511,-0.004240988288074732,0.010375473648309708,-0.0021845782175660133,-0.0067901089787483215,-0.0009797969833016396,-0.005500526633113623,-0.011313877999782562,-0.008240452967584133,0.004222762305289507,0.002406428102403879,-0.020700089633464813,-0.011713195592164993,-0.007539601530879736,-0.011132992804050446,0.0003652311861515045,-0.011745390482246876,-0.03298504278063774,0.00033836966031230986,-0.020557550713419914,-0.020245539024472237,-0.02874947525560856,0.0018062107264995575,0.005198428872972727,-0.007061310578137636,-0.01641799695789814,-0.02405397593975067,-0.010642441920936108,-0.020845098420977592,-0.02433948405086994,-0.03059733659029007,-0.022964097559452057,-0.005782932508736849,-0.008101312443614006,-0.01779532991349697,-0.03173253312706947,-0.01021040789783001,-0.010137760080397129,-0.0058880764991045,-0.008966841734945774,-0.0008933087228797376,-0.004757692106068134,-0.00048410045565105975,0.0038820889312773943,-0.00795719027519226,-0.01186882983893156,-0.006276113446801901,0.01028547715395689,0.013032580725848675,-0.010783386416733265,-0.010026725940406322,-0.01935551129281521,0.002268353011459112,-0.0045656077563762665,0.03198609873652458,0.010489688254892826,-0.006431879010051489,-0.009017210453748703,-0.004091169685125351,-0.004281072877347469,-0.007389938458800316,-0.013906246982514858,-0.008191268891096115,-0.00842535775154829,-0.0008355304598808289,-0.014780099503695965,-0.011715822853147984,0.00014777372416574508,0.000949089415371418,-0.02186053805053234,-0.011922008357942104,0.004689112771302462,-0.02092953585088253,0.001348423771560192,-0.0029318530578166246,0.003643207950517535,-0.017968252301216125,-0.013130203820765018,0.0030105721671134233,-0.02752225659787655,-0.016692284494638443,-0.0017658183351159096,-0.0072255004197359085,-0.00786616001278162,-0.013621856458485126,-0.011365351267158985,-0.007073761895298958,-0.014438056387007236,-0.008809792809188366,0.007356345187872648,-0.0011127340840175748,0.00747227668762207,-0.022683707997202873,0.0010381555184721947,-0.023254698142409325,0.0063991122879087925,0.004690307658165693,-0.007592756301164627,0.013526402413845062,-0.011103387922048569,-0.008389303460717201,-0.03710707649588585,-0.0012169337132945657,-0.006177298724651337,0.003173528239130974,-0.015760354697704315,-0.014980833977460861,-0.0031192998867481947,-0.012718765996396542,-0.016277985647320747,-0.02001972869038582,0.00201695435680449,-0.0004662412975449115,-0.013609142042696476,-0.015084666199982166,-0.006456534843891859,-0.013532952405512333,-0.010880798101425171,-0.019687741994857788,-0.01112521905452013,-0.0285805631428957,-0.014619638212025166,-0.011173013597726822,0.0012245188700035214,-0.005182170309126377,0.012693637050688267,-0.008388289250433445,-0.000807164004072547,0.0019033992430195212,0.005947140511125326,-0.0042616804130375385,-0.01013246551156044,-0.015518371015787125,0.0026398953050374985,-0.004580714274197817,-0.0074285161681473255,-0.0228977520018816,0.0012773792259395123,0.001882791519165039,5.4050080507295206e-05,-0.010426254011690617,0.008371689356863499,-0.009195689111948013,-0.0254631657153368,-0.006862984970211983,-0.010077571496367455,0.000718577008228749,-0.003645065939053893,-0.0070107863284647465,-0.02336009591817856,0.024597780779004097,-0.004624642431735992,-0.004058437887579203,0.01206913497298956,-0.014027670957148075,-0.0012574010761454701,0.0071621364913880825,-0.011809557676315308,-0.03104226291179657,0.011945760808885098,0.006229026708751917,-0.001116375089623034,0.02595270611345768,-0.029526151716709137,-0.007636135909706354,-0.0010447726817801595,-0.014534879475831985,-0.017679259181022644,-0.012192287482321262,0.00066148373298347,-0.012270855717360973,-0.006617909297347069,-0.002438098192214966,-0.007834474556148052,0.009335694834589958,-0.0022608591243624687,-0.0033737262710928917,-0.004130722489207983,-0.0361148975789547,-0.011286944150924683,-0.023114511743187904,-0.015708109363913536,-0.01586897484958172,-0.005791257601231337,0.0009657012415118515,0.013856281526386738,-0.0020362231880426407,-0.008134588599205017,-0.012428010813891888,-0.028506653383374214,-0.016395708546042442,-0.0038462865632027388,-0.019420601427555084,-0.013933595269918442,0.010620251297950745,-0.02209267020225525,-0.012296351604163647,0.006802191957831383,-0.0066947597078979015,0.027962177991867065,-0.0037808038759976625,-0.022803744301199913,0.008167632855474949,-0.004136179573833942,-0.014035695232450962,0.000954318733420223,-0.015192261897027493,-0.0003009149804711342,-0.011203750967979431,-0.00987204909324646,0.011416970752179623,-0.0086912726983428,-0.02779351733624935,0.032116495072841644,0.011635390110313892,0.01375850010663271,0.011438574641942978,-0.027552232146263123,-0.005320527125149965,-0.013484505005180836,0.004820613190531731,0.0001621649571461603,-0.010653301142156124,-0.039646465331315994,-0.0067839473485946655,-0.0176896583288908,-0.008578989654779434,-0.012320298701524734,-0.011650116182863712,-0.010691196657717228,-0.005884830374270678,-0.012370818294584751,0.01643657684326172,0.0008506681188009679,-0.027238065376877785,-0.014187097549438477,0.001324990764260292,0.01564042456448078,-0.0017302940832450986,0.01655621826648712,-0.027835994958877563,-0.015447922050952911,-0.02279060147702694,-0.014910955913364887,-0.022596923634409904,-0.0031130872666835785,0.01259605959057808,0.006596854422241449,0.0006663540261797607,0.026100069284439087,0.0018015773966908455,0.0038090997841209173,-0.001264639780856669,-0.029153985902667046,-0.027387544512748718,-0.0026208225172013044,-0.005124343559145927,0.004762633237987757,-0.02264302782714367,0.004713777918368578,0.013265705667436123,0.006361504551023245,0.011685964651405811,-0.0059100366197526455,-0.0013457718305289745,-0.017602290958166122,-0.03247777372598648,-0.020087184384465218,0.0017181901494041085,-0.012748385779559612,-0.0067416406236588955,-0.016288766637444496,-0.025177443400025368,-0.01486391481012106,-0.01174075249582529,-0.012197297997772694,0.0054283831268548965,-0.022081606090068817,-0.005861192941665649,0.00010951484000543132,-0.013703279197216034,-0.010826915502548218,-0.02564159221947193,-0.015591706149280071,-0.0013397596776485443,0.032793015241622925,-0.014073219150304794,-0.02285865508019924,0.011781915090978146,0.013047498650848866,-0.020350778475403786,-0.005834983196109533,-0.012669269926846027,-0.004121682140976191,-0.011484437622129917,0.02447008155286312,0.012716828845441341,-0.009317128919064999,0.010568186640739441,0.0021207246463745832,0.004042525310069323,-0.021299229934811592,-0.003907079342752695,-0.01684490777552128,0.001392542733810842,0.009188619442284107,0.00823342427611351,-0.022999651730060577,0.014367674477398396,-0.00012355856597423553,-0.028288446366786957,0.010823828168213367,0.005148680415004492,-0.002672006143257022,-0.0009191520512104034,-0.017827928066253662,-0.019247865304350853,-0.014916683547198772,-0.0007356892456300557,-0.010898248292505741,-0.012120773084461689,-0.006617335136979818,-0.006288457661867142,-0.011466355063021183,-0.015648240223526955,0.000675673596560955,-0.023550473153591156,0.0015280325897037983,-0.021934377029538155,0.0057167247869074345,0.008922998793423176,-0.010372667573392391,-0.006377886980772018,-0.026903865858912468,0.004336660727858543
ENSP00000221114,-0.044021275,0.003433071,-0.04842012,-0.021617545,-0.02182206,0.04243293,0.03883605,-0.0066538565,-0.042369246,-0.030053902,-0.020074153,0.011639785,-0.031163001,0.023298334,-0.014450453,0.033212077,-0.008602668,-0.025086178,0.024796676,-0.007973503,-0.017346382,-0.014769804,-0.00094522163,0.049182583,0.00808952,0.040325258,-0.013505362,-0.04561583,0.04849006,0.0023334622,0.047458854,0.00340271,0.043684747,0.035934832,0.022536661,0.037441876,-0.02690196,-0.010924708,0.0107016675,-0.014626313,0.041010845,-0.03637321,-0.024891509,0.024763416,-0.048029136,-0.03742213,-0.041223634,-0.01634854,0.042719726,-0.0046722665,0.01285651,0.028385293,-0.003955625,-0.014489662,-0.02176385,-0.046123683,0.019846272,-0.04346503,0.034121003,-0.042743575,0.0041849986,-0.024710108,0.04061247,0.04455975,-0.037074685,-0.034748007,0.009735011,-0.012501061,0.027031247,0.011913918,0.038900647,0.015075993,0.00805714,-0.016841661,0.0024275072,0.0026765577,-0.04426948,-0.006416954,-0.045330536,-0.042911697,-0.011682488,-0.012718596,0.028830316,-0.00068800524,0.037481453,0.020149838,0.019920874,0.038226094,0.032556478,0.021233704,-3.385544e-05,-0.010224365,0.027749244,0.00080562755,0.041421603,0.039728913,0.03724486,-0.015674554,0.043571565,0.019374575,-0.015714522451162338,-0.007084942888468504,-0.003591266693547368,-0.006881994660943747,0.008755140006542206,-0.018416451290249825,-0.00878137443214655,-0.012250680476427078,0.005361941177397966,-0.011284239590168,0.004797789733856916,-0.03192094340920448,-0.007706005126237869,-0.009152851067483425,-0.009844099171459675,-0.0013651245972141623,-0.005453173071146011,-0.004214768763631582,-0.0032548352610319853,-0.02093176729977131,0.009899030439555645,-0.021162591874599457,-0.008706334047019482,-0.01802939735352993,-0.019368721172213554,0.002701351186260581,0.0020201168954372406,-0.004743526224046946,-0.018514759838581085,0.025844348594546318,-0.008522857911884785,-0.012434461154043674,0.040001560002565384,0.0007977088098414242,-0.006637562531977892,-0.01935582607984543,-0.011590312235057354,0.0042570182122290134,-0.020002756267786026,0.014097850769758224,-0.0062338425777852535,-0.01384731475263834,-0.01829642802476883,0.0026224262546747923,-0.007038254756480455,-0.0021921098232269287,-0.02478591352701187,-0.01576387695968151,0.0005715340375900269,-0.009317063726484776,0.016619758680462837,0.006479665171355009,-0.004202151205390692,-0.011937223374843597,0.002094038063660264,-0.003106033196672797,-0.0003401689464226365,-0.03181557357311249,-0.014682702720165253,-0.01777871884405613,-0.010697818361222744,0.004199399147182703,-0.017401402816176414,-0.012492832727730274,-0.009034930728375912,-0.005294788163155317,-0.01160596963018179,-0.012614202685654163,0.001757280551828444,0.002487380290403962,-9.622618563298602e-06,-0.0032542862463742495,0.002648940309882164,-0.0012799842515960336,-0.006973531097173691,-0.006294643972069025,0.000822816975414753,-0.0015060188015922904,-0.008977140299975872,0.0021747800055891275,-0.0005006827414035797,-0.004710945766419172,-0.008355432190001011,-0.014705049805343151,-0.003722158493474126,-0.016992004588246346,0.0023724182974547148,0.004659655969589949,0.008732736110687256,0.03993626683950424,-0.004102126229554415,0.01024284865707159,-0.01915450021624565,-0.019599907100200653,0.004491045139729977,-0.01023086253553629,-0.0037250008899718523,-0.001620502327568829,0.002835497260093689,0.001311441301368177,0.0013360772281885147,-0.00995252188295126,-0.00013054092414677143,-0.0011867227731272578,-0.0036102745216339827,-0.021431660279631615,-0.004757283255457878,-0.013838457874953747,-0.010783330537378788,-0.008617271669209003,-0.011636179871857166,0.004498839378356934,-0.002304092748090625,-0.0129498690366745,0.016544735059142113,0.00036846473813056946,-0.0034587180707603693,-0.016664965078234673,0.006752409040927887,0.02000744827091694,-0.02969307452440262,-0.006074570585042238,0.002629881724715233,0.00011151920625707135,-0.002833742881193757,-0.01855810545384884,-0.009012292139232159,-0.0019071634160354733,0.0176021046936512,-0.013572043739259243,0.00048192660324275494,-0.010404905304312706,-0.012614953331649303,-0.023609256371855736,-0.015769992023706436,0.011256561614573002,-0.009869912639260292,0.007571351248770952,0.0032681943848729134,0.02650129795074463,0.03053484857082367,-0.004554139915853739,-0.019771069288253784,0.006275564432144165,-0.006586828734725714,0.005657176952809095,-0.003948860801756382,-0.06355796754360199,0.002898678183555603,0.01786542311310768,-0.021968938410282135,-0.013325798325240612,-0.008654885925352573,-0.01494691427797079,-0.004650078248232603,-0.006493590772151947,-0.0008925616275519133,-0.009594193659722805,0.010451018810272217,0.009452146477997303,-0.005357507150620222,-0.030920641496777534,-0.006978902500122786,-0.003939685877412558,-0.00835756491869688,-0.014669038355350494,-0.027526097372174263,-0.016051916405558586,-0.0034943046048283577,0.00029643543530255556,-0.013937772251665592,0.0023891536984592676,0.0022905205842107534,0.0019779785070568323,-0.018957102671265602,-0.01863260380923748,-0.006122035905718803,-0.013418052345514297,-0.01620817743241787,-0.0013543929671868682,-0.02444353699684143,-0.011949430219829082,-0.02013546973466873,-0.01609613373875618,-0.0032122256234288216,-0.023594362661242485,-0.007101753726601601,0.007204782217741013,-0.009913085959851742,0.017495520412921906,-0.002510409103706479,0.013442032039165497,0.01424476783722639,0.014369655400514603,-0.013578717596828938,-0.012509736232459545,-0.009080679155886173,0.0018532508984208107,-0.01417507603764534,-0.014089389704167843,-0.005320468917489052,-0.024093762040138245,-0.0065379212610423565,-0.009160078130662441,-0.0023551462218165398,-0.010792829096317291,-0.014784242957830429,0.001570880995132029,-0.015419538132846355,-0.010957232676446438,0.005173866171389818,-0.013494986109435558,-0.0007331203669309616,-0.013407393358647823,-0.008048751391470432,0.0024713731836527586,-0.005897731985896826,-0.008428416214883327,0.013023738749325275,-0.003057419089600444,0.004038936924189329,-0.013521329499781132,0.012022658251225948,-0.01170013565570116,-0.01732746697962284,-0.00018603370699565858,-0.014237218536436558,0.003920826595276594,-0.014957769773900509,0.007571430876851082,-0.009145698510110378,-0.019088350236415863,-0.020623326301574707,-0.010935385711491108,-0.002772919600829482,-0.0052045355550944805,0.009862875565886497,0.0033840432297438383,-0.02094019204378128,-0.00973206851631403,0.007891121320426464,-0.004430472385138273,-0.013250843621790409,-0.019299140200018883,0.0006322183762677014,0.00833426509052515,-0.020507754758000374,-0.01797248050570488,-0.025498876348137856,-0.0009083976619876921,-0.015648534521460533,-0.010162419639527798,-0.0023004640825092793,0.0008750963024795055,0.003450739895924926,-0.0056424830108881,-0.004285476636141539,-0.01658654771745205,-0.013989493250846863,-0.007044922560453415,-0.00343131716363132,-0.02029827982187271,-0.027185827493667603,-0.011996905319392681,-0.013728208839893341,-0.005590568762272596,-0.0043982286006212234,0.0046470207162201405,0.0018893154338002205,-0.017445646226406097,-0.0023166837636381388,0.0033954810351133347,-0.0027387207373976707,-0.01287891436368227,-0.028267065063118935,-0.003547820495441556,0.003393211169168353,-0.01723887398838997,0.01372501626610756,-0.005001759622246027,-0.026630086824297905,-0.01660679467022419,0.005151750985532999,0.0016625887947157025,-0.006585653871297836,-0.0031392760574817657,0.008577420376241207,-0.01937507465481758,-0.010660643689334393,-0.00010323722381144762,0.010664680041372776,-0.009258054196834564,0.0014323648065328598,-0.011291162110865116,-0.0018739033257588744,-0.014241094700992107,0.010782837867736816,-0.00039846854633651674,0.00036977572017349303,-0.019173555076122284,-0.00645328126847744,0.00047557949437759817,0.0022086368408054113,-0.0055620428174734116,-0.02658837102353573,0.012867032550275326,-0.009868483059108257,-0.012504108250141144,-0.013462414033710957,-0.004466103855520487,0.009167706593871117,-0.0014923500129953027,0.0023079521488398314,-0.005773118231445551,0.02829326130449772,-0.002724540652707219,0.004062518011778593,-0.020858874544501305,-0.002359935315325856,-0.008890591561794281,0.004225431475788355,0.004002138040959835,0.007432241458445787,-0.007677115499973297,-0.007941371761262417,-0.008991376496851444,-0.008344258181750774,0.015092752873897552,0.004147352185100317,-0.022036559879779816,-0.013240288011729717,-0.005210260394960642,-0.0030944489408284426,-0.015368793159723282,0.015471038408577442,-0.006329849362373352,-0.013605371117591858,-0.00854062382131815,-0.011098922230303288,0.016681775450706482,0.003207805333659053,0.0061485785990953445,-0.00620579207316041,-0.00859095249325037,0.0030247035901993513,0.002146678976714611,0.00036662176717072725,-0.0356794036924839,0.03564799204468727,0.013899100013077259,-0.011236083693802357,-0.012901782989501953,-0.02530323527753353,-0.003237525699660182,-0.0063191684894263744,-0.03042176179587841,0.01248843502253294,-0.0024596608709543943,-0.024787014350295067,-0.019089005887508392,-0.004231514409184456,-0.015107687562704086,-0.032161399722099304,-0.013548854738473892,-0.002989152679219842,-0.007580195087939501,0.0033361942041665316,-0.012932322919368744,-0.01451886910945177,-0.007060095202177763,-0.01801983267068863,-0.01040098536759615,-0.015131410211324692,-0.005985335912555456,0.032886672765016556,-0.04350588843226433,-0.004012441728264093,-0.014274799264967442,0.012152968905866146,-0.008209598250687122,-0.005091236438602209,-0.008086293004453182,0.016953272745013237,-0.016556277871131897,0.008996994234621525,-0.00020158728875685483,-0.017454585060477257,-0.012729610316455364,0.005258126184344292,0.010786338709294796,-0.01224316656589508,-0.010942187160253525,0.006275595631450415,-0.006935013923794031,0.01085519790649414,-0.04087128862738609,0.01064507756382227,-0.0026468823198229074,-0.004447550047188997,-0.002790941623970866,0.002780238399282098,-0.0045665567740798,-0.013995270244777203,0.002087911358103156,-0.006186774466186762,-0.0034118543844670057,0.0014289077371358871,-0.004432969260960817,-0.01045219972729683,-0.016600213944911957,-0.02348860539495945,-0.011150122620165348,-0.007973047904670238,-0.022079167887568474,-0.011172289960086346,-0.013817944563925266,-0.011091056279838085,0.011606916785240173,-0.009256768971681595,-0.00207960675470531,0.0196063295006752,0.02015082538127899,0.02973175048828125,-0.00216255197301507,0.015574020333588123,0.0025295852683484554,0.001629502628929913,0.009549936279654503,0.005326084792613983,-0.012047738768160343,-0.03790603578090668,0.004240282345563173,0.02262093685567379,0.00012577662710100412,0.003519738093018532,0.006750924978405237,0.007045845966786146,-0.006202217191457748,-0.004955760668963194,-0.00394204119220376,-0.01848788559436798,-0.009383337572216988,2.318240331078414e-05,0.00204008468426764,-0.014246386475861073,-0.009475898928940296,-5.8132223784923553e-05,-0.010111638344824314,0.0008415331249125302,-0.011852254159748554,-0.028759166598320007,0.003202893538400531,-0.01707708276808262,-0.010943016968667507,-0.02559441514313221,0.0003341524861752987,0.004978236276656389,0.004945086315274239,-0.007457234431058168,-0.020505627617239952,-0.005358030553907156,-0.018903832882642746,-0.02372065931558609,-0.01639915071427822,-0.015182417817413807,-0.0062650959007442,-0.0038469701539725065,-0.009719999507069588,-0.025482365861535072,-0.008679498918354511,-0.005420370493084192,-0.0031356217805296183,-0.010108772665262222,0.0031799182761460543,0.0021963538601994514,-0.00282269436866045,-0.002538741333410144,-0.0007522984524257481,-0.01588314212858677,0.002567553659901023,0.0054200622253119946,0.006443125661462545,-0.007458601146936417,-0.01136916596442461,-0.014252523891627789,0.00557267339900136,-0.00680418498814106,0.02438008226454258,0.01190903689712286,-0.011946405284106731,-0.005173410754650831,-0.008607149124145508,-0.010215475223958492,-0.011560373939573765,-0.01074869092553854,-0.007499575614929199,-0.010644689202308655,-0.00012163173960288987,-0.009141809307038784,-0.004517069552093744,0.0005157726700417697,-0.0019465492805466056,-0.025894830003380775,-0.004361830651760101,0.0053045316599309444,-0.02212977409362793,0.0024749201256781816,0.001625659759156406,0.004809339065104723,-0.013559040613472462,-0.004231251310557127,0.00637103570625186,-0.030724575743079185,-0.013484597206115723,-0.011035474948585033,-0.008163882419466972,-0.015613559633493423,-0.012090270407497883,-0.011961285956203938,-0.006250640843063593,-0.009511610493063927,-0.00468435836955905,0.00494304159656167,0.010506272315979004,0.006028415635228157,-0.019217224791646004,-0.007017134223133326,-0.01941845938563347,0.006881691515445709,0.010637961328029633,0.0004649236798286438,0.015576682984828949,-0.016328198835253716,-0.010114212520420551,-0.025327539071440697,-0.007693711202591658,-0.00508710416033864,0.00037198816426098347,-0.01174165029078722,-0.016750691458582878,0.004641501232981682,-0.016234973445534706,-0.021952630952000618,-0.02286553382873535,0.007433237973600626,-0.0007026178645901382,-0.016417531296610832,-0.009434749372303486,-0.002505819546058774,-0.012535764835774899,-0.010190144181251526,-0.027548164129257202,-0.007824376225471497,-0.017789000645279884,-0.008273052982985973,-0.010258148424327374,0.003990534693002701,-0.0024658760521560907,0.006991318892687559,-0.012582437135279179,-0.0043960693292319775,-0.003264634869992733,-0.00021945017215330154,-0.0008469380554743111,-0.018665142357349396,-0.014010951854288578,-0.0008768551051616669,-0.006343731191009283,-0.008683714084327221,-0.009783521294593811,0.0024755054619163275,0.0035711212549358606,0.003203285625204444,-0.006435278803110123,0.009362070821225643,-0.003689691424369812,-0.029241859912872314,-0.012089986354112625,-0.00878086406737566,-0.005337690468877554,0.0032881619408726692,-0.013310320675373077,-0.02674500085413456,0.033183056861162186,-0.0005461671389639378,0.004251999314874411,0.008012744598090649,-0.00479821115732193,0.0006266871932893991,0.0012222625082358718,-0.005563484970480204,-0.027721881866455078,0.008904773741960526,0.010549001395702362,-0.008570731617510319,0.017930595204234123,-0.018288182094693184,-0.003583422861993313,-0.008309104479849339,-0.01694716140627861,-0.018905894830822945,-0.014023080468177795,-0.004975760355591774,-0.014530472457408905,-0.008652363903820515,-0.0009968815138563514,-0.008153759874403477,0.014706569723784924,0.001783661893568933,-0.0037466452922672033,-0.002780786482617259,-0.03196662664413452,-0.01606600545346737,-0.027719082310795784,-0.014552236534655094,-0.008800742216408253,-0.0017784618539735675,0.0036800161469727755,0.01261985581368208,-0.003037691116333008,-0.0029879340436309576,-0.011975306086242199,-0.020306816324591637,-0.012693901546299458,0.00045720176422037184,-0.01800413243472576,-0.012458366341888905,0.01067310106009245,-0.018664229661226273,-0.0018316525965929031,0.012864087708294392,-0.005121465772390366,0.01460398267954588,-0.004556145519018173,-0.01216920092701912,0.008054200559854507,-0.007712323218584061,-0.019417205825448036,0.010791006498038769,-0.006036890670657158,-0.0010626103030517697,-0.0112152686342597,-0.0075942110270261765,0.004513586405664682,-0.005086984485387802,-0.030798321589827538,0.03022070974111557,0.004601493943482637,0.005724664777517319,0.013086718507111073,-0.018222367390990257,0.0015513557009398937,-0.01822337694466114,-0.0006041719461791217,-0.0015605626394972205,-0.01202210783958435,-0.04043116047978401,-0.008735131472349167,-0.01097382977604866,-0.007305623963475227,-0.016166899353265762,-0.00914269033819437,-0.0019901508931070566,-0.006457071285694838,-0.008530492894351482,0.013480906374752522,-0.0018655164167284966,-0.026126431301236153,-0.020016944035887718,-0.0006391176139004529,0.01913336291909218,-0.008661388419568539,0.013240535743534565,-0.023322559893131256,-0.016255361959338188,-0.020728083327412605,-0.019332706928253174,-0.01567249745130539,-0.011368278414011002,0.0044820308685302734,0.004648435395210981,0.00393506558611989,0.028504736721515656,-0.0010772862005978823,-0.005318054463714361,0.0017734881257638335,-0.03450579568743706,-0.02323688007891178,0.00037386067560873926,-0.008241141214966774,-0.0012585482327267528,-0.023860005661845207,0.006204416509717703,0.01166604459285736,0.010986071079969406,0.013576437719166279,-0.005814243573695421,0.0009370690095238388,-0.0242922306060791,-0.028832195326685905,-0.021138347685337067,-0.002433039713650942,-0.01127148512750864,-0.0014064734568819404,-0.014742814004421234,-0.024233417585492134,-0.015754984691739082,-0.007095012813806534,-0.01420188695192337,0.005602018442004919,-0.015606227330863476,-3.688223659992218e-05,0.0032077087089419365,-0.012210850603878498,-0.004811716731637716,-0.018239600583910942,-0.011295082978904247,-0.0008391084265895188,0.03402383625507355,-0.014280665665864944,-0.02388629876077175,0.01411503553390503,0.006415538489818573,-0.003517074743285775,0.000637752644252032,-0.012671764008700848,-0.007084932643920183,-0.0032328078523278236,0.025465063750743866,0.012208969332277775,-0.008160603232681751,0.014374989084899426,0.0036164282355457544,0.0008685363573022187,-0.02487345039844513,-0.010551686398684978,-0.018138986080884933,-0.0020503345876932144,0.012385296635329723,0.003499760525301099,-0.0210938211530447,0.008858959190547466,-0.018641460686922073,-0.030429614707827568,0.0115576833486557,0.004447682294994593,-0.004751141648739576,0.002901427447795868,-0.023552125319838524,-0.013994712382555008,-0.015311047434806824,0.008144611492753029,-0.015507199801504612,-0.005870439577847719,-0.007871399633586407,-0.0027959896251559258,-0.010442312806844711,-0.01120112556964159,0.002515785163268447,-0.012637149542570114,-0.00231574778445065,-0.023172644898295403,0.0033054642844945192,0.011309117078781128,-0.0049614920280873775,-0.0026053169276565313,-0.021764716133475304,0.005347573664039373
ENSP00000222547,0.03962301,0.009359837,-0.027570033,-0.035101198,-0.03186822,-0.031051112,-0.021879388,0.047303367,-0.011366785,0.015880499,-0.027119089,0.0016520247,0.040669445,-0.028527498,0.011808597,-0.02104882,-0.024331475,-0.030047907,-0.041596152,0.01626921,-0.011847995,-0.04210478,-0.0065690763,-0.0069460273,0.019405555,-0.02943833,0.035018954,0.02579328,-0.0291121,0.037618365,0.039988983,0.033119295,-0.04498116,0.047618058,0.016364384,-0.034692336,-0.0042154305,0.025484394,0.034260634,0.016181495,-0.0043295994,-0.0199036,-0.0055403337,0.041199613,0.0114462,0.028085243,0.033510473,0.03405681,-0.030186344,-0.013369691,0.016811918,-0.038758684,0.029619422,-0.018256187,-0.03200083,-0.031737268,-0.031779576,0.012761798,0.027948748,0.03344616,-0.023427917,0.03804643,-0.048839547,0.005627919,0.0048529394,-0.006452512,0.038955797,0.014927816,-0.022241855,-0.034472656,0.0285254,0.034830663,0.012139976,0.037115905,0.048934434,-0.034546386,0.016635623,-0.011589743,0.03887311,0.031089697,0.037689816,-0.022005213,0.018754277,-0.004273068,0.014824998,0.04667679,0.04275055,0.04464257,-0.014667653,0.0485085,-0.038382042,0.032765497,-0.049272943,0.005295206,0.025330152,0.048611734,-0.02148645,-0.01050216,-0.044554558,-0.012813617,-0.011858168989419937,-0.01440786849707365,-0.004548169206827879,-0.009055067785084248,-0.0022883908823132515,-0.009031316265463829,-0.0006509212544187903,-0.012729470618069172,0.008481510914862156,-0.007913406938314438,0.0038174153305590153,-0.029999125748872757,-0.008468159474432468,-0.01234071422368288,-0.01306841429322958,-0.003816347336396575,-0.0068174186162650585,-0.005843306425958872,0.0011518478859215975,-0.01029758621007204,0.005394480191171169,-0.019621215760707855,-0.008538956753909588,-0.013345503248274326,-0.017016980797052383,-0.0038581201806664467,0.002868598559871316,-0.003702399553731084,-0.00808175839483738,0.022961925715208054,-0.0029786615632474422,-0.009741868823766708,0.03452172502875328,0.0045034755021333694,0.0015727668069303036,-0.014772515743970871,-0.012617239728569984,0.012416045181453228,-0.012081331573426723,0.01420318428426981,0.0011336603201925755,-0.014124020002782345,-0.0189377348870039,0.0050612580962479115,-0.0009915379341691732,-0.0025240122340619564,-0.025069454684853554,-0.012085805647075176,0.00436424883082509,-0.0093434639275074,0.02058936282992363,0.001660514622926712,-0.005410065408796072,-0.015780936926603317,-0.001126983785070479,-0.0024741259403526783,0.0002708185638766736,-0.025831162929534912,-0.012334291823208332,-0.01547522284090519,-0.008197015151381493,0.005735789891332388,-0.018929658457636833,-0.013708689250051975,-0.010049542412161827,-0.005849077366292477,-0.016884109005331993,-0.00627485616132617,0.0010495658498257399,0.009591727517545223,0.0009770558681339025,-0.003863097168505192,0.004015758167952299,-0.008887166157364845,-0.012430254369974136,-0.0026058615185320377,0.008677016943693161,-0.0004576075298245996,-0.00496272649616003,-0.0020968178287148476,-0.0025365203619003296,-0.010516304522752762,-0.011081106029450893,-0.016676371917128563,0.005596711300313473,-0.012306013144552708,-0.0013623612467199564,0.0035022879019379616,0.008406867273151875,0.03446099907159805,-0.0044952258467674255,0.010685790330171585,-0.02040700428187847,-0.018445061519742012,0.0011724935611709952,-0.011096387170255184,0.006759787444025278,0.0009074065019376576,-0.0025363131426274776,-0.0035729436203837395,0.0046677966602146626,-0.011128420010209084,0.004236110486090183,0.004460999276489019,-0.00187475117854774,-0.022610504180192947,-0.0009835046948865056,-0.015924779698252678,-0.009746935218572617,-0.007441670633852482,-0.006414787843823433,0.002013535937294364,-0.001821079757064581,-0.009588297456502914,0.013346077874302864,-0.0009586305823177099,-0.0036698204930871725,-0.012636484578251839,0.0032372823916375637,0.018362076953053474,-0.021288780495524406,0.0011295084841549397,0.008367554284632206,-0.0021458095870912075,0.001307317754253745,-0.015291061252355576,-0.010256217792630196,-0.0025011152029037476,0.01546773687005043,-0.011874113231897354,0.015198128297924995,-0.006542299874126911,-0.009211977012455463,-0.014333576895296574,-0.01925448328256607,0.003408197546377778,-0.009269236586987972,0.007701769936829805,0.006290150340646505,0.027050824835896492,0.034034159034490585,-0.008791924454271793,-0.01468026451766491,-0.0002588496427051723,-0.008945241570472717,0.005019289441406727,-0.00373019534163177,-0.0619758777320385,-0.001798626035451889,0.014051700010895729,-0.018455708399415016,-0.01963144913315773,-0.001066891709342599,-0.003482133150100708,-0.003448319621384144,-0.0026623853482306004,-0.00504554295912385,-0.00965330470353365,0.00890369899570942,0.001237854128703475,-0.005053893197327852,-0.02747495286166668,-0.00461195083335042,-0.0074835047125816345,-0.005462325178086758,-0.007805550470948219,-0.02735002152621746,-0.01867229864001274,-0.006927631329745054,-0.0021274795290082693,-0.006046786904335022,0.002142928773537278,-0.003679657820612192,0.0012758169323205948,-0.021402675658464432,-0.016782058402895927,-0.003520791418850422,-0.004362158011645079,-0.023818455636501312,-0.006745226215571165,-0.010581372305750847,-0.01089524757117033,-0.007582790683954954,-0.009915737435221672,-0.008863937109708786,-0.017220988869667053,0.003428105032071471,0.0028406912460923195,-0.004112054593861103,0.015684189274907112,-0.0028238152153789997,0.013095404021441936,0.010954951867461205,0.008397633209824562,-0.015690742060542107,-0.01137565542012453,-0.012358706444501877,0.0011626359773799777,-0.0217764750123024,-0.012241298332810402,-0.004939720034599304,-0.02094828337430954,-0.006370059214532375,-0.011404146440327168,0.0002896348596550524,-0.005840393714606762,-0.00893689226359129,0.00034600484650582075,-0.019860025495290756,-0.014607463032007217,-0.0001292547967750579,-0.009591203182935715,0.0013462714850902557,-0.012878015637397766,-0.005370927508920431,0.0027374322526156902,0.0007369339000433683,-0.009765044786036015,0.007669288199394941,0.0073756868951022625,-0.0030586449429392815,-0.00972789153456688,0.014444093219935894,-0.005710706114768982,-0.007225419394671917,-0.00031490178662352264,-0.01709030568599701,0.008490526117384434,-0.01685110107064247,0.010394185781478882,-0.009784449823200703,-0.020613165572285652,-0.019679926335811615,-0.013975800946354866,-0.00014836897025816143,-0.00028984263190068305,0.0159540306776762,-0.004841206129640341,-0.013614420779049397,-0.008422604762017727,0.011150090023875237,-0.004487309604883194,-0.018027137964963913,-0.01879926770925522,0.004557664971798658,0.00252531748265028,-0.013558479025959969,-0.02057156339287758,-0.019081976264715195,-0.0010546819539740682,-0.017754167318344116,-0.010884986259043217,-0.006280000787228346,0.0017250428209081292,0.004593339748680592,-0.007986967451870441,-0.0015054659452289343,-0.015555818565189838,-0.010451833717525005,-0.007629727013409138,-0.00489999121055007,-0.010771965608000755,-0.02256220206618309,-0.010743847116827965,-0.01609322614967823,-0.005460225511342287,-0.006497003138065338,0.0067249471321702,0.0056532020680606365,-0.013098265044391155,0.0001719675783533603,0.002327490597963333,-0.0026765642687678337,-0.011080918833613396,-0.02547166682779789,0.0016705391462892294,0.0023064245469868183,-0.014248302206397057,0.01346529833972454,-0.0017913556657731533,-0.01853927969932556,-0.009181060828268528,0.007511242292821407,0.0018650253769010305,-0.00892071332782507,-0.011885483749210835,0.0030537385027855635,-0.012847522273659706,-0.005470055155456066,0.006312600802630186,0.013496022671461105,-0.0052875978872179985,0.0038953227922320366,-0.0016546337865293026,-0.006669489201158285,-0.013558775186538696,0.016105467453598976,0.003225453430786729,-0.004154802765697241,-0.014713660813868046,-0.007831144146621227,-0.001501231687143445,0.002652950119227171,-0.007998823188245296,-0.022830374538898468,0.01016337051987648,-0.012386859394609928,-0.017848936840891838,-0.007458687759935856,-0.00388733041472733,0.015635725110769272,-0.002004150301218033,-0.0026828781701624393,-0.01147658471018076,0.03014989383518696,0.0008905417053028941,0.008104171603918076,-0.023633837699890137,0.0001799904857762158,-0.006318174302577972,0.006145102437585592,-0.002581547014415264,0.0037622167728841305,-0.003729927819222212,-0.011716828681528568,-0.014111663214862347,-0.009886683896183968,0.008577337488532066,0.0019435894209891558,-0.01018252782523632,-0.007170155644416809,-0.011631378903985023,-0.003255253192037344,-0.015585828572511673,0.013888233341276646,-0.00643015606328845,-0.0182090662419796,-0.010206574574112892,-0.006008657161146402,0.01605304330587387,-0.002378014614805579,0.009422363713383675,-0.0047251502983272076,-0.004163163248449564,0.00417792284861207,0.00893428549170494,-0.0008784495294094086,-0.031198352575302124,0.02851296402513981,0.01168249361217022,-0.00720648467540741,-0.01020006276667118,-0.025825096294283867,0.0008911354816518724,-0.006008502561599016,-0.03335747867822647,0.00873507373034954,-0.009767279960215092,-0.023577282205224037,-0.01682266779243946,0.0010639482643455267,-0.009652793407440186,-0.031512290239334106,-0.009375171735882759,-0.0011930714827030897,-0.0029031147714704275,-0.004662791267037392,-0.014878311194479465,-0.015227805823087692,-0.007105057127773762,-0.018396206200122833,-0.00884113647043705,-0.015424366109073162,-0.005334650631994009,0.02176831103861332,-0.03622451052069664,-0.006366546265780926,-0.014028131030499935,0.01438276469707489,-0.012126373127102852,-0.0021134698763489723,-0.003015905851498246,0.00045812761527486145,-0.015888256952166557,0.012463935650885105,-0.004400770645588636,-0.01046544499695301,-0.012043189257383347,0.009598265402019024,0.0038932287134230137,-0.013569996692240238,-0.00961790420114994,0.007647688966244459,-0.005261571146547794,0.012552781030535698,-0.030205825343728065,0.007788969203829765,-0.003752447199076414,-0.0015746254939585924,-0.010808943770825863,-0.0009887232445180416,-0.011864250525832176,-0.009102566167712212,-0.004624650813639164,-0.006317992229014635,-0.004424138925969601,0.0026620093267410994,-0.008944706059992313,-0.01327173039317131,-0.016604432836174965,-0.017968667671084404,-0.013454034924507141,-0.011780821718275547,-0.00842741783708334,-0.01411953754723072,-0.012838203459978104,-0.00869281217455864,0.010999500751495361,-0.01361681055277586,-0.00020863044483121485,0.02390171028673649,0.009658060036599636,0.0295066200196743,0.0034146171528846025,0.012130619026720524,-0.00098137347958982,0.001100852619856596,0.006233478896319866,0.0009221669752150774,-0.014322677627205849,-0.03733067214488983,0.0034566933754831553,0.024832962080836296,0.0009758942178450525,-0.00035287239006720483,0.01040287408977747,0.000549775140825659,-0.0030134092085063457,-0.0034318757243454456,0.0058649214915931225,-0.01437037531286478,-0.01224820502102375,0.0041838958859443665,-0.00012017026892863214,-0.008257443085312843,-0.009031584486365318,-0.0023869196884334087,-0.006157897878438234,-0.007125497795641422,-0.005268867127597332,-0.02815844491124153,0.0017132381908595562,-0.023824671283364296,-0.01194863673299551,-0.023208392783999443,0.00589442253112793,0.007825512439012527,-0.004906243644654751,-0.00976173672825098,-0.012423939071595669,-0.007736044004559517,-0.016301210969686508,-0.023023568093776703,-0.01711275614798069,-0.01864778622984886,-0.009024121798574924,-0.0032967329025268555,-0.011969887651503086,-0.027434004470705986,-0.004984172061085701,-0.0040557305328547955,-0.006514765787869692,0.0036891731433570385,0.002869116608053446,-0.0017834652680903673,0.002644801279529929,-0.0012360141845420003,-0.0015172511339187622,-0.016052784398198128,-0.0010051048593595624,0.0037248770240694284,0.007069302257150412,-0.010446219705045223,-0.0145223094150424,-0.00963624194264412,0.004807309713214636,-0.004036283120512962,0.02256499044597149,0.012350176461040974,-0.006106062792241573,-0.00739247165620327,0.0012682556407526135,-0.004291589837521315,-0.01132427342236042,-0.01772162690758705,-0.005292447749525309,-0.0116352504119277,-0.0006824051379226148,-0.009380401112139225,-0.010396147146821022,0.002032692078500986,-0.002006580587476492,-0.017514754086732864,-0.008283097296953201,0.002003542147576809,-0.011260582134127617,-0.0013928026892244816,-0.001322548370808363,0.008777997456490993,-0.015179789625108242,-0.0068198335357010365,0.0006014861864969134,-0.022243740037083626,-0.013476184569299221,-0.011981893330812454,-0.013525152578949928,-0.0130635816603899,-0.01026817038655281,-0.011334804818034172,-0.0007521144580096006,-0.018018461763858795,0.005729936994612217,0.005310520995408297,-0.00047670304775238037,0.009895884431898594,-0.025370154529809952,-0.003714785911142826,-0.022712616249918938,0.004429190885275602,0.009944310411810875,-0.001786150736734271,0.013397831469774246,-0.009628967382013798,-0.006434989627450705,-0.024597197771072388,5.2000970754306763e-05,-0.002971187001094222,-0.0060735163278877735,-0.004171386826783419,-0.017646338790655136,0.0017813791055232286,-0.015244631096720695,-0.019243666902184486,-0.014906276017427444,0.004339274950325489,0.004026178736239672,-0.012239133007824421,-0.009041025303304195,-0.008701897226274014,-0.015366083942353725,-0.013644935563206673,-0.022320572286844254,-0.008560765534639359,-0.0191892609000206,-0.008112583309412003,-0.007875502109527588,-0.00033540657022967935,-0.006541382055729628,0.008990146219730377,-0.01171234343200922,-0.0033862553536891937,-0.002262127585709095,0.0024942285381257534,-0.009576666168868542,-0.009405544027686119,-0.017447303980588913,0.00163164921104908,-0.0054490757174789906,-0.006716579664498568,-0.009650547057390213,-0.0004444268124643713,0.0010839224560186267,0.0063034845516085625,-0.0061069633811712265,0.004075424745678902,0.004735579248517752,-0.023354990407824516,-0.009346267208456993,-0.009243044070899487,-0.0032575028017163277,0.00010455736628500745,-0.010812481865286827,-0.019338740035891533,0.018531281501054764,-0.003175912192091346,0.009553507901728153,0.005528378766030073,-0.003039673902094364,-0.0002590510412119329,0.008875126019120216,-0.009183913469314575,-0.0331038236618042,0.00939639750868082,0.006734560709446669,-0.005626963917165995,0.012065664865076542,-0.019800309091806412,0.000787118449807167,-0.005693571642041206,-0.017147153615951538,-0.01789221353828907,-0.010802141390740871,-0.0055328067392110825,-0.01733430288732052,-0.0029076968785375357,-0.00047168621676974,-0.006861956790089607,0.0032543332781642675,-0.00043902796460315585,-0.002642302308231592,-0.004789295606315136,-0.02790766768157482,-0.012680278159677982,-0.02252529188990593,-0.018394719809293747,-0.012862784788012505,0.004420914687216282,0.0029553489293903112,0.007592345122247934,-0.0016045673983171582,-0.009473449550569057,-0.011622617952525616,-0.023248014971613884,-0.019326193258166313,-0.00043024925980716944,-0.014125611633062363,-0.013169963844120502,0.010813902132213116,-0.023007867857813835,-0.003725690534338355,0.004991592839360237,-0.005932904314249754,0.022253479808568954,-0.0027236612513661385,-0.014929796569049358,0.005818024277687073,-0.0014908231096342206,-0.016106797382235527,0.01280070748180151,-0.0063622393645346165,-0.004685613326728344,-0.006320824846625328,-0.010988065972924232,0.0059737819246947765,-0.006581734400242567,-0.029177742078900337,0.027683638036251068,0.0032355859875679016,0.00944856833666563,0.006503356620669365,-0.020570319145917892,-0.002382000908255577,-0.014643939211964607,-9.811322343011852e-06,0.0071516865864396095,-0.013338346965610981,-0.037799835205078125,-0.008525196462869644,-0.003705920884385705,-0.0068790847435593605,-0.02020840160548687,-0.010450313799083233,-0.007364874240010977,0.003049829276278615,-0.008198941126465797,0.013153934851288795,-0.005776127800345421,-0.020063497126102448,-0.00957011990249157,-5.9544752730289474e-05,0.018869219347834587,-0.000695167516823858,0.01435589324682951,-0.015707163140177727,-0.0178811177611351,-0.02168029546737671,-0.019235508516430855,-0.017886245623230934,-0.007691500708460808,0.00142900669015944,0.007151746191084385,0.004686642903834581,0.01920980215072632,0.0031329619232565165,-0.003854275681078434,0.009155811741948128,-0.024611197412014008,-0.017031539231538773,-0.0015368300955742598,-0.0036857803352177143,0.0014107475290074944,-0.025084463879466057,0.006722813472151756,0.00846919696778059,0.00046807978651486337,0.018582673743367195,-0.0033909021876752377,0.0016229586908593774,-0.01977592706680298,-0.022766049951314926,-0.016971047967672348,-0.0072958567179739475,-0.008800328709185123,-0.002668708097189665,-0.009384957142174244,-0.024306803941726685,-0.004481956362724304,-0.00865018181502819,-0.0122959204018116,0.0016097904881462455,-0.01992289535701275,-0.005607852712273598,0.0019062806386500597,-0.014010343700647354,-0.011635633185505867,-0.011956111527979374,-0.021129101514816284,0.0007936067413538694,0.023447714745998383,-0.017902512103319168,-0.025671809911727905,0.018235551193356514,0.0037546439561992884,-0.013719318434596062,-0.0030769850127398968,-0.012093743309378624,-0.005354279652237892,-0.004907308146357536,0.017311982810497284,0.007529040332883596,-0.006194568704813719,0.010506270453333855,-0.0010477376636117697,0.00540768401697278,-0.014416947960853577,0.004522670526057482,-0.012939317151904106,-0.002218018751591444,0.019349761307239532,0.003453303361311555,-0.017322178930044174,0.01146484911441803,-0.012133053503930569,-0.021479973569512367,0.013604783453047276,0.0008388030109927058,-0.0011731915874406695,-0.002285574097186327,-0.02043563313782215,-0.0159020833671093,-0.01855192519724369,0.002554092323407531,-0.011684475466609001,-0.01287794765084982,-0.006671438924968243,-0.0037261610850691795,-0.004536225460469723,-0.008481672033667564,0.001303965225815773,-0.016761742532253265,0.0050369808450341225,-0.023125579580664635,0.006334517616778612,0.010957424528896809,-0.0025154096074402332,-0.005523035302758217,-0.014956505037844181,0.004603382665663958
