ENSP00000000233,-12.018033,9.776242,13.114183,-1.0654719,-12.13819,0.62376106,12.920444,10.027226,10.272832,-4.5789194,-7.8170376,12.494657,-2.5924368,6.2680454,-0.8404343,-1.8723747,2.9016032,1.0828507,13.207882,7.416332,7.5729427,-1.2474782,5.581185,8.428498,4.3481746,4.6123133,7.433643,-10.558008,-1.8137482,-1.5005283,-4.5642695,6.652643,-7.0008187,7.1330867,-3.2177851,0.6700241,4.110123,17.517015,5.2403917,-16.217619,5.7647,10.128252,-3.468388,4.469911,2.4054146,1.3715065,2.9983075,5.3080835,-1.1027088,-1.2247803,-3.5918646,-7.375355,-2.6532931,10.253545,-1.5459586,-5.3569493,-16.298471,2.8526006,1.320118,10.863644,13.447059,2.0905037,8.735299,-2.6610992,-6.257275,-20.90059,-8.079777,4.7356896,1.1045262,14.912265,-10.573135,-12.243256,0.77758396,9.646921,2.8308215,10.050392,-9.300465,11.658214,-7.0164495,10.541402,8.28951,3.587896,-0.83833534,-2.4509964,-14.616766,11.585995,-0.8483625,6.423078,8.334116,1.1157339,1.9170963,-8.373611,8.513566,10.41737,8.652996,4.988349,-9.285079,3.9290516,17.188951,-13.028323
ENSP00000256682,-1.6848135,1.9217508,0.25117108,-0.1986079,-1.28079,-0.8284341,0.53091437,0.3724278,0.41495085,-1.3075511,-0.085408665,1.8116679,0.55692357,0.3798583,-0.7961692,0.3995767,1.0885522,1.4360771,1.4242532,0.6379994,-0.15742242,0.21665886,-0.4210908,0.40227404,1.0502833,1.3132342,-0.23301108,-1.4528635,0.22967339,-0.5590437,0.2307682,1.052292,0.4219521,0.37882608,1.1849912,0.7915415,-0.33532065,0.26807666,-0.31353766,-1.7675838,0.45818257,1.0956519,0.29745936,-0.48309216,0.49373507,-0.7234999,-0.6114001,1.0467833,0.21766882,0.18750606,-0.356299,-0.99768,0.023192378,-0.017444823,0.12696595,-0.29831553,-0.8249769,0.27079532,1.3989356,0.12910314,1.2334191,0.39213228,1.6697687,-0.09724435,0.44444215,-0.52846235,-0.10730866,1.8914065,0.95157546,0.7625828,-1.6359364,-0.73883295,-0.028968977,0.7053289,-0.2800134,0.7086075,-1.8133038,0.005034255,-0.002288972,0.9583157,-0.123808116,0.25436118,0.006271293,-0.8275592,-1.6669213,0.76132447,-0.78277946,0.33922195,0.94992304,1.1099099,0.44517022,-0.54366815,1.0399525,-0.18391758,1.0464745,1.3110857,-0.06703328,-0.44159636,-0.22773956,-1.5311623
ENSP00000262812,-0.7127386,1.6990414,1.0562832,0.04300656,-0.20276697,-1.5257103,1.8487747,0.5991668,-0.14749518,-0.8798087,0.41241184,0.52546793,0.7251052,0.47224292,0.08634759,0.20757557,0.7290982,-0.0017547403,0.59125155,1.139932,0.3155499,-0.55629176,0.6089153,0.539983,-0.07698102,0.6145244,-0.5553833,-0.63452,-0.30932304,-1.4754388,0.61764586,0.80145484,0.9553014,-0.000979032,0.9576762,-0.047873918,0.54814136,1.3638549,-0.15484706,-0.9715769,1.6538401,1.390544,0.120288335,-0.20727883,-0.55469877,0.8115919,-0.942538,1.2875015,0.6383031,-0.13898079,-0.9693185,-0.63069665,-0.42205805,-0.11626897,-0.8893212,-0.22622274,-0.07210687,-0.010378122,0.76934993,-0.46522498,1.2859315,0.31965443,0.7543129,-1.0911013,-0.37252563,-0.30499047,-1.1300951,0.902707,-0.26768166,0.5499507,0.15441696,-0.60758626,-0.47672823,1.675502,-1.0356779,1.4987539,-1.3476992,-0.15491258,1.1301285,0.45029858,0.83909005,1.2526636,0.6510926,-0.6498788,-1.9628992,2.2619355,-0.5175847,-0.43250358,0.8145226,1.4678591,0.8027035,-0.54766655,0.85940844,0.6624637,-0.110150255,-0.08729257,-0.5333097,-0.009408362,0.5682617,-2.453101
ENSP00000266376,-0.079830535,-1.6929064,-0.9242297,0.5730863,-0.8859569,1.0988157,-1.3456372,-0.15707012,1.3947934,-0.7496011,0.54637516,-0.42246094,-0.1599224,-0.5157699,-0.986477,0.7684938,0.5087493,0.94983584,-1.4989175,-0.89101255,-1.4397665,0.48799017,-1.6063058,-3.349659,-0.7944351,-0.56977475,-1.4058747,1.1628721,0.43557438,-2.8537843,-0.40807322,1.40252,-0.2999334,-0.9120008,0.21373565,1.55314,2.0681767,-0.5185163,0.4867233,-0.5371311,0.9771,-2.0286841,-1.3681297,0.69955283,1.091695,-0.93076533,-0.47682244,0.8840656,0.6391145,0.7803095,-0.41083145,-0.4467423,-0.5209613,-1.6778963,-0.9886928,0.8660419,-0.14144745,0.53592616,1.7932636,-0.97142524,1.4664727,-1.9000806,0.8135839,-0.014199595,1.5745335,2.2109132,-0.12199559,-0.63778704,-0.7134458,-0.27841565,0.7082458,0.62866235,0.06571401,0.9835271,-0.8602874,0.08002474,-0.07652764,-1.8074114,1.0159328,-1.9035593,-1.1817268,-0.5907373,-0.7992466,-0.37221733,-0.7496712,0.035479173,0.5336801,-0.13421154,-0.10273544,3.1691167,-0.83620524,1.098662,-0.29971638,0.1966641,-1.7030557,0.22465077,-0.7743389,-1.2424061,-2.072169,-1.6910002
ENSP00000297494,-0.7365549,-2.5351357,-1.5210835,0.4427471,-0.09974814,1.2260319,-0.044421557,0.11574288,1.1339402,-0.7109259,-0.23383676,-0.14941423,0.81165934,0.36961874,-0.25120255,-0.5647105,1.0624796,0.9925971,-1.0934013,-2.1217968,-1.4350352,1.5282103,-0.44481036,-2.481329,-0.27367827,0.089168206,-0.16711187,1.3546882,0.23066753,-1.7314961,-0.37904024,2.4670277,0.6602977,-0.48243406,-0.2028369,1.6169009,1.6028099,-1.1046653,0.6824669,-1.3142061,0.8311949,-1.0277017,-0.9744612,0.1517515,1.7319227,-1.5613321,-1.3811957,-0.41434073,1.3590053,-0.5089538,-0.2592076,0.9270224,0.11722087,-0.30234492,-0.024946393,1.7852881,-1.2208959,0.9530342,1.7468389,-1.7301528,0.44496146,-2.1273253,0.812088,-0.46575287,0.106755175,1.4090465,-1.5670071,0.2135997,-1.1388049,-1.3137943,2.059519,1.9402256,1.0312899,0.31356084,-1.2724352,0.11273614,0.3357742,-1.3949769,1.6318538,-1.6697702,-0.2067427,-0.16726297,-0.69518507,-0.7518545,-1.554182,-1.0203122,0.45982096,-0.6854794,0.19503622,3.0938063,0.5399133,0.41769743,0.7374481,0.735725,-2.1947143,0.6122001,-0.05821255,-0.43815586,-2.0977614,-2.140196
ENSP00000320821,-0.41150585,0.102921836,0.6472989,-1.0129157,-0.30392316,-1.4099772,2.1806443,0.18747559,0.8406447,-0.643989,0.4702387,1.2821207,0.29017904,0.9259749,0.45438188,0.048821144,0.9518795,1.1266905,1.6748104,1.5681453,-0.8326765,0.8156143,0.48540872,0.0049076565,0.06861554,0.6225698,0.68885446,-1.6844043,-0.6544699,-1.2738152,-0.23718177,0.44843167,0.67853546,0.6478746,-0.70568943,-0.95795286,-0.11016474,0.5865801,-0.22248413,-1.2813964,0.97048855,0.83019036,0.5512536,0.73536956,-0.017196828,-0.60325575,-0.5359141,0.35057604,-0.52712375,-0.5862184,-1.124899,0.39841944,0.37048888,-0.4964978,-0.5366666,-0.43800366,-1.8474225,0.09728017,1.8341784,-0.26813838,1.6137099,-0.54258835,1.6438645,-1.2887682,0.5645822,-0.42817104,-0.20510478,1.0909077,0.14105755,0.9903357,-0.86455065,-1.4834439,-0.3695378,1.5426397,-0.68859977,0.48200026,-1.1946276,-0.20800453,0.71081114,1.1870916,1.0046628,1.3051068,-0.13701722,-0.41163686,-1.6721028,1.7144928,-1.0973699,-0.57456654,0.12669693,0.18142849,-0.075892575,-1.5155847,0.17883806,-0.20420547,0.4187269,0.47002763,0.38913015,-0.7113282,-0.09743941,-1.3803772
ENSP00000349259,-1.9440315,0.18782543,-0.17168523,-0.2520477,-1.3740288,-0.44404262,1.1605767,0.104469575,-0.018541565,-1.2572217,0.3744281,1.3047502,0.37652344,1.1552815,0.6198181,0.30059114,1.0554777,1.1868862,0.2101094,1.4334444,1.2593305,0.80575573,0.24493857,-0.42909008,0.07397535,0.59553915,-0.46629825,-0.24605377,0.07878723,-1.4335108,-1.1762536,1.3107547,0.97294223,-0.5433218,0.7299635,-0.6655953,-0.38366935,1.8960656,-0.60479575,-0.90391916,0.7650678,-0.42492965,-0.28293988,0.35782,-0.97748566,0.43279418,-1.2745665,1.2379478,-0.17490937,-0.9075659,-0.801712,0.40691388,-0.3841083,0.77886766,0.2910084,0.18002501,-1.8827502,-0.5773592,1.0314723,0.42899877,1.0571805,0.686048,0.90965176,-1.4676386,0.14115438,-0.8352572,-0.020627316,0.4608414,-0.15782553,1.1089476,-1.7795057,-0.27352378,-0.8908986,0.85807276,-0.8766568,0.84071237,-1.5496184,-0.14601551,-0.07349348,0.9563336,-0.44801268,0.2721917,0.76771593,-0.363651,-1.569653,2.233643,-1.1078795,-0.17950112,0.19569327,-0.29572085,-0.83422786,-0.31881142,1.3893688,1.1007469,0.30492628,1.4464908,-0.9825505,-1.0467582,-0.003880623,-1.1695119
ENSP00000355645,-0.914437,-2.1270955,-1.5628598,-0.06303163,-0.40428913,0.93369484,-0.48847565,-0.6091008,0.2920111,-0.36404213,0.48549843,-0.259943,0.40796608,-0.46391043,-0.58143884,-0.6272008,0.3256203,0.8671584,-0.7446642,-1.4179476,0.009193214,0.05302004,-1.8396555,-3.3933766,-0.9134705,-0.93897223,-0.2514525,0.88762915,-0.05120998,-2.7833505,0.15976687,0.8984917,-0.33650893,-1.1561673,-0.5751286,2.0946352,1.5172709,-1.4489217,0.463866,-1.5594093,1.5092615,-1.5259063,-0.08468736,1.4665508,2.0962708,-1.8733636,-1.403931,0.32206178,0.19952677,-0.6715971,-0.46664923,0.89196366,-0.5504264,-0.4577711,-2.104102,0.3813905,-1.1432241,0.42215377,1.648107,-1.8771757,0.5123781,-1.9541892,-0.5762476,-1.0394292,-0.019882938,0.7397734,-1.3566982,0.43267846,-0.27193528,-0.8088919,1.6130167,1.5124013,-0.5092359,-0.42595926,-0.34683597,0.3372496,-1.6734936,-1.9967211,0.24946326,-1.4930638,-0.7127,-0.4379864,-1.9475011,-0.6520698,-1.7942072,-0.19256333,1.0011811,-0.20111866,0.8042231,2.348288,-0.88980097,-0.18870421,-0.47921246,0.38613364,-1.3237302,-0.5758032,-0.015034364,-0.89269775,-1.6451316,-1.0464906
ENSP00000361057,-0.25879484,0.8916048,0.1165206,-1.202806,-0.27202332,-0.68428093,1.6885147,-0.5754159,-0.075358085,-1.1604855,0.8522852,0.92623764,1.0682963,0.9283318,0.7232702,0.26536664,1.2160915,1.0985018,1.2332668,0.28885382,0.8484166,0.67622375,0.3127231,-0.35165653,0.2204569,1.1631391,-0.4380302,-0.19508022,0.3839523,-0.018390538,-0.89029884,0.43124506,0.54007816,0.6343077,0.44218862,-0.6116249,0.38441658,0.7156347,-0.31023887,-1.7002141,-0.17675544,0.49290773,1.1147053,-0.4895721,0.3876661,0.402913,-1.342957,0.556495,-0.08171311,-0.78913355,-1.3291479,-0.92031175,-0.60652804,-0.1156169,-0.63147044,-1.0211704,-0.2071676,0.07465142,1.5286788,0.018085793,1.6706656,-0.65426147,0.6279949,-0.5099423,0.95350844,-1.5323268,-0.09408845,1.5279427,0.22316314,1.8008605,-1.010665,-1.7296708,-0.6335593,1.0174594,-0.67315847,0.71363634,-1.8104208,0.30507284,0.8183985,-0.039407723,0.02474718,1.4369344,-0.9671568,-0.27252144,-0.583734,1.7884314,-0.81885177,-0.9267954,0.48195192,1.4094745,-0.13392356,-0.023510318,0.9666487,-0.026275773,1.3563708,1.0287482,-0.8904155,-0.28860253,1.1158195,-2.0027754
ENSP00000379191,-1.5837941,0.72855693,-0.48958805,-1.3266201,-0.3865226,-0.7317443,1.4858422,-0.40072298,0.09015238,-0.04811846,0.52935016,0.47708917,0.9183409,0.9422882,0.07601764,0.14010334,0.020371553,-0.4324041,2.0740867,1.2385598,0.44547495,1.3794862,-0.04728735,0.423216,0.47783422,1.6372755,-0.391884,-1.567845,0.72466576,-0.8508296,-1.2106392,0.08300918,1.2457101,0.084143676,1.062348,-0.057684693,-0.5417109,0.14152305,0.6535341,-0.8232142,0.3830617,0.52756125,0.7701926,0.62754035,0.046871156,0.7724328,0.32452917,1.2454836,0.893788,0.2520581,-1.592371,0.33410186,-1.3371896,0.7825129,-0.93028027,-0.042723622,-0.8285767,1.1180313,1.2946357,0.49428797,1.1375126,-0.61331624,1.4438394,-1.2986528,0.86272925,-0.662253,-0.124826655,1.0480489,-0.20363168,0.9133046,0.1319326,-0.6987932,-0.015865894,0.6906042,0.4527887,0.3563381,-0.9270958,0.59253305,0.19428347,0.8230668,-0.37499082,0.9905393,0.5261535,-0.40743878,-2.0913506,1.864679,-0.2900476,0.51497084,1.1487932,0.8188654,0.2315312,-0.14336097,0.07911969,1.137755,0.716424,0.97805977,-1.316579,-1.1112581,0.33272836,-1.9717273
ENSP00000388878,-0.56633824,1.7985234,0.6359267,-0.34341565,-0.267754,-0.11112594,0.6936144,0.4646549,0.9798776,-0.13184977,0.9460362,0.9860424,0.39909378,0.6687078,0.6644072,0.35559043,0.15866843,0.5198153,0.82819647,0.27262172,1.0653733,0.9075277,-0.659347,0.12231912,0.004462664,1.7646575,0.3267113,-1.2608666,-0.353097,-0.91703475,0.06874133,1.0846027,1.3791151,-0.21561822,0.37899178,-0.80569935,0.7218346,0.9743263,0.8721529,-1.9970182,0.4559639,0.8069796,-0.011071342,0.5377417,-0.74996287,-0.39611286,-0.9322612,1.00421,0.448238,0.104477376,-0.097819194,0.22391906,0.45631194,0.41557044,0.3917896,-0.9898775,-1.3944749,0.5411139,1.1078514,0.1674927,1.6789235,0.23559551,1.8625671,-0.9351515,-0.35238084,-1.1853343,-1.1519601,1.6697785,0.75650376,0.70426476,-0.8985246,-1.4445323,0.82401675,0.16885076,-1.0748695,1.740432,-0.5745106,-0.62154454,0.05242301,1.259799,-0.2441255,0.8089678,-0.4261233,-0.52664304,-1.9215,0.9712875,-0.60799515,-0.60325074,0.5753605,0.012580717,-0.4489245,-0.16413912,1.3374039,0.46952993,1.67795,-0.15182583,0.078635335,-1.1995168,-1.1978042,-1.5995919
ENSP00000408979,-1.016991,0.8313536,0.6535967,-0.6239605,-0.5014446,-0.6507753,1.2452877,0.33917424,0.5656105,-1.3955619,0.15806992,1.3916993,0.88264084,0.21114151,-0.23000978,-0.19191656,0.6193137,0.59935755,1.187175,1.0282769,0.14241813,-0.2401447,-0.43642628,0.52565104,0.90854543,1.6902993,-0.8358265,-1.2015158,-0.60083634,-0.6447794,0.32349283,0.6624772,0.55397815,-0.32432744,0.004573464,-0.14642814,-0.42616028,0.42696077,-0.201132,-1.6168548,0.48707587,1.0901833,0.061939728,0.97997326,-0.7471666,0.39633057,-0.5229094,1.6079763,0.44564357,-0.53859425,-0.370231,0.4056403,0.34969386,-0.22986831,-1.15519,-0.287338,-1.0399442,0.59334695,0.55146194,0.05976338,0.86608046,0.22306444,2.1121907,-0.34060594,1.1876887,-1.0061821,-0.42512155,0.4610306,-0.60601485,0.8103587,-1.2896518,-1.0872298,0.061509933,1.1306605,-0.23788069,0.38429704,-2.3893256,-0.5406592,-0.017873554,0.48784176,-0.22189498,0.34162202,0.28117666,-1.5127,-1.5242615,0.8782456,-0.92495596,-0.13348366,0.20511395,0.72577274,-0.71294075,-0.41681963,1.2238789,0.0621113,0.64117897,1.5396041,-0.85759413,-1.6758307,-0.31321812,-1.4420447
ENSP00000463393,-1.1787328,0.49056932,1.1230738,-0.9360369,-0.05171981,0.43195292,1.6625913,0.47079572,0.88484144,-0.852286,0.43191427,0.9270999,-0.06728876,0.03474073,-0.84115106,1.3985564,0.7955964,1.0862063,1.0360395,0.45100597,0.5755372,0.078786395,0.77228266,0.24097618,1.0521655,1.641987,-0.9874675,-2.0658753,-0.36790788,-0.9834555,-0.8236002,1.308091,-0.25856653,-0.47320345,0.37424803,-0.7972729,-0.3957176,1.0516884,0.38014346,-0.54723376,0.0059509184,0.24781094,1.2346312,0.73190683,-0.50883806,-0.27403158,-0.820856,1.3595899,-0.47774455,-0.7128939,-1.0534244,-0.118574776,0.17915246,0.46452424,-1.2435157,0.29518175,-1.8650975,0.90954727,0.7273887,-0.33371073,1.1668824,-0.39180174,0.61679196,-0.5690489,0.8546341,-0.7926952,-0.06532791,-0.012128305,0.9460797,0.61065066,-0.82743555,-1.7890651,-0.59115064,2.0670335,0.23074767,1.1137637,-0.14352016,0.64450204,-0.032744393,-0.23831539,0.2570464,1.1229209,0.64375496,0.2689705,-2.1055517,1.5521718,-0.61709446,-0.85075647,-0.606318,0.640907,0.055455953,0.032425985,1.5898845,1.5344346,0.32818606,0.21305773,-0.24100362,-0.7636673,0.1667543,-1.6960995
ENSP00000222547,-0.3862859,0.6518802,-0.08046965,-0.7432084,-1.1488146,-1.0323896,1.0440737,0.69139856,0.54558575,-0.048655216,-0.51582813,0.5560369,0.6898808,-0.043023486,0.5714121,1.0838015,1.2216282,0.56451,0.5707017,0.6972279,1.1559882,-0.5641862,-0.8305352,-0.036067083,-0.13966972,0.37208065,-0.2727059,-0.8932273,0.696487,-0.6113779,0.1626174,0.6644276,0.18416254,0.13678677,0.8916993,-0.51190734,0.40374765,0.6497434,0.22206973,-2.0919561,1.2428567,1.0004029,1.0527052,-0.07351442,0.10396348,0.45551082,-0.5030019,1.0090129,-0.4214982,0.15099269,-1.3490772,-0.3575517,-1.1186334,-0.2888688,-0.20515363,-0.35300365,-1.0741528,0.750169,1.2728041,0.029792586,0.60828686,-0.71005446,1.2195122,-1.2791915,0.30000263,-2.041021,-0.6551575,1.22566,1.4509308,0.36230966,-0.9886082,-1.4295816,0.1402109,1.5448639,0.09810475,0.9867449,-1.2268991,0.5249827,0.97563577,0.028561348,-0.37559554,0.602632,-0.7490309,-0.7792462,-1.2062085,1.6440158,-1.7597705,0.043199494,0.6098728,0.5008085,0.013007795,-0.34994987,1.1196486,1.3419355,0.44073856,0.3924512,-1.3864334,-1.2136165,0.15377063,-1.9401335
ENSP00000260363,-0.8025037,0.41666842,0.28264654,-0.64455175,0.002758067,-0.1151919,2.41873,0.616582,0.45249853,-1.19275,0.44025585,0.63841546,0.10360097,0.5655892,-0.1284528,0.66811156,1.0507563,0.16369727,0.59679365,1.9674386,-0.315943,1.0082204,-0.72083527,0.40828303,0.452786,1.5672977,-0.6171114,-1.884942,0.9797373,-0.44541335,-0.2116841,1.4278678,0.7021508,0.22882818,0.0042677266,0.046980888,-0.17964196,0.6608496,0.35641775,-1.9367774,0.29855543,0.055408716,0.6318973,0.52566594,-0.3986681,-0.10747975,-0.10513784,0.2449538,-0.19245541,-0.0995899,-0.29174572,-0.18150398,-0.9444507,-0.21801297,0.14215447,-0.11241158,-1.226548,0.49415866,0.6876918,0.7623238,0.9927909,0.16676022,1.2099297,-0.44124138,-0.44603452,-0.8807265,-1.4260684,0.37334645,-0.0815437,1.5460348,-0.27931595,-1.1751367,-0.09558574,1.5955067,0.022898158,-0.12624854,-1.7126281,-0.043107044,1.1065024,0.19156352,0.011532231,1.1938103,-0.52518976,-0.5882876,-1.585388,2.1596758,-0.4929065,0.19376643,-0.27743483,0.18920879,-0.2261568,-1.3564699,1.2272817,0.54012424,0.8305427,-0.06650304,-0.6989405,0.23070754,0.64713633,-2.0385323
ENSP00000263980,-0.49610198,-2.042083,-0.9477858,-0.58183104,-0.5855842,1.7184525,-1.2330098,-1.7209547,0.8700848,-0.78467286,0.16446364,0.037608843,1.0721966,0.4139777,-0.22083467,0.61975175,0.82962835,-0.6148867,-1.5415428,-1.1474315,-0.39673918,0.7115259,-0.2802579,-3.1659045,-0.7270118,-0.051220886,-1.3995798,1.1068715,-0.45279157,-3.3559942,-0.44429287,2.2982297,0.54877096,-1.1279998,0.59131473,1.37229,1.8722304,-0.2219611,0.4174695,-2.0270357,0.0859692,-2.1963532,-1.2001593,0.9798062,2.231846,-1.5645018,-0.7096774,-0.030865788,1.2151701,-0.6354456,0.43414217,0.48224556,0.4323002,-0.7022795,-1.2788354,1.4535213,-1.2130078,1.4963199,0.6414321,-1.350892,0.74236244,-2.111699,-0.3419275,-1.1754735,0.7873154,2.167554,-0.94721705,0.58145374,-0.15133719,-0.085196495,0.6129301,0.48936322,-0.23098826,-0.3098976,-1.0689036,0.47328293,-0.48723686,-0.59224504,1.549092,-2.019693,-1.1592625,0.4964425,-0.5784633,0.36860138,-1.4989864,-0.7409237,0.6330867,-0.04140262,1.0089494,2.3270676,-1.1818146,0.41455415,0.3118689,-0.087724686,-1.5013686,-0.4136552,0.5914529,-0.11991835,-1.2131727,-1.1041306
ENSP00000282356,-0.47573578,-2.0789306,-1.3742213,-0.1966643,-0.5763018,1.4337933,-0.8299261,-0.9198189,0.8915413,0.6707721,0.06794458,0.40119374,0.10328811,0.52317536,-1.6643171,-0.5191472,-0.10569859,0.61275154,-1.6155888,-1.3075093,-1.4445463,-0.21252295,-2.046829,-3.8431776,0.15800034,0.3798399,-0.36499476,-0.041655995,-0.037045337,-1.905464,-1.2221255,1.1492722,-0.26323277,-0.5838105,0.71424323,1.9309281,1.4418565,-0.15347998,0.4050426,-0.5046847,0.4903587,-1.7424655,-1.2941487,1.819021,1.3708171,-0.78774244,-1.1200072,-0.54756415,1.10147,-0.40855172,-0.047916487,-0.7250413,0.83014125,-1.1839592,-1.6678524,0.54309255,-1.2017505,1.6721139,0.6387732,-1.2695384,0.33568162,-1.5960169,-0.6683925,-1.7166504,-0.57351273,2.2644184,-0.7942861,0.24383771,-1.3572631,-0.9052595,0.7476426,1.6338226,-0.041118518,0.24224952,-1.9571176,-0.5999149,-1.2664996,-0.5529965,1.3224596,-0.34841844,-0.4596372,-0.64243233,-0.97306764,0.5394817,-1.464047,-0.12465791,-0.23345213,-0.557718,-0.20056531,3.7265904,-0.47500232,-0.1029442,0.8754496,0.7731262,-1.3939338,0.05431619,-1.0459048,-1.1207609,-2.309802,-1.0000436
ENSP00000307078,-1.3834867,1.2059973,0.3199451,-0.12495905,-1.2376895,-0.37996057,2.1384265,0.27471393,0.6438079,-0.12114264,-0.7473476,1.2885512,0.7805616,1.2344834,-0.643793,0.1369219,0.40624356,1.1042929,0.30817428,1.0261395,-0.06315348,0.7774485,-0.057129018,0.75309277,0.017928865,0.6617484,0.4201276,-1.9130981,-0.85918546,-0.53613544,-0.8540948,0.8660586,1.192263,0.31495494,0.37260374,0.25908014,0.31289947,0.5429061,0.9215286,-1.0454167,0.20611304,0.38753593,0.0505679,0.7194746,-0.72380483,1.0029312,-0.47170538,1.3704942,0.30487102,-0.9835333,-0.62457556,-0.7947847,-1.2595325,0.15318194,-0.48693934,-0.09707612,-0.44874382,0.034539092,1.1951743,-0.2621162,0.9067608,0.44319388,2.0842597,-0.84645927,0.71136284,-1.3487793,-1.6145922,0.2028869,1.0668367,1.1429648,-0.013975281,-2.2175193,-0.582924,0.40405557,-0.8870254,0.20559645,-1.5778558,0.79697615,0.2408021,0.6830894,0.6604875,1.367062,-0.347881,-0.73843783,-0.383789,0.65273625,-0.35234994,0.53377664,0.757362,0.7036848,0.08444028,0.13689946,0.13864408,0.78013927,0.51572967,0.81030184,-0.5964,-0.5438794,-1.2464018,-2.5370302
ENSP00000330945,-0.37485772,0.2836694,-0.0445408,-1.1557578,-1.9071409,-1.1273348,1.1482037,0.1134072,0.364514,-1.4734485,0.38015994,1.5704843,0.89702153,0.42103553,-0.11580651,-0.29807726,-0.11800274,1.4806222,1.5891063,0.26914594,-0.47202218,-0.15875593,0.59495443,0.70481074,0.35233513,1.1508808,-0.60346687,-0.68534076,0.09241131,-1.3021077,-0.68141145,-0.0751397,-0.011435168,0.8383761,-0.2029011,0.9019902,-0.8245384,1.8419974,-0.20563307,-1.1654664,0.6093489,-0.23449156,-0.09102658,0.20207937,-0.9857255,0.92575836,-0.9360874,0.6392455,0.23716034,0.18708572,-0.043269373,-0.25060236,0.39659607,0.13849548,-1.2178797,-0.8707901,-0.5724768,1.2851993,1.2784631,0.47108167,1.8362634,0.7016966,0.7584179,-0.25396255,0.9644182,-1.5376688,-0.60654426,1.7133578,0.06922523,0.62154955,-0.106638,-1.1604507,0.89882624,0.47226977,-0.11804857,0.08633655,-1.580272,-0.029221961,-0.28579986,0.1913008,0.7968947,1.538262,-0.6700403,-1.1567614,-1.9986221,1.3329257,-1.6165924,-0.45163652,-0.19560006,0.25371027,-0.884027,0.20543185,1.475609,1.2524421,-0.03573361,0.03287419,-0.98796076,-0.3300153,-0.57237166,-2.1594517
ENSP00000353452,-0.20915103,-2.3887596,-0.84592307,-0.07783905,-0.26886955,1.364507,-0.85071975,-1.0558766,1.4788511,0.303008,1.0595965,0.274877,0.38015133,0.34975916,-0.13840008,0.8302389,0.3532446,1.0363299,-0.044522148,-1.1865158,-0.28566357,0.9803685,-0.71014476,-3.8584797,-1.0706619,-0.71263415,-0.63503814,-0.033406846,0.3079802,-3.0981896,-0.12732716,1.9093465,0.70790637,0.3004247,-0.5081011,1.8945315,1.0496591,-1.5677927,0.09324013,-1.5965636,0.106717765,-1.2998694,-1.4368696,1.765521,1.3597109,-0.7602828,-1.4516586,0.10276631,0.70569533,-0.37230945,0.12142494,-0.17781162,-0.6279201,-1.9489082,-0.22255096,1.0386323,0.24929014,0.09047666,1.8792768,-0.9475331,-0.25746498,-1.4153267,-0.4348012,-0.63089335,0.4696852,2.5596886,-1.1185881,0.6984429,0.37614548,-1.3736167,1.0619957,1.0711797,1.1410859,-0.47636893,0.031012686,-0.42562917,-1.6846178,-0.45120087,1.0317845,-0.42423624,-1.6836224,-0.37660828,-0.6585727,0.70759773,-1.1046116,0.13977706,0.84995663,0.09349924,0.92739505,3.1054997,-0.4945363,-0.637193,0.47107485,-0.12098578,-1.7847806,-0.32861948,-0.49453327,-1.3553417,-1.8966835,-1.6729276
ENSP00000359000,-0.54010606,0.677062,0.90158075,0.10665571,-1.199368,-0.22644451,2.314454,0.11605622,1.0377526,-0.29766402,0.7887246,1.8633189,-0.06636077,0.3712859,-1.0182306,-0.014606686,0.7767045,0.34361422,1.1726372,1.9671586,1.2444192,0.14041996,0.88731754,1.0451849,0.61782825,1.3815981,-0.22937034,-0.13851741,0.8658697,-1.4245054,-0.883135,0.747596,0.63516945,0.41421133,0.83621496,0.36329743,-0.37664646,0.41662163,0.2494328,-0.79110885,1.6070242,-0.3551532,0.76203185,-0.22295876,-0.37088424,0.2608401,-1.1601951,1.4130422,-0.8299124,-1.0713751,-1.2160633,0.89325696,-0.28037837,-0.7665746,0.052729074,-1.2723544,-1.1744728,-0.17233934,0.897745,-0.10525892,2.0248435,-0.63768065,0.4719103,0.2937053,-0.27430433,-1.4558281,-1.5193197,0.3280915,-0.365739,0.86958915,-0.013735311,-1.422358,0.81088406,1.3218766,-0.3818762,1.0418253,-0.7130202,0.28712824,0.15206233,-0.25934514,1.0527757,0.7540938,-0.5876426,-0.83592635,-0.96348,0.88972455,-1.202888,0.52638066,1.2886765,1.3028799,0.5309094,-0.24403559,1.7979797,0.20031528,0.3466384,1.7780987,-1.2834189,-0.73719764,-0.69987595,-0.90597165
ENSP00000373884,0.040338013,-1.0895672,-1.4870133,-0.25089902,0.49594167,0.19912915,-1.470504,-1.2777618,1.7723457,-0.476899,0.5651836,0.28962162,1.4559964,-0.32317528,-0.53190434,-0.100927174,0.73714685,-0.29010162,-0.42987642,-1.151341,-0.55222106,1.3242035,-1.8340269,-3.9377854,-0.035435185,-0.38040647,-0.22787072,-0.2825327,0.34047854,-3.0869308,-1.2223583,2.2881937,-0.4985055,-0.60957265,0.12595224,0.71716475,0.055475816,-1.6835641,0.57467747,-0.8037223,0.45481274,-2.3980405,-1.522047,1.5940812,2.454927,-1.3097315,0.18435444,-0.8056787,0.5817283,0.62030286,-0.21070588,0.33494642,0.52189434,-1.0753255,-1.8684888,1.313246,-0.35368115,0.02159589,0.44614595,-1.3066431,-0.32431397,-1.9088117,0.92565256,-0.5626419,1.1470286,1.058728,-1.08021,0.32972983,-0.40386057,0.10621816,2.0335538,0.66690534,-0.72396886,0.49997342,-0.2635655,0.054520186,-0.48795506,-1.6210171,1.2225552,-0.61195606,-0.43927425,0.01274853,-1.6692331,-0.09481096,-1.5445516,-0.87966114,0.26970533,-1.2336305,1.3744755,1.8240789,0.29712355,-0.02513587,0.88230324,-0.86770254,-2.357629,-0.38647172,-1.278744,-0.7184443,-2.036141,-2.175695
ENSP00000382428,-1.1548679,-2.1882412,-0.7579845,0.22405954,-0.5595196,1.0928165,-0.87357545,-0.3635036,1.122671,-0.626535,0.2199101,-0.1927641,1.1676829,-0.18308294,-0.8652732,-0.12217264,1.525403,0.2632039,-1.2934868,-1.7335517,-0.7972367,0.9705612,-1.7919328,-3.1664832,-1.080977,-0.65625477,0.027197475,0.1039783,-0.7288995,-2.392925,-1.4826754,0.64056844,-0.057930414,0.08398245,-1.0578882,1.9076813,0.06454152,-1.4698476,-0.5204896,-2.2968748,0.8760293,-2.4364874,-0.070080765,1.9555366,1.662626,-1.924262,-1.1640596,0.5295948,1.5809159,-0.50363404,-0.96807474,-1.0759656,0.67585564,-0.75641227,-0.8786873,0.79548264,0.13546449,0.15522075,0.9897291,-1.4024231,0.5390184,-0.892245,-0.11392226,-0.7551018,0.7349707,2.7786746,-1.815895,-0.1892928,-1.0704057,0.12272357,1.478102,1.8455224,-0.62435484,0.31511337,0.20633823,-0.272881,-0.54918355,-0.6525219,1.6894715,-2.0000124,-1.7492753,-0.29365796,-0.8180505,-0.36693132,-1.3731153,-0.098921865,0.5820721,-0.04244192,0.77694225,2.4025116,-0.36433426,-0.0313585,1.1668121,0.7373156,-1.1897835,0.75378937,-1.073289,-0.16073962,-1.4714559,-1.2650476
ENSP00000402373,0.25279567,-1.5904835,-1.4426644,0.13527837,0.92639744,0.59946567,-0.6937442,-0.26591778,1.9813073,-0.16565731,-0.32397318,0.09026015,1.0364394,0.2775448,-0.39885217,0.21881786,-0.07943035,0.660017,-1.291296,-0.24337742,0.14048804,0.7742838,-1.5561767,-2.888149,-1.6899986,0.49964878,-1.1285532,1.1058116,-0.51927584,-1.8464094,-1.5587273,1.5899032,0.0010176594,-0.70882875,-1.0200164,1.1208736,1.0722656,-1.4034556,0.15517974,-0.32269007,-0.045089968,-2.6729922,-0.7586542,1.6771541,2.6324966,-0.4342761,-0.23302709,0.78166443,0.8980021,-0.9998956,-0.5751786,-0.0024121944,-1.1798137,-2.016441,-1.7723875,0.9184152,-1.0335987,1.2730281,0.35312256,-1.3378206,0.8961644,-1.9202497,0.8403513,-1.0049126,0.92656225,2.061869,-1.2122688,0.26574174,-0.38711214,-0.18294406,2.187335,2.024438,1.0431322,-0.35747692,-0.7284357,-0.95751786,-0.28966203,-2.1627192,0.8557769,-0.2718241,-1.703284,0.91076857,-1.2205564,0.5186212,-1.0837002,-0.7913225,0.8616045,0.26232758,-0.38201272,3.5911148,-1.2295818,-0.39738762,0.9294382,0.26951563,-0.71581614,0.6268919,-0.11710886,-0.54777366,-1.0032014,-1.5753444
ENSP00000432568,-1.971177,1.3278822,0.62377816,0.5422402,-0.852592,0.40050954,1.813836,0.121470466,-0.4032519,-0.78328025,1.0941353,0.57774633,-0.0837209,-0.16347699,0.5076168,0.95216125,0.8647473,0.05198255,0.15139572,1.46002,0.6537001,0.9589349,0.432917,0.7111422,0.25902635,1.1252611,-0.8357138,-0.03359503,0.31138566,-0.9418246,-0.16173038,1.5113914,0.8834638,0.29459167,0.8273517,0.42910734,-0.21282558,0.84092945,0.12074853,-1.5588807,0.3942225,0.9594924,0.49387458,0.2750211,-0.7938934,-0.6498477,-0.15122053,0.6552768,-0.30807963,-0.8047078,-0.32222492,0.10475946,0.61656165,0.38738784,-1.6447667,-0.8544406,-0.84898,0.2510681,1.1444852,-0.38784647,2.1341279,0.31064665,1.5970169,0.44258362,0.8010655,-0.1541441,-0.4007611,0.52533406,0.92714226,1.93652,-0.31547487,-0.92744726,-0.19708875,1.7607923,-0.2648874,0.7092801,-1.8935276,-0.22420147,1.1327968,0.65321887,0.57239234,1.3991147,-0.8565526,-1.2376853,-0.917851,1.2415056,-0.8062075,0.6848858,0.3150825,0.47017047,0.19911061,-0.3417703,0.1158008,0.8177161,0.55080634,0.3148365,-1.1299912,0.114261575,-0.23812324,-1.6747557
ENSP00000480707,-0.6067762,0.91074824,0.06815177,0.07039882,-0.7943072,0.2526254,1.4028221,0.085271224,1.294716,-1.3865136,-0.23892927,0.7750353,1.0929692,-0.09980938,-0.5554731,1.4184366,0.20532514,0.26842567,0.96933526,1.5464156,-0.5634249,1.2895827,-0.15009387,0.7429548,1.0386323,0.088957064,0.1373199,-1.1560214,0.79890025,-0.62898827,-0.06442839,0.635854,-0.03848606,0.507475,-0.3667287,0.62420976,0.5930263,1.1696349,0.16153537,-0.52819955,1.0642015,0.4275208,-0.35659003,0.5340271,-1.2408136,1.1483755,-1.2077328,0.95028293,-0.68362296,0.37918004,-1.3671211,0.014278524,-1.0658298,-0.38053712,-0.4450739,-0.3963393,-1.7199061,1.1152488,1.323686,-0.024786724,1.9804596,0.3806788,1.9442259,-0.09585541,-0.14574541,-1.3490494,-0.016581716,0.59436995,0.91373414,1.7784821,-1.1383663,-0.17861187,-0.5144736,0.71995866,-1.043435,0.73113227,-0.9236437,-0.62025976,0.38960093,1.2494786,0.27255878,1.6052792,-0.1954693,-1.0950366,-1.7828859,1.5171796,-0.4887215,-0.5998882,0.7864549,0.65374064,0.41339216,-0.067600295,1.2285863,0.045680165,0.44545463,0.34419674,-0.90091705,-1.0221428,-0.6997246,-1.4163998
ENSP00000160827,-0.73492014,0.30099225,1.056739,-0.094466045,-0.20586094,-0.5473219,1.937983,0.7840124,1.3421869,-0.7870585,0.8577143,0.7744194,1.2023394,0.31733924,0.3546783,0.79979026,0.2230865,0.69646233,0.16961274,1.54902,0.0046461113,0.96485746,-0.042491153,0.18584138,0.3495018,0.68054765,-1.2066106,-1.6056346,-0.22778405,0.042192675,0.13876137,0.017958881,0.7976997,-0.53840697,0.88175154,0.73492277,0.6224774,0.27106765,0.09889636,-2.1295109,1.0796745,1.17604,-0.039184384,1.5957545,-0.06585198,0.20481321,-1.4460909,1.6048156,0.78282416,0.031192191,-1.0511142,-0.28987646,-1.2573347,0.56795007,-0.7643964,-1.2205479,-1.2627617,0.80485827,0.21281224,0.27368778,1.4320235,0.15929891,0.72033113,-0.8918277,-0.30319577,-0.9228876,-0.6645969,1.0732902,1.108783,0.61225265,-0.7972478,-1.3249164,-0.111929916,0.6432462,0.41612628,0.47988838,-1.3435575,-0.024337137,0.8315189,1.2481385,0.8032516,-0.16350126,0.3934856,-0.6386823,-1.8616829,1.0569538,-1.5054759,-0.14738472,0.75510514,0.2926693,-0.8396725,-1.0077118,0.51129407,-0.11081608,0.8387595,1.4950349,-0.36528403,-1.0598022,0.030980667,-2.083945
ENSP00000258739,-1.8858317,0.32953516,0.83591896,-1.1447369,-0.5476598,-1.2747662,0.6348515,-0.49389064,0.7490545,-1.3193251,0.9084568,0.9395426,1.0304798,-0.022609098,0.5911696,-0.5618276,-0.44143656,-0.42278844,1.7077554,1.6497769,0.78640836,0.59443116,0.02263672,0.083224826,-0.10127384,0.89544,-0.9209402,-0.98300344,-0.5983688,-1.3492328,0.11236757,1.0408,-0.2957474,0.51778704,0.5428214,0.011420853,-0.44789904,0.9952178,1.0770137,-1.6715246,1.0764276,1.147022,0.74882007,1.1581684,-0.9101696,0.5158734,-0.66429126,1.0878497,0.45667848,-0.40003467,-0.24581839,-0.068448,-0.23123012,-0.29114604,-0.89378875,0.55033267,-1.4977412,0.763844,1.550535,-0.24646395,1.4523484,-0.5395806,1.273009,0.48541814,0.2617403,-1.0970434,-0.82459015,0.23654412,0.9658013,1.9764984,-0.039078087,-0.6718357,-0.08346235,2.0072615,-0.089668766,1.1515964,-0.56176543,0.28916606,0.22975433,-0.14840288,1.0134622,-0.32464534,0.32776678,-0.8560451,-0.874844,0.67972213,-1.1023153,-0.5754648,-0.11917021,1.1439015,0.9164489,-1.2894027,1.388779,-0.32341367,1.3394253,0.37322918,-0.81402844,-0.44402647,-0.6155561,-0.9609817
ENSP00000263245,-0.73644173,0.56689197,-0.34886226,-0.38372624,-1.0357678,-1.2489012,2.1650124,0.15131414,0.0014969143,-1.0033199,-0.2081173,0.96133137,0.1885274,-0.2427916,0.27174044,0.41326934,1.2943724,0.5925253,1.0461038,1.3808795,0.8482413,0.8251611,0.75411326,0.2957223,0.9954738,1.8482077,-0.682213,-0.7990747,-0.517247,-0.012217306,0.4862042,1.7632931,-0.2885959,-0.22177646,-0.07831214,0.719149,0.80286527,0.81765866,-0.21182746,-0.6974049,0.5126475,0.91897005,0.92866427,0.36864224,0.027532829,-0.029019995,-0.39871925,0.033130117,0.2951603,-1.0746764,-1.5361295,0.94637585,0.7799745,-0.27117947,-1.3333637,-0.7989713,-0.4461698,0.8396552,0.626051,1.0365591,0.8347089,-0.2806063,0.7135352,-0.33813125,1.2412567,-0.7498887,-0.98797506,1.6589726,1.0083652,1.4833524,0.14658405,-1.2567635,-0.58059406,0.32357937,-0.38844863,1.3186338,-1.2220383,0.47125623,0.7610327,0.23104402,-0.29104614,0.4534495,0.93592083,-1.0276337,-1.3414865,1.3306074,-0.60860133,0.5611727,1.228454,0.32412794,-0.750376,0.13470146,1.297315,0.37905014,0.1321589,-0.37543848,-1.4288843,-0.79621166,-0.4320109,-2.5669796
ENSP00000272298,-1.5982417,-4.4423046,-1.0344701,2.3656526,-0.63627553,2.8978062,-1.8919282,-1.5007747,4.3648305,0.98538816,0.6259424,0.17157246,-0.22607715,-1.2686538,-2.6089501,0.38380197,1.8586714,-1.4736797,-0.618306,-3.5409293,-1.2759781,1.4089767,-1.9305516,-6.805477,-2.94263,-0.93551224,-0.5956618,1.4867867,0.44497782,-5.665158,-1.7255648,5.1315556,-1.6337048,-0.62044847,-1.211386,2.6321304,2.5711439,0.28389987,0.24872564,-3.1891918,2.451915,-2.670204,-2.1627686,3.3370478,4.768879,-2.542795,0.090323314,-0.56289035,1.2822764,1.2302511,0.4163929,-1.8173778,-1.6225395,-2.1236885,-2.0601704,1.7749921,-3.5486758,1.4251479,1.7725424,-0.991481,2.2090344,-3.052737,-1.0603577,-1.2695855,0.07984852,3.4377139,-2.625425,-0.10779574,-0.97428554,-1.635335,2.882961,2.8239715,1.5891668,1.2465575,-1.7602476,0.09166055,-0.88529205,-1.1310116,1.033687,-1.5274305,-2.2251961,-0.07891467,-3.6658595,-0.35309637,-3.3399715,-1.0148987,0.93970066,0.23087104,2.428871,6.6249514,0.5089189,0.3552097,-0.23031947,0.1817202,-2.438599,1.1434366,-1.8213264,-0.1825003,-0.5264601,-3.0978005
ENSP00000300087,-1.1447763,0.46248043,0.41754115,-0.35055885,-1.8117976,-1.3696955,1.5984142,0.24471773,0.66280514,-1.0854868,0.5276521,1.7231576,0.050467864,0.5775918,-0.3414748,0.33759227,-0.16314492,0.594948,1.8421236,0.24378306,-0.48640501,-0.27572882,0.39001065,-0.07061698,0.93241405,0.85429657,-0.68040377,-1.0171418,0.03805514,-0.08715408,0.27695134,1.8426064,1.2463549,-0.60998213,0.1146057,0.15462244,0.7733386,0.5428968,0.81831574,-0.30075908,0.16564871,0.17087358,0.43485707,1.0949506,-0.71392727,0.10160738,-0.52185947,0.026538784,0.8610906,-1.1475166,-1.396921,-0.15079388,-0.0043932158,0.48133174,-0.849301,-0.48141328,-1.3538524,-0.4593949,1.0720043,-0.64020294,0.56926024,-0.5146392,1.419935,0.4141282,0.6715611,-0.6013868,-0.78075886,0.21760488,0.09502136,1.7479204,-1.2940968,-1.6084658,0.671482,1.2500864,0.025448916,1.0917993,-1.2710251,0.46002242,0.36812678,0.94815624,0.85637814,1.6935214,0.32137683,-0.31534833,-1.3186051,1.4481086,-0.24089687,-0.10540081,1.1762702,0.7746364,0.11740624,-1.0436956,-0.21737896,0.7662104,1.3419937,1.2355877,-0.1704023,-0.90461636,0.48468763,-2.450352
ENSP00000324020,-1.8240256,1.3804244,0.18117829,-0.0731851,-0.60196954,-0.21667837,1.2638831,0.6177759,-0.11133719,-0.24589807,0.06663889,1.8481622,1.0418793,0.8778355,0.6613622,0.81205386,0.487546,0.9761937,0.26128078,1.2969325,0.25794372,0.26376262,0.721418,-0.016491886,0.49365526,1.503847,-0.2814454,-1.5746881,0.6791469,-0.8595003,0.2348074,0.18788628,0.39781097,-0.044740252,-0.8070521,0.11134425,-0.44553277,1.3293034,0.07540299,-0.8918002,0.47828123,0.8174872,0.77096826,1.0281627,-0.6247751,0.13112727,-1.2479956,0.91253436,0.99768513,-0.38260216,-0.76049864,0.22524105,-0.28834987,0.94141996,-0.9314941,0.21339153,-0.92113006,0.59447217,1.9548117,0.39096728,0.91063464,0.33507925,0.87885,-0.11621838,0.64856875,-0.7605936,-0.7565477,0.5572459,0.025890531,1.3703041,0.12049893,-1.609634,0.5116438,1.0042619,-1.0135972,0.62679315,-1.1409591,-0.3946907,0.77401346,0.42323092,0.31488645,0.5280131,0.6759896,0.1549857,-1.1614885,1.4976275,-0.01681152,0.116228074,0.3069586,1.5741419,-1.0178638,-1.10499,0.69907945,1.0008827,1.7298762,0.66514784,-1.639355,-1.2851499,-0.25185993,-1.6598203
ENSP00000352834,-0.614737,-1.9839598,-1.2061901,1.1487083,-0.050270356,1.5111711,-1.6045719,0.04717765,1.9335247,-1.1719925,1.2569554,-0.13800108,0.74703693,0.36000985,-1.503955,-0.73461443,0.6469885,0.66106176,-0.26343852,-1.4150882,-0.03533483,0.14544424,-1.6439214,-3.1084914,0.1807944,0.058222406,-0.3356261,1.4062952,-0.15896524,-2.7385132,-0.65948313,2.0769212,0.13422504,-0.069895715,-0.4350059,1.7891368,0.633799,-1.7939426,-0.83189285,-1.2223343,0.58205557,-1.7649059,-0.8110743,2.0529566,1.2950145,-1.1083231,-0.7768418,0.1732207,1.5247475,-0.17253898,0.39467067,-0.8816464,0.5341535,-0.9216597,-1.7779446,1.7344116,-1.2827797,1.3564487,1.9080882,-1.6285211,-0.2118434,-1.3372563,0.705539,-1.3262526,1.2215229,2.2700796,-0.35753423,-0.026565338,-0.88920873,0.06949384,1.3237027,1.1931562,0.73024637,-0.055249337,-0.14861508,-0.20708288,-1.3186113,-0.41039678,0.84645104,-0.066802785,-1.9914916,0.6982763,-0.70392525,-0.9336569,-0.7575929,-0.35470086,0.3317934,-1.2730184,1.191805,2.5570915,-0.8690459,-0.3038805,-0.57699907,0.41724405,-1.7153772,-0.6644678,0.55449677,-0.61839163,-0.74953824,-1.2648016
ENSP00000357129,-0.54812104,1.6162193,1.2901279,-0.06550336,-1.6344095,-0.42206126,1.5817654,0.03346295,-0.6009069,-0.88866043,-0.37716326,1.1884362,0.41069773,0.5414806,-0.70314157,-0.13612817,0.004225095,1.0957146,1.1726034,2.0254967,-0.37263292,1.0364105,-0.40134943,1.0660263,-0.22967453,0.98643976,-0.5876882,-0.82281804,0.26139456,-1.2095119,0.21215151,1.4149959,-0.30258545,0.7195066,-0.44754848,-0.5843848,0.87113804,0.06536396,-0.38696852,-1.8257225,1.0764679,-0.24579012,1.0402328,1.6201897,-0.25968492,0.8159483,-0.8914365,0.6226765,0.20242806,0.17424162,-0.44723797,-0.32808888,-0.32645914,1.1390506,-0.5548431,-1.2223597,-0.6017388,-0.2830608,1.6418602,-0.3681324,1.7237297,-0.13361906,0.80146706,-0.38377395,0.93965095,-0.76021564,0.058769394,1.2968007,0.43106866,1.1083841,-0.84857744,-1.0924044,-1.0125413,1.6181271,-1.0420974,0.7893195,-1.276422,0.40597484,1.7878435,0.0074354876,0.08209061,0.5857495,-0.6156642,0.0154488515,-1.2042612,0.54527825,-0.42146438,-0.25140402,-0.3542366,-0.022438645,0.18816702,-0.70424557,1.0449355,1.3628453,-0.15250038,0.96948016,-1.5210714,-1.2817762,-0.03956955,-1.593464
ENSP00000365162,0.04998807,-1.5108533,-1.1977115,0.004809472,0.7141099,0.69129145,-1.4236041,-1.3952036,0.47305962,-0.37747428,-0.045726735,-0.118700854,0.35453856,-0.690364,-1.1896689,-0.029250257,0.6489444,-0.62207025,-0.41555142,-2.097769,-0.59036666,-0.19230247,-0.6058533,-2.1970015,-1.3761356,0.5379893,-1.6971445,1.0874505,0.0135634905,-3.0578363,-1.5626085,1.1671054,-0.2527897,-0.86593634,-1.0074121,2.2867785,0.64506733,-1.0335073,0.91466045,-1.446254,0.5056399,-1.9430846,-0.4216889,0.44672087,2.139531,-1.1120023,-1.7751966,0.34009048,0.771195,-0.11503667,0.16724983,-0.8330885,-0.24314664,-0.83639956,-0.58988386,0.9740366,-0.63486254,0.694329,0.71587247,-0.5083001,-0.3187059,-0.9272356,0.9538605,-0.9636951,-0.09984138,2.3525815,-0.96090513,0.8255764,-1.2709051,-0.53631216,0.84808207,0.6950538,-0.0025973017,-0.40473005,-0.9055678,-0.16096692,-1.2104878,-2.4649408,1.5767931,-1.4576507,-1.685477,-0.8679436,-2.2524123,-0.27577433,-0.52671945,0.5240859,-0.22998506,-0.93106073,0.8956156,3.9308891,-0.05949995,0.31557742,0.7558215,-0.06874328,-1.9639089,-0.05076141,0.29438272,-1.1074514,-0.69252366,-2.2517433
ENSP00000380432,-1.2640369,1.5569218,-0.10304094,-0.098440595,-0.54385275,-0.08896179,1.7653024,0.98960274,0.7270482,-0.5422625,0.66551375,1.1372693,0.3470865,-0.07885636,-0.3373867,-0.4891576,1.1944156,0.92874396,1.684876,1.0250916,0.33397684,0.30058935,0.74069107,0.778583,-0.43925694,1.4100391,-0.695194,-1.0654598,0.878524,-1.3891468,0.40547118,0.7079907,0.7409131,-0.64589214,-0.18105838,-0.004955512,0.44812414,0.5033751,1.2983108,-1.233417,0.33337784,1.0688215,0.44103613,1.2254246,-0.74864846,0.27857518,-0.23257366,0.8596375,-0.3626827,-1.065093,-1.483564,0.3530119,0.49069664,-0.12804186,-0.26569778,0.5189625,-1.1723356,0.16162951,1.9372658,-0.22312336,0.80787534,0.6322011,1.1710496,-1.1952453,-0.1356161,-2.1057408,-1.248267,1.5552226,0.8099427,0.52269965,-1.3033465,-1.1527033,-0.97192746,0.3713791,0.66328853,0.95541674,-0.64101493,-0.94372755,1.0456424,0.2680385,0.5653237,1.3272302,-0.49897462,-0.1421206,-1.0240599,0.9809866,-1.5270876,-0.21712437,-0.52945036,1.7104808,-0.44761172,-1.5083691,0.09460126,0.39211357,-0.32999185,0.08518846,-1.0759898,-1.2599809,0.05989732,-0.97180206
ENSP00000399403,-0.8420223,0.29712394,0.06702175,0.043581497,-1.0051845,0.22202466,1.2803211,0.16016838,0.37388816,-0.7526287,-0.19365963,1.787631,0.40154877,1.6447688,-0.66440856,0.2678345,1.2734792,0.7999089,0.49015853,1.7302387,-0.014858635,0.27127013,-0.8395452,0.85323393,0.9849593,0.4217481,-0.920359,-0.31357077,0.30049348,-1.4962208,-0.06556503,1.0468128,0.6754725,-0.75864065,1.0112725,0.06624735,-0.6902605,0.41645512,0.8941857,-1.6030993,0.5088386,1.4569224,0.9335608,1.3401369,-0.25935608,0.5287594,-0.26517197,0.8602797,-0.32436767,-1.281075,-0.4844779,-0.19901139,0.22175662,0.9279303,-0.8204323,-1.0649022,-0.84168494,0.19216713,1.0190208,0.25994083,1.2827144,-0.8092765,1.939411,-1.2588543,0.15052462,-0.74850804,-0.11386464,1.4103173,0.89819264,1.3160762,-0.13311091,-0.7821071,-0.082776904,0.41300598,-0.36453873,0.025418956,-0.60125065,0.4964203,0.50046426,0.12993209,1.2104198,0.33835945,0.33265683,0.083977126,-1.021489,2.138225,-1.1959,-1.1815223,-0.32866558,0.45132634,-0.9238637,-0.25958133,-0.02713338,0.9668503,1.2107357,0.50864327,-1.0180607,0.46059933,-0.04001336,-2.7485394
ENSP00000414982,-0.68221307,0.8007957,-0.15420586,-0.45541298,-0.50090224,-0.35017833,2.3383176,0.07158007,0.025630545,-1.6155573,0.69725764,-0.119462535,0.30019233,0.1566966,-0.7379261,-0.2514325,1.4687344,0.5770469,0.7284605,0.69741833,-0.58748215,1.1245924,0.22664411,0.7592064,-0.76411086,0.0782808,-0.16091149,-1.72043,0.8548764,-1.3891703,0.25054455,0.7892887,0.8174074,0.81721205,0.91897756,-0.5604955,0.07750189,1.332504,-0.28051656,-0.48459396,0.58445317,0.94579154,1.1495229,-0.068645105,-0.09383476,0.17022072,-1.636751,0.520818,0.80993825,-0.6812903,-0.42847857,-0.33542272,0.5158402,0.74080783,-1.1364591,0.064043835,-2.0181086,0.6770853,0.32981336,0.8828403,0.6390902,-0.9241709,1.844596,0.32256976,0.5775145,-1.6120272,-1.0970335,1.0679278,0.3520373,0.7055986,-0.22522143,-0.9111093,0.14302893,0.44478506,-0.43858367,1.3822186,-1.07936,-0.007533041,-0.4967393,-0.22828281,0.85542834,0.52484506,0.21114916,-0.30431378,-1.1584744,1.6161863,-1.57112,-0.18881053,0.91543955,0.29851112,-0.34703198,-1.2351923,0.74106246,1.1763753,0.4844129,1.7551851,-0.89887404,-1.142245,-0.43095,-2.3781016
ENSP00000477310,-1.6239469,1.7639219,0.89313614,-0.7546507,-0.3069456,0.10643551,0.8537803,0.45177186,1.069654,-1.1875889,0.409808,1.1473283,0.04740251,0.27869982,0.12372899,0.25700286,0.20346995,0.12029101,1.2353771,0.90888673,0.5094418,1.105645,0.6525893,1.1117487,0.24883895,0.2876587,-0.78451157,-0.6462409,-0.79518586,-0.8014457,-1.0429066,-0.1732168,-0.012530468,-0.007901322,0.39542904,0.26217747,-0.7752133,0.20387056,0.37142867,-0.3409943,1.4672415,1.2763413,0.94724745,-0.26055506,-0.8949874,0.46855298,-0.14400323,0.32218933,-0.31355956,-0.91543776,-1.1082034,0.121990316,-0.3765546,1.0774593,-0.20658371,-0.11502738,-1.5987834,0.5955531,0.8939801,-0.77484995,0.7532306,-0.65511996,0.7445118,-1.2336793,0.09568451,-0.51428413,-0.0892053,1.7037117,1.0606099,1.1370258,-0.82020324,-2.0221884,-0.34018454,1.3643664,-0.9891,0.39831406,-2.5714529,-1.1906626,-0.12749846,0.11661526,-0.45357743,1.4366807,-0.60468566,0.18783866,-2.3980043,1.185281,-0.6413049,-0.95057404,1.4905549,1.0809271,0.4451627,-0.91901433,0.4352397,1.1411439,0.1742907,0.5790597,-0.9964492,0.3553204,-0.93295056,-2.2058516
ENSP00000243052,-0.7619009,-1.2591031,-1.2489548,0.3928086,0.11940155,0.2139226,-0.6418323,-0.7726736,2.2309644,0.14875697,0.4380355,-0.34316283,1.1842971,0.5405797,-0.59793586,0.25771385,0.52053165,0.48922652,-0.6949314,-2.1509807,-0.7696865,0.03984725,-1.8132377,-3.8642368,-0.024404142,-0.07072431,-1.8531474,-0.033138636,0.034690943,-1.9301509,-1.7313268,1.8957103,0.53065455,-1.2245102,0.28963733,2.1370769,0.9550669,-1.4278357,0.7719957,-2.0711482,1.4429197,-1.5789026,-0.840204,0.5339559,1.275914,-1.6516427,-0.80936044,-0.67771256,0.8075691,0.2727979,-0.96871006,0.5160502,-0.58965564,-1.3021832,-0.70659494,0.1952676,-0.07567175,0.7995532,0.8578649,-1.009031,0.54135364,-1.0591807,0.74383885,-0.9515393,-0.0552671,2.691084,-0.39535698,-0.78043014,0.19241008,-0.18147957,0.7890912,1.773609,-0.14338723,0.57223123,-0.59336036,0.07667672,-1.2533305,-0.39318913,1.0495458,-1.898376,-1.7421546,0.20265423,-2.2633398,-0.1884518,-1.2142597,-0.94386977,0.45445013,-0.92490506,0.6681808,3.1571462,-1.0438172,0.12618572,-0.32464325,0.6312636,-1.1351211,0.16844614,0.108085476,-0.2813556,-1.4841799,-0.85973334
ENSP00000262225,-0.6807349,1.2988603,1.0329416,-0.28257278,-1.1969684,0.25580576,2.1535985,-0.05505756,-0.24156646,-0.8087051,0.7289306,1.7168728,0.8603725,0.059765726,0.028547859,-0.34569803,-0.19740386,0.6838312,1.0508322,0.8818301,-0.48077396,-0.057763487,-0.117424965,0.11101544,0.7652586,0.97952193,0.41391647,-1.2318844,-0.4708729,-1.1585805,-0.19207783,1.2121874,1.0591794,-0.1647068,0.8348492,0.16811286,-0.22024082,0.3247723,0.3679651,-0.6244489,1.1800243,1.2731688,0.048578266,-0.07924749,-0.2243974,-0.9401608,-0.0002812657,1.243773,0.5107268,-0.9413574,-0.45383036,0.0077993963,-0.488753,0.9846076,-0.9525875,-0.7991959,-0.38265362,1.1156323,1.5468811,1.0422281,0.65671223,-1.1118501,1.8431263,-0.82138944,1.3250952,-1.3948715,-0.033015665,0.63137347,1.0228422,0.49955255,-0.64270866,-0.42776343,-0.53002274,1.4517862,-1.0009887,0.8707064,-1.0319618,1.1078488,0.9884769,0.7617319,-0.49181932,1.3325232,0.16644926,-1.0143899,-1.9431888,2.1721444,-1.0113155,0.47041062,-0.470936,1.4314296,-0.8681266,-0.6502899,0.7566972,-0.024584502,0.31015092,0.35149264,-0.1013349,0.1166893,0.27525672,-1.3765236
ENSP00000264712,-1.0107325,0.6532755,-0.29677746,-0.01055599,-0.5923181,-1.3468671,1.8482364,0.42100987,-0.43493292,-1.461823,0.5269698,1.2017802,0.9857918,0.6828003,-0.79183424,1.394127,-0.25822082,1.4162934,0.7156355,1.1365904,-0.3717628,0.9916294,0.7491747,1.0467161,-0.31145617,1.4259387,0.055318877,-1.1471554,-0.4174879,-0.5849005,-0.29417336,1.6822554,0.756192,-0.5916594,0.70496726,0.68010587,0.83432853,0.763822,0.05047067,-1.4157294,1.4047112,0.19925946,0.9357341,0.028993586,-0.23791768,-0.263924,-0.6833944,0.69022924,-0.7874424,-0.3120369,-0.7576706,-0.7355653,-1.0263815,1.1419973,-0.14417398,0.464224,-0.89277494,-0.024704745,0.18245085,0.50654763,0.9158297,0.09376486,0.9451322,-0.5651946,0.5741718,-1.8895178,0.41719922,0.76401275,-0.34963924,0.49613416,0.25171828,-0.9369924,0.2793247,0.41660577,-0.7042496,0.50012136,-1.6531554,-0.35836697,-0.10493792,0.20867825,0.7628952,0.78457665,-0.1167029,-0.2527198,-1.5684998,1.5153499,-1.228392,0.080474265,0.7599011,1.3679614,-0.89953667,-0.98781306,1.5936197,-0.26297542,1.5582737,0.6022692,-1.5746081,-0.9030921,0.05349906,-1.7265366
ENSP00000288139,-1.0133095,-2.9950078,-1.7669241,0.3254645,-0.41119152,0.27756265,-0.67752594,-0.8882667,0.66758204,-0.0022468087,0.5732284,-0.19627255,-0.5386414,-0.79968894,-0.5051916,0.015069405,0.586057,0.8894486,-0.4666873,-1.1685418,-0.19182105,1.402321,-1.2774326,-2.5559108,-1.8690674,-0.4164806,-1.9061668,-0.27093586,-1.089733,-2.2349486,-0.9940815,1.634539,0.3715863,-1.4012487,0.47480008,1.2719228,0.40972665,-1.2632842,0.84570915,-0.7926332,0.51944923,-1.4552617,0.13159363,0.5268458,1.9639087,-1.3922378,-1.7355108,-0.3582824,1.0960034,-0.18992771,0.2234094,-1.0635632,-0.35501608,-0.88431484,-1.6178037,0.34737304,-0.5087589,0.7737554,0.529675,-1.1831884,-0.1432373,-2.079403,-0.808114,-1.5617622,1.1373004,2.9692822,-0.9085376,-0.8220782,-0.5500985,-0.12942551,0.6684834,1.5814421,0.49954224,1.3644136,-0.18952154,0.11650574,-0.09751096,-0.9853681,0.61738133,-0.8372707,-1.6035427,0.83602464,-0.7964738,-0.9982737,-1.817298,-0.88635725,1.0231405,0.48299742,-0.012894039,3.2445455,-0.5188482,-0.123590715,0.4952205,-0.68591106,-2.4416173,-0.6961762,0.27860257,-1.0322049,-2.061159,-2.3350577
ENSP00000317790,-0.7137572,0.53168505,1.2961501,-0.0002790573,-1.3752637,-0.7466529,2.0143278,0.95846057,0.9842912,-0.78094935,0.97229004,0.17628963,0.6075037,-0.07883536,0.17806476,0.37392277,1.0572857,-0.12588592,1.735847,0.6380414,1.139041,1.2025678,-0.15013489,-0.36422285,0.12465047,1.625883,-0.6519754,-1.192373,-0.6041466,-0.8060782,-0.08386885,0.97239405,-0.008167183,0.7065219,0.31866625,0.7480538,0.30202076,0.80615914,0.07080771,-1.875753,0.90512407,0.23305474,0.57471985,0.07486682,-0.7871263,0.7129407,-1.5468608,1.5366405,-0.47745815,-0.69011176,-0.6073252,0.8300654,-0.65993637,1.0373479,-1.1694859,-0.5665751,-1.2443128,-0.571325,1.2115759,0.014314851,0.75910187,-0.03527079,1.3171715,-0.8381594,0.48877448,-0.8205782,-1.1888306,1.3079711,-0.5646094,2.066258,-0.30612287,-0.6102748,-0.3689803,0.96400243,-0.15955934,0.96331036,-1.7313421,0.13980491,0.021617169,0.57574594,0.6192817,0.8809331,-0.35798842,-0.79098123,-0.8385645,0.8743816,-1.3255914,0.087830245,-0.1401034,0.116079785,-1.1309091,-1.0467731,0.24523379,0.32300115,1.1391512,-0.113183305,-0.7213334,-1.44254,-0.25243115,-1.083858
ENSP00000345731,0.21022995,-1.0414022,-0.7635654,0.59186983,-0.7104721,1.285754,-0.47029802,-0.09945754,1.9982449,-1.2156559,0.6346121,0.71626157,0.13104764,-0.6719016,-0.13730386,0.5901644,1.0780294,0.8820017,-0.5323567,-0.28524503,-0.35404125,0.1915979,-1.9557185,-3.7999249,-0.20908545,-0.17032704,-1.5211464,-0.31789866,-0.2741857,-2.649469,-1.3993785,2.419323,-0.4079068,-0.0364679,-0.96294904,2.1279306,0.7097499,-1.185918,0.6786977,-1.2489855,0.31144878,-2.377088,0.17306712,1.0967183,2.5679865,-1.3175675,-0.493906,-0.4768267,0.2485475,-0.67515117,-0.4686356,0.21688953,0.6723063,-0.7730305,-0.9989786,1.1208107,-0.44208747,1.4013997,1.0629051,-1.3775578,-0.13082653,-1.5414219,-0.45954832,-1.6879659,-0.06030023,2.211174,-0.5454322,-0.30504382,-0.05797008,-1.1608831,0.9168542,1.1347578,-0.39947435,0.19777746,-1.3072149,0.19327408,-0.21080355,-2.005861,1.3970946,-0.8196655,-0.7912906,-0.57131827,-0.6547451,-0.65994644,-0.3447292,0.045715865,1.0163339,0.34963274,0.7070784,3.847201,-0.9076926,-0.21289036,-0.6852569,-0.9030634,-0.98877203,0.47824797,0.11267371,-0.35803872,-1.7334712,-1.144731
ENSP00000354791,-0.60509294,0.6638068,0.7205047,0.007070288,-0.4577019,-0.070137054,0.71549433,-0.081963874,0.15654321,-1.6243798,0.19243959,0.90305686,-0.35044572,1.5368352,-0.9025313,0.23643783,0.5956751,1.300383,0.08154954,1.1654963,0.99249524,1.2076361,0.42139038,0.5768265,0.7049459,1.5766451,-0.18293773,-0.48814377,-0.62760186,-0.9690996,-0.9270262,0.015017117,0.7477941,-0.18423134,-0.28778696,0.3697348,0.4730286,0.036978,0.9757152,-1.4207752,0.1026793,0.15191178,0.35462895,1.4300511,-0.2774856,-0.3737012,-1.3843718,-0.18677734,0.46621916,0.21083555,-0.32730114,0.32528484,-1.1913673,-0.41283593,-0.47937605,-0.9218896,-0.722617,0.21765722,0.9708054,0.98380345,1.0200014,-0.6772248,1.8253212,0.2666396,0.783406,-1.6161273,-0.2989156,0.419233,0.7768175,0.6000689,-1.0132035,-1.3056793,-0.7710584,1.0790864,-0.85470146,1.245664,-0.63440603,-0.73743,-0.5378588,1.4251671,0.91654605,1.5548762,0.95806825,-0.5452766,-0.87880874,2.5432396,-1.3405529,-0.8049093,1.138639,0.8773539,0.2233282,-1.3778001,1.0947286,1.1418879,-0.08301923,0.24681403,-0.26838392,-0.7202787,0.39536524,-2.249361
ENSP00000360532,-1.840397,1.5377641,0.67566305,-1.0096003,-1.4619288,0.25203103,1.026283,-0.5178617,0.19110654,-0.9607637,0.11165277,0.5196047,-0.15670171,1.2856184,0.47763178,1.1112481,0.21610998,0.91995317,1.8229138,1.2560608,0.025750699,-0.404412,0.7162844,0.29429197,0.3825078,0.03435167,-0.53589565,-1.0235455,-0.6834407,-0.6320854,-0.96710926,1.5264311,-0.10433668,0.42803404,0.30475095,-0.016712287,0.95491195,0.027931446,-0.42963418,-0.71470755,0.42161503,1.1169858,0.7033873,0.2416187,-0.6316493,0.120867856,-1.5958896,0.9277653,0.50218064,-1.311135,-0.40242898,-0.50393945,-1.2368522,-0.6938851,-1.0392241,-0.7162879,-1.0947876,0.21288857,1.4222982,0.17409536,1.3123652,-0.52625,1.569057,0.057979695,0.6974028,-1.4276237,-1.4743345,0.96879834,-0.24560066,1.3179743,-0.6965262,-1.3156815,0.5377534,0.927635,0.005811688,0.08399983,-1.9157368,0.14941832,0.09771465,0.15547767,0.9420925,0.6251104,-0.09088815,0.4473184,-1.6172756,1.02329,-1.3169522,-0.48523465,-0.31194797,1.0255396,-0.77146924,-1.3826882,0.4542915,0.88817626,-0.080467984,-0.30317792,-0.97680724,-0.8231784,-0.5290462,-0.6376487
ENSP00000377284,-1.4922681,1.1605495,1.158948,-0.18146545,-1.6140907,-1.2658516,0.9507466,-0.20401525,-0.22095816,-0.07423239,1.2681031,1.0472767,0.5813783,0.6058561,0.21307802,1.059779,1.0091543,1.0677325,0.26490718,1.7270418,0.41866392,-0.30922642,-0.52429694,0.96479654,0.96185887,0.89135903,-0.44348782,-0.8303173,-0.638483,0.3215336,-0.5021882,0.58148915,0.7885901,-0.26094526,0.90110713,-0.88651705,-0.4846918,0.59817576,0.8220374,-1.1757216,1.4216241,0.3600839,-0.16191936,0.58166707,-0.42294353,0.68300045,-1.0715815,0.06953134,-0.2380589,-1.2156711,-1.0753456,-0.62275267,-0.709968,0.71941435,-1.1304524,-0.18382668,-1.6493924,0.98580194,1.6762064,1.1741111,1.6087542,-1.0180664,1.2054044,-0.10211147,0.09817305,-0.24081646,-0.61802155,0.94294626,-0.25042203,0.13375674,-0.13905095,-0.77791405,0.557584,0.85916555,-0.08096785,0.99333763,-1.6737972,-0.44103426,-0.21021909,0.31018272,-0.07239506,0.50680447,-0.13471632,-1.2889843,-1.563643,1.8278272,-0.3628791,-0.8636953,0.019235598,0.7893729,0.36777446,-1.1315379,1.64582,1.1281435,-0.09553662,0.00079791737,-0.08516661,-0.36926702,-0.19746135,-1.5952419
ENSP00000387875,-0.6930838,1.3414643,-0.26805913,-0.20530121,-1.1166354,-0.94981116,0.9939991,0.73916465,1.0549054,-0.60505855,-0.025702382,0.22163832,-0.036592606,-0.57882845,0.6116259,0.2589044,-0.5298812,0.7536038,0.7699751,0.65769714,1.1492426,1.0379618,0.3046405,1.0073817,-0.31065184,0.083452985,0.48233005,-1.13464,-0.2046636,-1.3882436,-0.4463401,1.6746395,0.0052346895,-0.5020419,0.098674946,0.12330292,0.52641135,1.2494239,0.9226683,-1.6036376,0.9003172,0.7047263,1.2777632,0.9128545,-0.90445626,-0.3118819,-1.8761787,0.42691252,0.96238804,-0.04025017,-1.1048476,0.5286554,-0.09249195,-0.35394755,-0.9343195,-0.707525,-0.35394394,-0.50445986,0.15327553,0.4474687,1.1675394,0.22203887,2.0664752,0.5893849,0.405144,-1.0779641,0.07033036,1.2307125,0.53851515,0.2840466,0.32332912,-1.5895166,-0.5692922,1.4877329,-0.84456956,0.063683555,-1.8145661,-0.17447835,1.1838765,0.93021876,0.67949176,1.1299406,0.5391219,-1.3974105,-1.9128039,1.8836766,-0.8630282,-1.1171097,0.5659841,1.6441615,-0.42482686,-0.7359632,0.42097327,0.7539181,1.5480083,1.0030555,-0.41688716,-1.1022924,0.4538819,-1.2276757
ENSP00000405926,-0.7699733,1.6580747,-0.29237074,-1.126125,-1.2563506,-1.2449876,2.3102708,-0.55165756,1.1338658,-0.40439144,-0.23094809,1.9665639,-0.33033255,0.59839517,0.8145634,0.4904931,-0.2589929,1.0372586,0.16334751,0.6228175,-0.43849507,0.58277476,0.4054255,0.23563422,0.5258674,0.8039621,-0.83716375,-1.1710978,0.7060894,-1.2302427,-0.38691062,0.5686037,0.038384184,-0.12730876,-0.26945135,-0.14037265,0.19337447,1.2019336,-0.65934014,-1.1442302,0.058190815,-0.24313319,1.1430575,0.037762344,-0.47072604,-0.65027416,-1.1468608,0.07982888,-0.1391421,-1.3658808,-0.20585272,0.3680309,-0.2729999,0.6617119,-0.14370888,-1.1538073,-1.3124835,1.2555134,0.270049,0.6478788,0.38252413,-0.52773154,1.9104524,-0.5309957,0.4480806,-1.0211486,-1.4748371,0.7054632,1.115935,1.3745934,0.30136964,-0.08945549,0.08892652,1.4925587,-1.2770551,0.9823395,-2.016301,0.56354177,-0.37490273,0.09692044,-0.39139536,1.2744977,0.0914607,-0.38808015,-1.1599909,1.8436238,-1.0819206,-0.6994223,-0.054760918,1.0752321,0.13559586,-1.3074255,1.3192981,-0.29262158,1.1329086,1.3095679,-0.3192799,-0.6651031,0.21067782,-0.9690027
ENSP00000442973,-0.046104934,-1.5619122,-0.46485183,0.95325315,0.4574719,0.56196785,-1.1512179,-0.50328773,1.5797244,-0.42354313,0.42221215,0.12743726,-0.069383524,0.68486947,-0.84759045,-0.6815507,0.3720617,-0.039701253,-1.5093393,-1.9967864,0.3055195,0.9068458,-0.6733962,-3.7370787,0.20802937,-0.2486597,-1.6097152,-0.6785207,-0.5680057,-3.4203806,-0.22900814,2.1165125,0.56594974,-0.68591875,-0.55895245,1.034166,1.588898,-0.23288162,-0.962651,-1.5543636,1.0252814,-1.628924,0.0016567693,1.9811867,2.5122232,-0.4926885,-0.79722315,0.44039974,0.8855497,-0.59315294,-1.4279995,-0.487398,-0.71424884,-0.70524395,-1.8179187,0.37478644,-0.099129714,1.0867858,1.5136799,-0.8819075,-0.09410751,-1.1121012,0.42350662,-0.8965925,0.042839535,1.4641237,-0.7149812,0.3434962,-0.5923264,-0.65819615,1.344714,1.3825722,1.0148892,1.2795012,0.05500307,-0.640654,-0.3995686,-1.5964965,0.96225864,-1.7125216,-1.873081,0.18964009,-0.82942104,0.849631,-0.56832373,-0.05435603,-0.28462556,0.36135584,-0.22057073,3.655542,-0.021622375,0.9231682,0.47661167,-0.23893087,-2.0186913,-0.7440435,0.62860227,-0.39708206,-2.397185,-0.82071924
ENSP00000158762,-1.6078451,0.08735777,1.0971582,-0.77567434,-0.77379364,0.04371854,1.04561,0.8149778,0.16930118,-0.5228671,0.8511117,0.19429174,0.38282868,0.8428667,-0.4829916,0.3465961,-0.19647898,0.76478493,0.34102568,1.8362482,-0.18512902,-0.28834206,0.27408987,0.8822021,-0.14620459,1.5316185,0.50981355,-1.8224185,-0.30618808,-0.27755052,-0.5140835,1.7277648,1.2386515,-0.3091639,0.191374,0.13338055,-0.26892003,0.8614779,0.9575414,-1.1700976,1.1427166,-0.056405865,0.9943977,-0.28383204,0.51658356,-0.45969918,-0.60913223,1.2983898,-0.40110838,-0.40814024,-0.64804965,-0.57175404,0.29249674,-0.3683378,-0.4143073,-0.022758702,-0.812473,0.4699453,0.7284178,-0.27110532,1.4100147,0.41064468,1.4773991,-0.49817815,1.0528632,-1.4164509,-0.6798108,0.9057939,0.31154436,1.256331,-0.8962713,-0.64024186,-0.4791563,1.326852,-1.1446456,0.707215,-1.848844,-0.015697476,0.24532753,0.17656876,-0.33450362,1.5889243,0.78435546,-0.9444649,-1.1768502,2.0541246,-0.28017488,-0.5126532,0.578698,0.8768118,0.43634877,-0.6904879,-0.058407858,0.26814288,1.4459687,0.5563182,-1.5646616,-0.41016984,-1.0464343,-0.7853027
ENSP00000258198,-1.6388601,1.262282,0.52716845,-1.2679552,-0.57387,-0.8593655,1.9956186,-0.65860665,-0.1952066,-0.6394987,-0.42398003,1.5179467,0.50453466,0.3303848,-0.43014377,0.8737666,0.0009145185,1.4507308,0.72740394,1.6253952,0.933268,0.38147414,0.4609308,-0.7170018,-0.7727124,1.1792463,-0.2550145,-0.39126185,0.4496591,-0.47030863,0.25686505,1.0703079,0.498399,0.5562134,0.51849806,0.28444746,0.09948382,0.9612225,-0.39871266,-1.133119,0.87234885,1.345525,0.5598745,0.74999785,-0.04505004,-0.22625837,-0.6816362,0.9049538,-0.9372875,0.30659488,-0.53688186,0.16019487,-0.7232014,-0.77167565,-0.003890172,-0.29195663,-0.4364481,0.41170356,1.6990571,0.12276036,0.94527215,0.27199084,2.3823576,-0.5761005,0.8680875,-0.38959926,-0.15669484,0.16713317,-0.13637058,2.0194347,0.3849651,-0.5689532,0.23577645,0.91999334,0.25298622,1.559297,-0.6243142,0.5815092,-0.51645756,-0.41332808,0.84981984,1.4300702,-0.04997641,-1.3466214,-2.0048785,1.0157502,-0.9373149,-0.40456334,0.3152872,0.5784852,-0.615347,-0.59152436,0.4465261,0.9161467,0.0704075,0.23454271,-0.22115844,-0.67995334,-0.45252466,-1.7838188
ENSP00000263181,-0.18252647,1.2266098,0.9939982,-1.5590626,-1.2015576,-0.23115379,0.79561317,0.5450488,0.801302,-1.3405215,-0.016898682,0.7026241,0.025971694,0.73108906,-1.1156682,0.29627296,0.32879212,-0.12723559,1.5791689,1.8720437,-0.51761496,0.8359012,0.76058793,-0.32685372,1.2523204,0.40292576,0.6157795,-0.9968477,-0.65649813,-1.3762239,-1.2640831,1.3151883,1.1533566,1.1996992,0.1910724,-0.9859158,0.74863464,1.5787556,-0.09355064,-0.1998629,0.98601276,0.5117058,0.77247703,-0.14468877,-0.03056435,-0.66492254,0.25712726,-0.029749498,1.0268178,-0.6497232,-1.5779815,0.8310943,-0.28834882,0.9090964,-1.0949734,-1.0862412,-0.6479734,0.28,1.3000752,-0.7010417,1.1474295,0.51447576,1.3632057,-0.059414916,-0.64780724,-1.9431697,-0.98443973,0.48890796,0.81438124,0.8420523,0.045121755,-1.1831475,-1.0559449,1.5204252,0.34847653,1.4274029,-0.53632104,-0.13752155,0.9082755,-0.1800224,0.2915655,0.17265147,-0.40534854,-0.65805006,-2.404741,1.4161419,-0.67035556,-0.49188077,-0.4186266,0.700411,-1.0974507,-0.9484613,0.8513098,0.36871386,1.2485983,0.94739544,-0.74545,-0.9390702,-0.8608863,-1.9553952
ENSP00000268919,-1.0886456,1.2939212,0.56614125,-0.77244675,-0.31219888,-0.41614193,1.1996881,1.0072644,0.011045695,-1.4804275,0.64453185,0.7922539,-0.07382089,0.804268,0.39987937,1.3707765,0.5099177,0.99662036,1.9138533,1.3452713,0.22913997,0.34233686,0.030064344,0.31496328,0.82832086,1.7468135,0.36089388,-0.2657199,0.88479376,-0.36484045,-1.1128892,0.17244723,0.35206664,-0.6104933,-0.29574114,0.5715476,-0.2749167,0.5985552,-0.4671312,-2.076149,0.91200775,1.4013857,-0.52987707,0.6634085,-0.47429612,-0.38920674,-0.18092844,0.11407403,0.71795064,-0.77182657,-1.1040847,-0.4079744,-0.55672675,0.49200475,-0.056483537,-0.10287159,-0.8463637,-0.1837726,0.52767354,-0.12568957,1.44995,0.13145152,1.4738935,-1.4571496,0.77012455,-1.0579104,-1.2165704,0.124776766,0.47066346,0.25679523,-1.1483479,-0.97074056,0.6332814,1.9412643,0.0057139136,0.72812617,-0.80552363,0.05628337,0.2712609,0.02044651,1.0108693,1.21404,0.066610955,-1.2908189,-0.65225035,1.0425627,-0.18066314,-0.5635572,0.2497013,1.2836719,0.43438727,-0.33474174,1.7094537,-0.2329431,0.18875797,1.5548128,-1.1718545,-1.0518551,0.019926295,-2.5985909
ENSP00000299705,-1.3774145,0.41623726,0.5283321,0.2634528,-0.31627387,-0.6191321,1.8148552,0.04883502,-0.08190819,-0.50336003,0.7839803,0.7184008,1.1569214,0.06764567,-0.70471793,0.915169,1.2506968,0.90766555,1.6279426,1.2810332,1.1056436,-0.577053,0.49147505,-0.27527532,0.027421236,1.4323196,0.25422466,-0.87020427,-0.8790815,-0.80625564,0.17715442,1.4094174,0.61900884,0.6924511,-0.13286832,-0.36238316,-0.37029144,-0.23800093,0.21527909,-1.2922845,0.44778898,0.63019407,0.29574135,-0.0052015595,-0.1192403,-0.37537977,-1.1710434,-0.30850795,0.6786463,-0.63061726,0.12162039,0.11886484,-1.0197325,1.0247579,-1.0983099,-1.199696,-1.5879155,-0.2616897,0.30141887,0.20017889,0.12983824,0.4075048,1.5834563,-1.2590256,-0.7047486,-0.9086055,-0.46554688,1.1739606,0.84093285,1.5935369,-1.3010569,-1.0710838,0.015447228,1.6220162,-0.21703291,0.8029994,-1.4588753,-0.96128166,-0.37852,1.0441709,1.0301076,1.0784969,-0.7758596,0.27946594,-2.5649538,1.0169883,-0.22027758,0.32752416,0.5139261,0.5799086,-0.29126167,-0.89510494,0.6779388,-0.14962696,1.5467267,1.2206429,-1.6976697,-1.2556531,-0.6394409,-1.5348197
ENSP00000321427,-1.315407,-1.6861663,-1.3754534,-0.06738631,0.35494903,0.5445292,-1.0679585,-1.4312998,1.4823023,-0.49411422,-0.08989275,-0.89402795,0.05645116,-1.233459,-1.5161711,0.35663158,0.24502915,0.55534357,-0.80543345,-0.81115717,-0.74475014,0.99667555,-1.7103642,-2.6956825,0.14693955,0.06748481,-1.7497246,1.0338081,-0.6445457,-2.5041811,-0.9336493,1.3999276,0.25143972,0.113580756,-0.09874045,1.5910252,1.9612687,-0.9955327,-0.4986381,-1.3570659,-0.14605354,-2.2246583,-0.97024053,0.36857507,2.5911644,-2.1388981,-1.6832727,-0.037994023,0.60504234,-0.3412864,-0.15992415,0.27335504,0.31239563,-1.3322988,-1.0879318,0.46704903,-0.34117615,0.49565038,1.0391147,-0.78405154,0.840702,-1.3676875,0.0939883,-1.2381676,0.6385146,1.7634156,-0.98120606,-0.15355776,-1.0534632,-0.7056314,1.849209,0.7105964,1.1286222,0.07598191,-0.5582631,-1.0395025,-1.2609813,-0.6525641,0.6477788,-0.66058874,-1.982299,0.10244091,-1.515756,0.2807754,-1.68767,0.08624491,0.7620494,-0.92209655,0.9370707,2.8585465,0.24126995,0.2854286,-0.5909585,0.6101128,-0.65677583,-0.55753595,-0.49112305,-0.15944979,-1.9703723,-1.7411134
ENSP00000352608,-1.4011699,-2.28487,-1.7475164,0.27323264,0.16103445,0.4335578,-0.6330929,-0.630685,0.873898,0.027515216,0.85630876,-0.4545316,0.24146336,0.75886047,0.058631536,0.16407551,0.5363296,0.16364755,-1.2133924,-0.9892042,0.15133797,0.5905977,-1.1436985,-3.0664432,-0.62154037,-0.029897181,-0.30040807,-0.07904443,-1.0759368,-3.1127284,-0.5818309,1.4523509,0.5503428,-0.4239047,-0.9616146,2.281377,0.81400585,-0.2873214,-0.14155278,-0.86098623,1.1745005,-2.3510592,-0.72932273,1.128434,2.6400318,-1.9214413,-0.5724473,-0.10566011,0.16678858,0.6661554,0.29959658,-1.1507381,0.5226604,-1.3860581,-0.36276639,0.5973225,-0.82275814,0.5861284,1.0024115,-0.11494082,0.5063233,-1.7312777,0.18518409,-0.7660096,-0.22940113,2.0131235,-0.61898196,-0.9106141,-0.2529245,-0.643147,2.0810487,0.2284099,-0.10350546,-0.4894431,-1.5026829,-0.15777613,-1.5148423,-1.9512374,0.792344,-0.75280166,-1.8486121,0.9935505,-0.6750881,-1.0375549,-0.76174057,-0.41495666,0.17012617,-1.0271827,-0.3155567,3.4721274,-0.6602584,1.1399277,0.37794322,-0.1884882,-1.0480139,-0.33772707,-0.33161715,-1.0337515,-1.925541,-1.8186685
ENSP00000357048,-0.43452823,1.3636734,-0.35868683,-0.57694906,-0.6815732,-1.3082229,0.80937546,-0.083165236,-0.116433404,-0.39317298,0.37744117,0.37816095,0.12826703,0.7143738,0.2835272,0.15049484,1.2613428,-0.118970506,-0.0953778,1.4741588,0.69030684,0.39452574,0.7291061,0.8221736,-0.2622635,1.6984593,0.40556338,-0.79780257,0.19364408,-0.6835956,0.38127175,0.78027254,1.0207633,0.56349355,0.63063866,0.85285777,-0.019744225,-0.19053528,-0.21737415,-0.68180734,1.1952212,0.06921918,0.58656794,1.2825929,-0.14443266,-0.012782341,-0.055265367,1.3305084,0.15435182,-0.07700872,-0.6855025,-0.062422354,-0.36019266,0.43570623,-1.3489752,-0.56768715,-1.3708683,0.6532211,0.45192116,0.5984939,0.5175847,-0.96338093,2.1703782,-1.3149023,0.7531428,-1.0949597,-1.2586913,0.5203046,0.14940262,2.1780334,-0.54527766,-1.2877269,0.4928012,2.1730962,-1.0082237,0.5926639,-0.93658566,0.14594415,1.2021282,1.4104458,1.2897747,0.9954106,-0.7595702,0.030328805,-1.9693413,1.384394,-1.130856,-0.93557024,0.39426285,0.8611689,-0.4868761,-0.17133382,1.4855843,0.76049745,0.42487645,0.13413657,-0.33569464,-0.5602687,0.27886856,-1.2476393
ENSP00000361298,-1.5790112,1.0064704,-0.48154077,-0.4153945,-0.3891389,-0.06996721,0.9302572,-0.48796034,0.3394249,-0.786591,0.340076,0.7920029,-0.061526574,0.8630004,-0.70489675,1.0297555,0.74864733,0.26564294,0.5354668,0.8043751,-0.049961552,-0.5932337,0.027757416,0.87419623,-0.5928253,1.2756484,-0.8554998,-1.183884,-0.35253844,-1.0659668,-0.96502465,0.51508534,0.8043128,-0.006188679,0.5909866,-0.52226275,0.25079203,-0.004279217,0.2778036,-2.0392814,1.5242509,1.1770681,-0.40559742,0.13757205,-0.068556316,0.91069365,-0.9491176,0.24431476,0.35748044,-0.93384135,-0.45385155,0.93938065,-0.108222805,0.2628864,-1.4380776,-0.74545854,-0.94138366,0.022620525,0.9866983,-0.2901553,1.883676,0.09976509,2.114266,-0.82026815,-0.15747692,-1.8706431,0.048765726,0.7823889,0.79062057,1.0561682,-1.0708455,-0.018721588,0.8122846,1.0023159,-0.55618674,0.61855984,-1.8912791,0.95112234,0.12382381,0.04400758,1.1209352,0.5052393,1.1346627,-0.121307015,-1.5932988,1.4280442,-0.95904547,0.6424674,-0.25150257,1.0709234,-0.37968162,-1.192691,1.2316859,0.41485614,0.62939394,0.46919554,-0.4620205,-1.4062798,-0.34672844,-1.4604206
ENSP00000380308,-1.2834932,2.0184278,1.0504761,0.069890924,-0.31097293,-0.4677893,0.5994353,0.7898815,0.58226365,-1.0661287,-0.6209051,0.75935817,1.3305687,1.504107,0.5399979,0.09431079,1.0679585,1.1869016,1.3027682,0.6166322,0.9442806,0.9753146,-0.54325587,0.47952577,-0.050931208,1.2234443,0.48117426,-1.2740356,0.5311244,-1.1841534,-0.108655185,0.76473016,-0.16741353,0.37301192,0.12171601,0.7521659,0.008932201,0.51789504,-0.501425,-0.7650158,-0.2617012,-0.01790158,0.80521154,-0.5491064,0.13115306,0.14676435,0.13937911,1.370124,-0.23081578,-1.0420893,-1.5850085,-0.6969428,-1.3336985,-0.34885308,-1.2021289,-1.312715,-1.636201,0.8104294,0.96828026,0.21565874,1.7406194,-0.6983637,1.5501593,-0.10116285,-0.21202666,-0.9540236,-0.9917508,-0.024466638,0.24782903,1.6232706,-1.3857274,-0.43936577,-0.113267146,2.212235,-0.51656955,0.9302732,-1.2072048,-0.63965726,-0.14596815,0.3719801,1.0076313,0.37928283,1.0910256,-1.2604289,-0.75466,2.4737473,-0.24883954,-0.1266097,0.7030493,0.883755,-0.87199575,-1.1616244,0.08679842,-0.056793608,0.43795735,0.07073265,-0.9666522,-0.24709114,-0.63963366,-1.4546868
ENSP00000393963,-1.397805,0.80386,0.829096,0.39403722,0.0021613801,-1.1301244,1.6448219,-0.28899926,0.39018324,-1.4540491,0.840532,0.09906872,-0.44357282,0.25084156,-1.1146612,1.1674327,-0.18676278,1.3407453,1.609816,0.79173076,1.2029455,0.764348,-0.0031083957,-0.23052572,-0.50249934,0.061398566,-0.88006055,-1.7424268,0.74942005,-0.1408034,-0.6613517,0.07617984,-0.56392336,0.65004724,0.83684784,0.8314274,-0.27869928,0.24629451,1.1209143,-0.89112663,1.2308402,0.697869,0.50642604,0.47073808,-0.8598367,-0.90047294,0.35300273,-0.07491052,1.111735,0.09960661,-1.2735608,0.56599665,0.4297033,0.3501293,-1.1027963,-0.06360123,-1.772847,0.16060852,1.8893341,0.5951884,1.2530323,0.03181218,2.0047765,-0.58437973,-0.6302485,-0.98617417,-0.2496441,1.559911,-0.010864144,1.3797548,-1.0566902,-1.6542623,0.90184546,1.7948925,-0.86445534,-0.16377524,-0.5773966,0.4710937,1.1056521,0.7541819,-0.639974,1.0550014,0.6562474,-1.4723427,-1.5107256,1.3993095,-1.3718103,-0.6797383,0.015916513,0.3777095,-0.7251144,0.40694883,0.78193593,0.37424782,-0.11951285,1.215615,-1.0253978,-1.2629174,0.42815953,-1.0954667
ENSP00000410257,-0.6536496,-1.6202931,-1.1747634,-0.39218888,-0.086515106,0.8392543,-0.54689467,-0.69206005,1.009951,0.3506236,0.25179026,-0.8844697,0.584159,0.06919993,-1.0700303,-0.14184918,-0.05613372,1.1599586,-0.29711756,-1.671831,0.2561058,0.59384716,-0.997408,-3.656224,0.043103322,0.24968638,-0.56453305,-0.078218,0.30885044,-3.2162464,-1.6377665,1.811043,0.5368379,-1.2975205,-0.57228863,1.950204,0.6305759,-1.4452218,0.49979126,-0.61913574,-0.005469317,-1.6278645,-0.5113334,1.6025852,1.636389,-2.2395165,-1.526883,-0.939999,0.19499066,-0.5662542,-0.51302826,0.31074062,-0.48266083,-0.603133,-2.0466015,1.3808427,-0.75953496,0.61831814,2.1330645,-0.03548574,1.21619,-1.0708462,-0.2625083,-0.30061913,0.7811833,2.1168263,-1.7761534,-0.3254944,-0.4471713,-0.018066581,1.6586821,0.79206777,-0.37869856,-0.2777606,-0.4842425,-0.09166898,-0.45202485,-1.2912526,0.33068994,-1.5970399,-1.1704922,-0.56145024,-1.4401878,0.004531372,-1.4463404,-0.9093466,1.0691179,0.3648289,-0.1318399,3.6027782,-0.0017905725,1.0377973,0.63553375,0.22819437,-1.9684175,0.55079466,-0.14965817,-0.6073652,-0.7161413,-1.0655547
ENSP00000465992,-1.0215292,1.4438151,0.59408027,-0.728029,-2.2456074,0.23442791,1.4526232,1.1286145,0.7197759,-1.4438937,1.0107175,1.5128055,0.59431326,0.5846692,-0.8507825,0.7588978,-0.12583907,0.057755206,0.1663958,1.3066128,0.07015775,0.2693054,-0.6494608,-0.24414377,-0.6595975,1.7409636,-0.9559173,-1.2069867,0.030778723,-1.9297566,0.06708369,0.5276543,0.7412957,-0.16299656,-0.48572597,0.52842146,0.4410797,0.6656898,-0.036634326,-0.67793155,0.7984718,0.13017415,0.29294384,0.2682614,0.17313643,0.92849654,-1.7166729,-0.35351235,-0.23207189,0.6086694,-1.9107454,-0.33139795,-0.9875312,-0.045645032,-1.776155,-1.1392545,-0.8482114,-0.35252866,0.7960976,-0.67209023,0.23335913,0.3668146,0.79098415,-0.9995508,0.68821,-0.61674374,0.15852687,0.2804348,0.32806066,1.0076091,-1.5598675,-1.5060098,-0.4745908,0.9991657,0.5353868,0.23825644,-0.6620441,0.7258325,-0.36490592,0.43909866,-0.02915187,0.90576804,-0.6781976,-0.8399801,-0.848614,2.4557352,-1.6551778,-0.7250944,0.72275275,0.03420694,0.5008078,-1.4633777,1.7754949,-0.27372348,1.6238179,0.5692835,-1.2494726,0.23789251,0.2741083,-2.4110177
ENSP00000223369,-1.3384373,0.23883794,1.5126519,-1.043465,-1.271544,-0.6275041,1.618022,-0.061213277,0.15181044,-0.77598023,0.7949436,0.49273694,-0.087264664,-0.042295154,-0.35034147,-0.33252364,0.01529052,0.9263109,1.2198547,0.788207,1.241727,0.7419037,-0.21236396,-0.36686832,0.633624,0.22224855,0.31103194,-0.34320801,0.39925826,-0.36413538,-0.1954982,0.6718425,1.1632092,-0.20862344,0.21662854,0.51150566,-0.7563489,0.4647859,-0.21442074,-1.0992057,1.5427029,0.77531856,0.32297128,0.8105998,-0.02263772,0.8693845,-0.07766587,0.33009553,-0.14687008,-0.07464549,-0.6511345,-1.0094646,0.43696308,0.5805651,-0.34776944,-0.9744835,-0.289709,0.8864273,0.23803945,-0.37193334,2.004778,0.29555896,1.8803351,-0.8303509,0.4725978,-0.8571742,-1.317225,0.46510231,1.0418066,2.1389077,-0.8088503,-0.7771634,-0.314287,0.3534457,0.3116827,-0.01094376,-1.8686738,-0.26329112,0.41206062,0.18940514,0.28569967,1.2511296,1.0640209,0.47923163,-2.3828614,2.368018,-1.2315778,0.72235805,1.183501,1.322189,0.14116386,-1.3191676,1.3657688,0.7583402,0.5800119,0.038087644,-0.13320737,-1.2864815,-0.75882286,-0.87261474
ENSP00000260731,-1.7358937,1.302879,0.9667211,-0.43704706,-1.336658,-1.4567796,1.6389892,-0.06535547,0.048095495,-0.0759442,0.5961862,0.29568014,0.5783174,0.23080224,-1.1180911,0.8106157,1.4476796,0.21089898,0.992713,1.8086098,-0.45009562,0.46904084,-0.5329115,-0.36878556,0.843176,0.7792355,0.4114671,-2.1137729,0.19859761,-1.1613606,-1.209258,0.9869747,-0.1840275,0.49180314,-0.52732104,0.069374405,0.23420416,1.718264,0.18016826,-2.0634012,1.6753949,0.85505676,1.3582364,0.40369615,-0.4503201,0.34470376,-1.2924536,0.47827548,0.31068084,-1.0295767,-0.76222855,0.48752576,0.30150998,-0.4549005,0.16401649,-0.0548373,-0.6829726,0.74467605,0.8208981,-0.0013068431,0.11917347,0.8501201,0.9734897,-0.73974586,1.0510626,-0.67628586,-0.005454262,1.6780201,1.0323102,1.0754818,-0.62743235,-0.33422133,1.0184877,1.5682228,0.7948512,0.42407125,-0.7169875,-0.79596835,-0.040679812,0.50978166,0.564824,1.2580241,-0.905088,-0.07011982,-1.7657496,1.7494525,-0.06761199,0.29829678,0.7698581,0.53885376,-0.47670996,-0.6386755,0.07852557,0.13375603,1.2451851,0.8303211,0.2355637,-0.12901409,0.48061654,-1.3436253
ENSP00000264028,-1.5820732,0.593997,-0.16330764,0.15999253,-0.40495145,-1.2434456,1.5365485,0.8671577,-0.22787817,-0.021069942,1.039329,1.686974,-0.7003055,1.0954696,-0.22854903,0.22710028,0.7573911,1.0482612,1.4749808,0.046997212,0.581483,0.60828793,0.6944367,0.10200882,0.36642572,1.5328522,0.31725627,-1.9279361,0.17924757,-1.103565,0.44843563,1.3673754,0.19039425,0.88563967,-0.66210264,-0.58199435,0.54952586,1.3916655,-0.28287676,-1.51407,0.5136261,1.0189781,-0.18367456,-0.21260035,0.013206895,0.78028876,-0.9081158,1.1777465,0.061526354,0.2008656,-0.9921173,0.3006237,-1.2247201,-0.51213914,-0.35820094,0.15138298,-0.8356403,0.75683063,0.57242936,0.04696916,1.4110848,-0.6558774,1.1009145,-0.06498234,-0.040554274,-1.1877935,0.08064129,0.7129333,0.6151508,1.024232,0.03158702,-1.8443164,0.50253826,1.538679,-0.96738535,-0.1690288,-1.6039118,-0.6337706,0.83542186,1.0967326,-0.13689345,0.7275552,0.8031506,0.32740378,-1.1541983,0.5187394,-0.32235974,-0.14071262,0.88993645,0.501619,-0.9245046,-0.30175585,1.4041593,1.2280672,0.16913584,0.90058935,-0.84045255,0.39884531,-0.39285618,-2.1564968
ENSP00000287152,-1.1318752,0.75731647,-0.028717536,-0.016218418,-0.12255292,-1.3004363,0.68359685,0.2910621,-0.25948668,-1.3805958,0.22314517,1.386482,0.22351335,-0.23692316,-0.37218106,0.5692177,0.6502919,0.026439372,1.4762248,1.506221,0.68520427,-0.65108323,-0.5320879,0.31057435,1.0682715,0.1587678,0.24271865,-1.1797342,0.643677,-0.83416486,0.37426877,0.036050584,0.5878908,0.8414133,1.1414474,-0.44027892,0.17874923,1.6899108,0.07794575,-2.034714,-0.17789796,-0.64916086,0.6866051,0.48182842,-0.46983817,-0.76341426,-1.5531496,0.9146344,-0.7904422,-1.1863716,-1.4339726,-1.0276142,-0.44539198,0.9076464,-0.20847136,-0.20843239,-0.3169738,0.30530223,1.0091558,0.00023397175,1.9469141,0.0020588613,1.5452565,-0.046449665,0.5716082,-1.2228197,-0.76138985,0.8277122,1.2001891,1.2853606,-0.24167548,-0.2689783,-0.44562674,1.5881418,-0.8758717,-0.17779201,-1.0290416,0.983833,0.89280474,1.2573998,0.32685536,-0.057974394,-0.5912365,-1.0127347,-1.4424378,2.1144533,-1.1643668,-0.5616093,0.17582895,1.1280708,-0.60934407,-1.5264243,-0.123173214,0.25705513,0.3565399,1.0790161,-0.66012704,-1.4339339,-1.0864055,-2.3665893
ENSP00000314615,-0.26162636,1.9197623,0.9466232,-0.86832273,-1.351689,-0.62563217,0.61787283,0.7467412,0.46553513,-0.34149447,-0.6236357,0.4753748,0.7994328,0.025754115,0.55005103,0.39771363,0.9214076,0.9357945,1.1499528,0.91607016,0.044060025,1.0627282,0.25069025,0.48554727,-0.4905893,1.9562213,-0.74587923,-0.09395343,-0.8511211,-0.9848639,-0.772826,0.33800554,0.20085104,-0.03964869,0.011082839,0.37442258,0.11624463,1.2645552,0.6653408,-1.3677378,0.13244045,1.3457835,-0.46219397,1.0717785,0.43371475,0.1979327,-0.6811206,0.116712496,-0.42433712,-1.047086,-1.4424962,0.052829426,-0.021984363,0.28130865,-1.372174,-0.5599122,-1.3303804,0.39860088,0.95435214,0.2634467,1.2719159,0.6748197,0.6962579,-1.0767573,0.47554445,-1.4905177,-0.31332874,0.26020446,-0.12275739,0.7952668,-0.58272535,-0.70654225,0.3333841,1.6920043,-0.6286532,0.7038318,-1.2637062,-0.15519126,0.5337878,0.58143556,-0.07869405,0.24888964,0.13066392,-0.6999835,-1.8542664,1.9190277,-1.0279552,-0.7677814,0.21975927,0.8159136,-0.5269958,-1.2628506,0.28910846,1.321292,1.6168077,1.4750451,0.036677755,0.014108217,-0.9058736,-1.9013342
ENSP00000345055,-1.284112,-1.232071,-1.5544981,0.05662525,0.3668119,0.8839723,-1.2436888,-0.7252839,1.5229261,0.38539052,1.2486321,-0.79460496,-0.5302647,0.53092176,-0.019162964,-0.55487967,1.3234601,0.9837708,-1.4924687,-0.49684992,-1.6715839,1.0942552,-0.32587323,-3.4873319,0.35429454,0.61850756,-1.4915593,0.55673337,0.7513826,-1.9347821,-1.1835636,1.6310207,-0.22661904,-0.1031011,-0.7782375,0.644846,1.2831821,-0.284644,0.38561568,-1.5065229,1.5304636,-2.5875924,0.17407745,1.8047988,1.8059024,-1.1156327,-1.6018969,0.46336493,1.4787056,-0.7130553,-0.8547527,-0.8608208,-0.7661968,-1.2636408,-1.4502884,0.58343667,-1.5524065,0.97536886,1.081133,-0.070300095,0.6849957,-1.2613914,-0.31699052,0.017404474,0.73381245,2.6705143,-0.93391615,0.1458172,0.11924143,-1.2920854,1.7910355,1.1237012,0.27810335,-0.75293195,-0.26998344,0.59530544,-0.6200565,-0.9140149,1.4600691,-0.66230917,-0.45953062,-0.3744184,-1.83506,-0.40454158,-1.7454395,-0.16601296,1.1268618,-1.3027842,1.4741893,3.0486827,-0.7549687,0.8710639,-0.7133692,-0.26613125,-1.9321359,-0.33853227,-0.5999959,-0.8780865,-1.9926293,-0.52547044
ENSP00000354560,-0.17637974,0.63925195,0.33192286,-1.564723,-1.7656496,-0.81732225,1.8597072,-0.3310563,-0.2901078,-0.82546514,1.2381223,0.2801355,0.029726602,0.32690266,-0.27317297,0.9273734,-0.028572893,0.2629151,0.9877022,0.58049744,1.0911477,-0.59201705,-0.2404585,0.13031696,0.031062009,0.16129522,-0.02487396,-1.8885368,0.55497926,-0.51319045,0.04689135,1.629461,0.06593566,-0.56189936,0.024916247,-0.20589313,0.012617756,-0.028777022,0.9444781,-0.8365938,0.05341013,1.59945,1.2234935,1.1174477,-0.8748972,-0.42053774,-0.5382104,1.4538305,0.6433381,-1.0143414,-0.57412654,-0.13504706,-1.000795,0.6701706,0.13771267,0.06791891,-1.2964785,0.84388554,1.8715863,-0.04650317,2.0983179,0.6560121,1.2419367,-1.0130122,0.93476534,-0.7043718,-0.28273264,1.4498408,-0.22678742,1.0874292,-0.3631678,-1.2215283,-0.7403637,0.5171244,-0.70727557,0.22738357,-1.1301688,-0.5770702,0.85136676,0.5604838,0.07301791,-0.18478031,-0.74193126,-1.2098871,-2.3344066,1.2949959,-0.876737,-0.1323383,0.8517827,0.24585438,0.4837171,-0.43801323,1.3707545,-0.28382576,1.07477,1.374169,-1.3801548,-0.29363203,-0.5378131,-1.749259
ENSP00000360423,-0.87476766,-0.9366152,-0.47949237,0.6412183,-0.80703324,1.592973,-0.14772166,-1.0578202,1.8242227,-0.6518671,0.54221815,-0.8929565,-0.36516038,0.54143995,0.16868234,0.29651704,0.3295585,1.0840025,-1.1457833,-0.89991736,-0.43400767,0.83637774,-1.7560098,-3.302431,0.06534072,-0.19152617,-0.7879766,0.4943688,0.0659108,-3.271152,-1.0852349,1.8249398,0.90628004,-1.3658434,-0.8092758,0.87866575,1.4376272,-1.6593809,-0.45485422,-0.66122717,1.2427647,-1.3254207,-0.9697855,1.3777357,2.2486753,-0.724372,-1.6908532,0.10175202,1.7349693,-0.057897806,-0.50934184,-1.2129217,0.8505258,-1.9475032,-0.8072752,0.14342576,-0.25607762,0.9165602,0.28634343,-0.30427235,1.0719451,-2.2084239,0.3961687,-0.62376547,-0.17643344,1.8189862,-1.5329396,-0.43758705,-1.1006755,-0.5097174,0.48427135,1.7196891,0.21391019,-0.52761763,-0.9552904,-0.46176514,-0.01070002,-1.731382,0.528869,-2.1958797,-2.1754212,-0.21062793,-2.0928462,0.47106937,-0.9692624,-0.3679477,1.2486806,-0.81038976,1.343384,2.2567453,-0.14731134,0.666511,0.11766491,0.8936119,-0.8538471,-0.60938203,0.6537806,-1.5465919,-1.1244934,-2.2811964
ENSP00000377148,-0.9725544,0.6843841,0.5537705,-0.9407068,-1.2517071,-1.0565126,1.1945882,0.5465773,0.9948455,-1.3399018,1.1605643,1.2976875,0.0946039,-0.013890487,0.3075318,0.5441316,0.21559721,0.60545945,0.16127415,0.64517576,0.48273283,0.4564445,-0.49867237,0.3118612,1.0888852,1.4846214,-0.48607966,-1.1536944,-0.2810293,-1.58569,-0.4414551,-0.11561142,-0.11657759,-0.93034613,0.10320689,-0.7898506,0.20750317,1.4558207,-0.34977847,-0.8186764,1.8545877,0.57309467,1.0474263,-0.0599685,0.21958758,-0.030733319,0.06357883,1.1347065,-0.6683295,-0.61519146,0.1431398,-0.050054405,-0.95584077,-0.08979141,-1.483692,-0.4659845,-1.8898964,0.59109366,1.5621551,0.21687081,1.5854071,-0.2708431,1.177222,0.21471363,0.19748394,-1.5856814,0.14956233,0.9522827,0.4726038,2.0837357,-0.8264535,-1.2319437,0.6392429,0.17390797,-0.7281618,0.40443203,-0.68993735,-0.18547481,1.113758,0.41139278,0.7020565,1.1920491,-0.2515406,-0.93858975,-0.93945444,1.6246808,-0.05246523,0.44704533,-0.28436017,0.21244253,0.6825129,-0.3593452,0.86345005,-0.07404089,0.69784427,1.1114652,-1.114079,-0.68957615,0.07665126,-2.3858635
ENSP00000386918,-1.8094492,0.7144172,1.1213098,-0.1350617,-1.9052981,-0.14226829,1.3366104,0.5986062,-0.3573008,-0.50884354,0.8769263,0.56589085,-0.39155588,1.2840521,0.5944811,-0.212239,0.9908463,1.2042824,1.2070013,1.1149013,0.996863,-0.21135698,0.8176049,0.1894144,0.14527749,1.6905465,0.29413205,-1.3036082,-0.87843275,0.28094786,-0.2252605,0.05681491,-0.3517644,-0.35214663,1.302544,0.6036026,0.10235203,0.5924532,-0.83852303,-1.4693092,1.0217974,-0.40202278,0.71725696,1.2724854,-0.5822601,-0.3665019,-1.2427492,-0.39972958,0.45779175,-0.18863486,-0.14455442,0.78445745,-0.30550924,-0.5770537,-0.8813508,0.5712264,-0.6765757,0.85604155,0.2742413,0.053559408,1.1321386,0.1293931,1.7782948,-0.3806161,-0.45432,-1.4402924,0.11819577,1.699663,-0.21520196,1.5381615,-0.77110666,-0.44015735,-0.69588447,1.2019949,-0.95713145,0.9073209,-0.37413433,0.40910304,0.9453047,1.3183047,-0.05069618,0.6898917,-0.40041897,0.43176818,-0.92240435,1.6640292,-0.7618224,0.030454751,0.3546795,1.2602971,0.3159794,-0.991193,0.13742223,0.13218744,0.4659347,1.1029598,-1.0171541,-0.97997797,-1.0635335,-2.5045063
ENSP00000404190,-0.5227356,1.7025934,-0.2824281,0.2112183,-1.9912958,-0.04347917,1.3650235,0.32099265,-0.31585637,-0.22177067,0.83370554,0.4001158,0.95885867,-0.21436599,-1.0381161,0.70885444,1.1282668,0.8607616,1.161612,0.9788997,-0.26548573,0.878696,0.5929153,0.39975077,0.39465523,1.5822802,0.7158648,-1.1934907,0.6273072,-0.9809085,0.012763692,1.0102793,-0.1807174,0.282138,0.55513114,-0.34308,0.3562941,1.7291262,0.89159375,-0.98421156,0.8502161,0.8027357,0.7497371,0.87995595,0.16453247,-0.29351404,-1.2484875,0.59328675,0.5748519,0.27206436,-1.17737,0.98736143,-0.6736462,1.1200352,-0.73621374,-0.19418438,-0.69449663,1.1519227,0.7429653,-0.6197559,1.6273006,-1.0027016,1.9939715,-1.1246368,0.24240382,-0.29268143,-1.1274812,0.34464267,0.61488956,1.5524378,-0.705765,-0.7757236,0.8823845,0.21544443,-0.040102407,0.03063023,-1.5146424,0.47743598,-0.5110082,-0.108234316,0.0048090024,1.5951159,0.54539084,0.30594933,-0.97765344,2.1807258,-1.8356603,-0.73482543,-0.065023504,0.30420452,0.7847122,0.1701778,1.2458073,-0.43237057,0.10118079,0.8640835,-1.3610241,-0.15546674,-0.008575074,-1.7506361
ENSP00000438388,-0.54618573,0.7408923,0.95556504,-0.31740052,-1.6963657,-0.78935677,1.8457687,0.652579,0.6963523,-1.593283,0.5139485,1.4190183,0.21023186,0.9320329,0.087816544,0.5300431,0.9848202,0.0737687,1.21225,0.9611205,-0.33021733,0.0042551453,-0.75710535,0.48101488,-0.088823795,1.2721136,-0.7172539,-0.7778901,-0.0052549997,-0.66908157,0.47986853,0.04215257,0.6411749,0.22931777,0.66675353,-0.76005346,-0.13039753,0.9702062,0.8819467,-1.0135845,0.29666454,-0.51158136,1.1807636,0.948201,-0.40892497,0.7755398,-0.14003436,1.3933903,0.5149857,-0.14478081,-0.25855938,0.7301722,0.060078915,-0.27623418,-0.60749865,-0.6245677,-0.26258242,-0.3180165,0.9392867,-0.38704115,1.3859551,-0.9935975,2.0403142,0.07649921,-0.6790179,-0.39238587,-0.2641891,0.33495748,1.4684727,0.72594976,-1.3490767,-1.0864235,0.04139419,0.9831849,-0.55541956,1.563028,-1.6812782,-0.448627,-0.029071754,0.8010125,0.17508195,1.0180062,0.15703753,-0.5994883,-1.9811152,1.3515478,0.02129668,-0.41233507,0.8276797,1.5172001,-0.71421266,-0.7418387,1.293956,1.095871,1.1050472,0.95814633,-1.1652824,-1.1732635,0.33567947,-1.152274
ENSP00000484121,-0.12884006,1.631665,0.05306043,0.2588725,0.0366467,-0.49419272,0.86518437,0.0013938198,0.941746,-0.14169426,0.2486663,1.6793882,-0.7318389,0.14446935,-0.060751528,0.8791845,0.7709443,1.333547,0.61840576,0.7150199,-0.58352387,0.6601983,0.029921234,0.7394231,-0.12424804,1.816381,-0.43745482,-0.5133195,-0.9877747,-1.2310395,-0.044129446,1.5947423,-0.044682555,-0.7513841,1.1857693,-0.029953338,-0.46976024,0.28338745,1.0312752,-0.2761346,1.347335,1.1944599,0.4109001,0.56833,-0.99053293,-0.0772187,0.19753204,0.9504892,0.5875457,0.21016794,-1.0979425,-0.7088614,-0.6773425,0.3195118,0.034964673,0.110919416,-1.2286477,-0.14251156,1.30761,0.71378726,1.9722745,0.74101573,0.97085583,0.22299449,0.82183856,-1.0266931,-0.79538804,0.4822512,-0.34191394,2.0472553,0.064014435,-0.9762347,0.50286615,1.5767517,0.6404505,0.87777185,-1.831549,0.5668873,-0.6070902,1.5027108,-0.56224704,0.37901133,-0.4317803,-0.11823417,-0.9050756,2.3480954,-0.72238725,0.9373157,-0.35981712,0.95629513,-0.79875565,-1.4174101,0.63664985,0.9508748,0.19547702,1.2380036,-1.3720601,-0.591802,-0.80187184,-2.5882902
ENSP00000221114,-1.2870785,0.7914235,0.19776417,0.09601467,-1.409356,-0.86633015,1.0123007,0.72491133,0.98883396,-1.3815546,0.41352382,0.72416186,-0.3062641,1.2910464,0.1810711,0.3707892,0.8436405,0.8124941,0.779611,1.2327456,-0.17995751,-0.4352045,1.062758,0.108877145,0.36336023,0.27934572,-0.8006151,-1.0090948,0.71107507,-0.6779885,0.5002879,0.04699505,0.9324779,-0.15210232,-0.37173384,0.22679456,0.5263073,0.036594816,0.06317568,-1.6576355,-0.095327646,0.8582999,0.4685639,-0.32193345,-0.26142716,0.73598135,-0.49293095,0.12473961,0.8124266,-0.3199896,-0.017854804,0.16909344,-0.94747645,0.51396626,-0.61156154,-0.05090842,-1.132068,0.4363722,1.1048443,0.96907336,0.9567093,0.3327484,2.087072,-0.71118706,0.94075704,-1.6568055,-0.3222688,0.124818966,-0.7467875,1.0197111,-0.2079972,-1.0536624,-0.6526631,1.5131932,0.75538766,0.6651924,-0.2653225,0.4303551,0.89133793,-0.06635444,0.2720563,1.6490492,-0.87283814,-1.2136995,-2.543526,2.555998,-1.5378149,-0.24823473,0.4727974,1.0835285,-0.54077095,-0.6888181,0.56385535,0.010167269,1.1164951,0.64525115,-0.72182226,-0.6867828,-0.89510614,-2.0191877
ENSP00000259708,-1.1233046,0.5621404,0.8056033,-0.3060662,-0.45923612,-1.0071287,1.5863113,0.7319592,0.18811175,-1.4434211,-0.5320556,0.8225866,0.4264586,-0.35680464,0.38250828,0.82366353,1.020296,1.039142,0.44298023,0.9327596,-0.39932215,0.36898434,0.8686827,-0.15752135,0.07240633,0.44498724,0.19056264,-1.6992531,0.8334437,-1.5355525,-0.69458187,0.5071455,0.14604889,-0.13630395,0.6210777,-0.81460273,-0.65702856,-0.32509503,0.6528688,-1.63434,0.31502864,-0.106127925,0.09001177,1.1878043,-0.96530885,-0.26710355,-0.65797305,0.25812903,-0.8204084,-0.2643545,-0.13756205,-0.2161447,0.04002138,0.22806494,-1.0709873,-0.634239,-0.5268425,0.2522028,1.6399513,-0.7216607,1.8523092,-0.12968928,1.7903553,-1.1237121,0.74878395,-2.2409582,-0.63081044,0.8490768,0.07383884,0.7498136,-0.14675382,-0.02736978,0.6426059,1.8959342,0.5791119,1.2216207,-2.0174165,-0.007828985,0.42176685,0.83182716,-0.19561906,0.539052,0.61442375,-0.0036697157,-1.3958157,2.060318,-0.34001797,-0.33308762,0.24781892,0.37235767,-0.24276668,0.14128402,0.4357131,0.5736114,1.6247674,0.011990444,-1.3916669,-0.13794976,-0.09287098,-1.9033768
ENSP00000263373,-0.5577685,0.83926725,0.21093261,-1.1814022,-0.7123715,0.38653272,1.0379555,-0.11615018,-0.46491197,-0.630114,0.40104258,1.7659746,0.19905731,0.351435,0.5341609,1.1270741,0.99824244,0.95203644,1.1812593,0.67206895,-0.3447183,0.37539682,-0.3694406,0.9442815,-0.019798705,0.2861362,-1.132605,-0.29165068,0.19224025,-0.4071003,-0.7849991,0.71876323,1.0437036,1.3262125,0.34672868,1.019803,0.24892645,0.53982544,0.043956257,-1.9356629,1.4831703,0.5571176,1.3371606,1.2999492,-0.6598384,0.3015706,-0.67255694,0.37817892,0.6829401,-0.022739626,-0.5758208,0.32816052,-0.52796143,0.18751028,0.08016546,-0.16176054,-0.66842264,1.1865202,0.99490976,-0.23457374,1.8908875,-0.76075053,0.6070415,-1.4185201,-0.6406267,-1.8059623,-0.77980584,0.33499107,0.20457108,2.01166,0.16626818,-1.4122082,-0.29227707,1.2837497,-0.65359324,0.7022772,-1.0858517,-0.8961145,-0.7560539,1.4767524,-0.15303212,0.26869446,0.12580426,-0.6025597,-2.0076404,1.9487189,-0.56729525,-0.70512193,0.40782154,0.087562695,-0.021863557,-0.89873964,0.98107207,0.31333354,1.0672873,1.5460526,-0.72857565,-0.5275247,-0.5911978,-1.3697892
ENSP00000281419,-1.2124095,1.5215875,-0.3200658,-0.80276614,-0.6479011,-0.4166055,1.6721328,-0.27999797,-0.40736803,0.04773796,0.20098507,0.39535716,0.85583794,1.213061,-0.8152351,0.9769279,-0.28564844,1.2736281,0.9458341,1.2721373,-0.36429626,0.80059206,0.7196089,0.46579286,1.0239189,0.42272556,-1.2255741,-0.9782911,-0.534521,-0.49368566,0.14856473,-0.123530746,0.11899049,0.40912372,0.20797016,-0.41987252,0.5664365,1.1566663,1.0390611,-1.2716613,0.7988195,-0.03376063,0.98921365,0.6362926,-0.1644758,-0.930913,0.10760875,1.6274576,-0.12077076,0.53999466,0.1305366,0.25767517,0.40531436,0.8286132,-1.1251388,-1.1494155,-0.19262661,0.13654745,2.0275476,-0.4363045,0.7473095,-0.5337286,0.12824206,-1.2299906,0.0828007,-1.7790482,-1.6538655,0.27180365,0.9918205,1.815186,-1.0116243,-0.24508147,-0.28050768,2.0700972,-0.6674621,0.25101677,-1.5420858,-0.9432646,0.78837013,-0.30774483,-0.74090695,1.4773657,0.9239292,-0.19911763,-1.244023,0.5074288,-1.8299555,0.48846373,0.9505095,1.3795216,0.07178148,-1.5642543,-0.18754186,-0.028740762,1.0810953,1.4236418,-0.9295945,-0.26791784,0.21867067,-2.3587453
ENSP00000303145,-1.1263275,1.2472018,0.09481913,-1.3683888,-1.0573454,-1.0080094,1.3870386,-0.68968755,0.8506109,-0.868248,0.5558641,1.7013232,-0.123078905,0.290948,0.55404454,0.87482256,0.35395798,0.3224415,1.605596,1.5032603,0.48492378,0.26208133,0.016230455,1.2729194,0.02863107,0.18983121,-0.053375054,-1.4921366,-0.36266956,-1.3929,-0.9269443,1.6936119,0.70095223,-0.5562003,0.8658724,0.06743701,0.25307536,0.3700638,0.15669188,-0.8192089,0.094379425,0.37651843,-0.020039525,-0.2868879,-0.15996726,0.6822341,-1.6265063,0.5151162,0.14742815,0.59798515,0.12690735,0.04889831,0.5015209,1.0785143,0.028615933,-0.3796555,-1.7472844,-0.121188246,1.4986523,-0.4207737,1.3088212,-0.88476706,0.66144556,-0.21876219,-0.2016121,-1.2446052,-0.48214927,0.11414962,0.20534644,1.4323525,-0.74713874,-0.4893347,-0.25899628,0.9070063,0.41454145,-0.28952706,-1.297675,-0.5645856,1.0578936,1.4750235,-0.0051968824,1.2701081,0.7042805,-1.1677948,-1.989206,1.1990426,-1.661754,-0.65244,0.8089485,1.5435131,-0.7240616,-0.1504839,0.00889222,-0.3527725,0.55752397,0.18273887,-1.2392255,0.0413061,0.3862497,-2.0019557
ENSP00000324287,-1.7934469,1.0376648,0.008018677,-1.221521,-0.9513571,-0.7948701,1.9721228,-0.48976412,1.2301458,-1.5425031,-0.5248947,0.6779116,-0.24360944,1.322994,-0.1973736,0.45367798,1.3132918,0.73063,0.692263,1.5714185,1.2856125,0.7580551,-0.5787892,0.26033443,0.6839388,1.6081502,-0.8778015,-0.6375821,0.58394456,0.37051392,0.050783575,0.1971967,0.9022121,0.72043234,-0.36021152,-0.69711155,-0.28982276,1.5650128,1.336817,-0.371165,1.1846558,0.8064926,-0.23857574,1.2214524,-0.29564083,0.124820694,0.081755236,1.2494485,0.81319284,0.51984125,-0.24674244,-0.13429232,-0.34058553,-0.40185052,-0.9512814,-0.40493345,-0.8832025,-0.2242984,0.37730774,-0.53585446,0.47334307,-0.8559884,1.4174303,-1.0369732,0.98821384,-2.1107,-1.5488551,0.24174897,0.52724624,0.5297094,0.61732763,-0.61812633,-0.48156,1.1548208,-1.0696535,-0.032011595,-1.0396308,-0.17499761,0.28124866,0.88825554,0.2535061,-0.12226552,0.3711255,-0.5813034,-2.274821,1.1679329,-0.6040413,-0.013001608,-0.43270993,0.97298145,-0.5630418,-0.87311447,0.8371117,-0.19894774,0.81863534,0.55268914,-0.8017957,-1.3103126,0.31171632,-2.2709835
ENSP00000353362,0.08626057,-2.608463,-2.112444,-0.6834772,-0.020074328,1.6864746,-1.0818254,-0.36605263,1.6242694,0.4385319,0.6018626,0.4097318,0.080700494,-0.63155514,-0.842372,0.250367,0.2747691,0.62068427,-0.9378921,-1.3147539,-1.541378,1.0968184,-1.8103118,-2.2861712,-0.6576418,0.09075096,-1.6756138,0.9414631,-0.62576157,-3.0872006,-0.08430847,1.5598536,0.6133699,0.20956722,-0.41665983,2.0657692,0.24609731,-0.16191943,0.73428416,-1.9037006,1.20217,-1.349411,-1.0383571,0.76474655,1.2925383,-0.9902822,-0.25943717,-0.4935322,0.075280815,-0.20060956,-0.658387,-0.45040685,0.824004,-1.8274506,-2.1946309,1.7549529,-1.5411022,0.9604814,1.868038,-0.87103474,-0.09550656,-1.1851566,1.1740364,0.1764369,-0.32595554,2.5577703,-1.6946431,-0.36043632,-0.87134886,-0.65509593,0.88382226,1.0382713,0.05443702,-0.120693855,-0.36160734,-0.03286151,-1.1062775,-2.324264,0.52574205,-1.1725615,-1.9595956,0.6042517,-2.3601818,0.6012042,-0.5743501,0.10602368,0.5791622,0.23337007,0.2950473,2.1205575,-1.1783578,-0.04265399,0.06474545,-0.52405137,-1.0354431,0.32346773,-0.67751724,-0.52803,-1.8434571,-1.1027628
ENSP00000358921,-1.888464,0.87573034,-0.19643149,-0.74243385,-0.446038,-0.6894486,1.7784302,-0.31333527,-0.07645757,-1.7631357,-0.5826965,0.40806887,-0.37026334,0.18174385,0.19177209,0.6751068,0.85129434,0.43051603,0.8961727,0.1606953,-0.10918654,0.5355071,-0.5837505,0.96247894,0.86346686,0.8500085,0.1905458,-0.95470655,-0.925167,-0.86140317,0.124381274,1.3953245,0.714654,-0.3090892,0.17107351,0.27965844,0.31346923,0.69988906,0.25579378,-0.48369047,1.2437404,0.77855045,0.23155098,0.73863024,-1.1034836,0.37016332,-1.2712075,0.4017363,-0.07123181,-0.5822657,-0.7234511,-0.09184317,-0.7105386,0.8503756,-1.0234818,-0.61808896,-0.4058611,0.5194277,1.4887329,-0.31929967,0.42094517,-0.89845,1.1670712,-0.54469997,-0.3252673,-2.036201,-0.8191797,1.79227,-0.3341316,1.7689717,-0.6899921,-0.9715672,0.47520542,1.8951203,-0.30748397,1.4970007,-0.6885311,-0.4094636,0.79940414,-0.3638376,-0.32386574,1.0692846,0.37732494,-1.0003219,-1.1801445,2.2291217,-1.1349304,0.3689075,1.1822684,0.92507213,0.49360552,0.22269477,1.7414607,0.2871911,0.7951383,0.4524761,-0.5198812,0.038082507,-0.63122916,-1.049442
ENSP00000373648,0.34900427,-1.2317591,-1.7445778,0.33272624,-0.011613417,0.3443225,-1.2738228,-0.91579324,0.9729645,-0.6986814,-0.26952627,-0.13471355,-0.43508568,0.962538,-1.321575,-0.42212123,0.9835775,0.7910419,-0.6959673,-2.1288693,-0.9182625,1.6332424,-2.2065103,-2.951586,-0.5627346,-1.0069381,-1.7207154,0.17185776,-0.56143725,-3.0286999,-0.75363916,2.0873342,0.7978536,-0.82562286,-0.623728,2.2184253,1.1443658,-1.6452656,-0.8031805,-1.6979345,-0.0069815293,-2.125204,-0.40631992,1.504954,1.4478801,-1.203408,-1.1318561,1.1928118,0.29619017,-0.74763113,-0.1401412,0.44130766,0.5390192,-0.95953995,-0.39963526,1.4796305,-1.1850365,0.84783566,0.35413012,-0.41176978,1.3077286,-0.71839267,-0.74779916,-0.962377,1.1799786,1.2173891,-0.23031211,-0.22967881,-0.5376394,-0.36991942,0.3661726,1.4706924,-0.50564367,0.85145926,-1.5434115,0.36829108,-0.8788536,-0.8286088,0.21215425,-0.3843195,-1.2015176,0.9700462,-1.9370246,0.075372204,-1.5279313,-0.9166598,0.9394252,-1.3215157,0.7640744,3.635892,0.03355166,0.89604086,0.32321948,-0.62710583,-1.6284862,0.062363133,-1.0137908,-0.87637705,-0.7671315,-0.8400671
ENSP00000382177,-0.66116154,-1.4055257,-1.8243582,0.4399569,0.131995,0.70448357,-1.5289543,-0.21415488,1.4320029,-0.93012077,0.93140715,-1.098783,0.11600951,0.5217897,-0.19075686,-0.87655526,0.12033594,-0.5459424,-1.4185143,-0.9119886,-1.5505357,0.3805871,-1.2337903,-3.0681639,0.0072823763,-0.6996597,-0.09931507,0.045314554,-0.42916146,-2.677956,-0.90599096,1.7508594,0.15440603,-0.38735658,0.6645772,1.7284247,1.536069,-1.3204594,-0.06558138,-1.6010181,1.3902686,-1.4001912,-1.0004725,0.75084245,2.703146,-1.2975215,-0.68209827,0.7149611,-0.123506196,-0.74296784,-0.19689877,0.49827912,0.07959789,-1.2113354,-1.0135006,0.65232724,-0.36150348,1.1023645,1.8859833,-0.12117521,-0.28202936,-1.3147768,0.5095778,-0.8203884,0.5858515,2.3108065,-0.8169909,-0.1905449,0.17378253,0.2164079,0.66699415,1.8139478,0.5447318,-0.32498562,-1.6860551,-0.2007059,-0.3922283,-0.8950785,0.5225893,-1.243043,-1.5490049,0.05201055,-1.1032059,0.10034488,-1.5097471,-0.11796004,1.0491611,-0.04803713,-0.028189901,3.2351031,-0.56550014,0.13930365,-0.1142226,-0.09999591,-1.4266856,0.8896278,-0.513053,-1.2167004,-0.97238857,-2.6293454
ENSP00000401010,-1.9869139,1.6304173,0.34826285,-1.4428053,-1.3379327,0.15764423,1.5105019,-0.23337774,-0.49441507,-0.51756537,0.12398327,0.98861635,-0.4142683,0.17153591,-0.8868601,0.8975837,-0.032872777,1.0456336,0.13954665,0.75168145,-0.5897864,-0.61109686,-0.19830933,0.4894445,0.7498062,1.0721707,-0.16974393,-0.6149002,-0.8907923,-0.60405326,0.42082065,0.74361324,0.9339224,1.0414416,-0.12773372,-0.04687509,-0.5202459,0.21785726,0.48231962,-0.52953494,0.45126307,-0.31949395,0.024868988,0.16514029,0.1859618,-0.48700923,-1.5240711,1.8177656,0.21556397,-0.05423062,-1.6223246,0.7783321,-0.22633067,-0.70494586,-0.33461145,-0.3294266,-1.1186328,0.24300325,0.7016176,0.16022754,1.782395,-0.020883746,1.1897893,-1.2928758,1.0287185,-1.312336,-0.03561988,0.6409668,0.8990294,1.4175894,0.2565731,-0.6362044,-0.65326643,1.9098676,0.24654374,0.9593696,-1.5411985,-0.65079486,1.5881556,0.39139408,1.296437,0.4416898,0.37962168,-0.9744773,-1.1071075,1.976186,-0.6823276,-0.43375877,0.33194104,0.48055717,-0.680409,-1.3833925,0.14000845,0.10997583,-0.0062778248,0.6328133,-1.6060143,-1.0782168,0.75082505,-1.5560551
ENSP00000427900,-1.9071431,1.167765,1.2259964,-0.7326775,-0.80940765,-0.94662255,2.012288,0.5823301,0.46068382,-1.5888345,-0.24535449,0.8636997,1.5250661,0.22874594,-0.24281731,0.9042075,0.13128842,0.037682414,0.71410155,-0.034416325,0.6149531,1.0430304,-0.25249392,1.1517181,0.31190687,0.65945673,-0.09511574,-1.3242975,0.7080535,-0.75649464,-0.29925016,0.9305981,-0.1440287,1.0548501,-0.12006899,-0.0033077344,-0.52793556,0.026191255,-0.029691353,-0.41560617,1.6287535,-0.6589716,-0.05158667,0.9147698,0.2864231,-0.14059271,-1.0523597,0.60160184,0.07338075,-1.071541,-0.5130657,0.21560769,0.21831857,-0.62856185,-0.09215032,-0.019115333,-0.47952288,-0.056740567,0.3075582,0.9759324,1.7027965,-0.2501887,0.50755924,-1.0600406,1.0208297,-0.7146381,-0.189754,1.3226329,-0.102849975,1.002255,-1.2721547,-0.8903906,0.35383874,0.29375446,-0.6616776,1.1967695,-0.94269747,0.24324924,0.5108025,0.7858314,0.2510509,1.5869658,0.7650946,-1.1242944,-1.8063025,1.7968974,-1.5168146,-0.039615948,-0.63633317,0.76174945,-0.99695396,-1.4132235,0.4802595,0.7418765,1.2048205,0.4470717,-0.8939823,0.13037267,-1.2229987,-2.3882852
ENSP00000480616,-0.62996936,-2.319111,-1.00299,-0.2727859,0.05244039,0.816297,0.2780736,-1.4143609,1.7685379,-0.27999038,0.11077393,-0.11016146,-0.05652402,0.82776964,-1.0878465,-0.6983352,0.8852272,0.5252323,-0.8788787,-1.3696766,-0.5619003,0.14849047,-1.0771052,-2.5688171,-0.74890524,-0.2725972,-1.0671415,1.1011753,-0.64390475,-2.3696764,-1.3278283,1.5575894,1.0747411,0.17463198,0.39769712,2.3247042,1.7594978,-1.1216189,-0.47941607,-0.53355825,0.50574154,-2.261035,-1.3940209,1.4371688,1.9261112,-0.9273875,-1.2347509,-0.152949,0.8564664,0.22835022,-0.3866509,-0.19230178,0.58435214,-0.23164918,-1.8552284,0.5977999,-0.2592445,1.2484965,0.57653946,-0.9009797,-0.18860029,-2.0972009,0.4404446,-0.7403329,1.0339457,1.6445531,-1.4220318,0.24678224,-0.33437347,0.44989613,1.5394329,0.6005875,0.8542439,0.44843236,-1.0145124,-0.10494135,-1.2599915,-1.7807475,1.4165275,-1.8798258,-0.656336,-0.34016454,-1.8527883,-0.76335394,-0.34360835,-0.6016442,0.9833556,0.23170142,1.5690187,3.3610137,-1.3241116,0.9457344,0.0059626927,-0.3504675,-1.6124074,0.8554248,-0.9968175,-0.025370626,-1.2319616,-1.4138598
