ENSP00000388107,0.42874923,0.38887027,-0.27456722,0.3887287,0.29709902,-0.36166656,-0.456486,-0.31026077,-0.28978357,-0.40944856,0.37936607,-0.36347955,0.29312208,0.2811597,0.28314462,0.2802145,0.42211944,0.36044338,-0.51928145,0.36325544,-0.38198987,0.40534404,0.23328242,0.34594983,0.29464334,0.41182524,-0.8306988,-0.21245883,-0.27132168,0.29089376,-0.392539,-0.29698363,0.32009634,0.4293964,-0.32972226,0.32697645,0.34811118,-0.1431791,-0.34150833,0.33056068,-0.36133936,-0.21988359,0.34792805,0.30772513,-0.41764212,0.36150968,0.32740852,0.3253883,-0.5140007,0.34098744,0.29213482,0.33804366,0.26884934,0.22345094,-0.38396284,-0.3622727,0.37251607,0.19281733,-0.3185931,0.008208474,-0.37028167,-0.33489108,-0.36840796,0.39794388,-0.33367705,-0.3220926,0.32436714,0.47524002,-0.41417807,-0.23298986,0.3300148,-0.3404045,-0.35362202,-0.24401695,-0.2570147,-0.2368326,-0.31416902,-0.22367314,0.23456223,0.355783,-0.39212903,0.34045568,0.27371886,0.243413,-0.21150315,0.23404743,0.26259297,0.49577993,-0.31008324,-0.23607463,0.283374,-0.44222692,0.47694954,0.18828164,0.27868906,-0.44017008,0.3903111,-0.21626979,0.50285035,0.47546178
ENSP00000272317,0.38368395,0.35602447,-0.26215902,0.34844193,0.40543905,-0.30281726,-0.55270755,-0.3654196,-0.24999692,-0.3296132,0.3757571,-0.44382548,0.30389675,0.35049367,0.3283524,0.33625555,0.4367183,0.2737937,-0.49657035,0.2673731,-0.3985515,0.4245997,0.32581443,0.4443484,0.31394467,0.34891698,-0.7689887,-0.2947064,-0.32189083,0.37452817,-0.4197675,-0.3286079,0.2919351,0.3358214,-0.29734382,0.41090158,0.3234886,-0.052671053,-0.41333348,0.38445476,-0.26017794,-0.3083149,0.3664882,0.40238985,-0.38774824,0.37598374,0.35529193,0.32316756,-0.47833878,0.38495985,0.28644633,0.31379548,0.23536544,0.23357788,-0.33772996,-0.2281672,0.38245198,0.20171084,-0.3047622,-0.111765996,-0.3134544,-0.18998542,-0.27935717,0.43213403,-0.3402555,-0.32730755,0.243902,0.3462763,-0.4771478,-0.25957203,0.2397788,-0.23507056,-0.38237938,-0.28776106,-0.33250514,-0.3624704,-0.2960106,-0.25393414,0.3752187,0.33505285,-0.32103723,0.39069602,0.32053086,0.34053856,-0.24263209,0.16610213,0.22203737,0.534035,-0.2740249,-0.26721424,0.20909883,-0.3546852,0.41272044,0.14445549,0.33445323,-0.34304816,0.4259147,-0.26491687,0.42748556,0.57641006
ENSP00000441543,0.37505868,0.34630963,-0.38782603,0.20806737,0.3492905,-0.35361743,-0.46734512,-0.31184056,-0.22897495,-0.34658635,0.31395963,-0.47411293,0.32208356,0.29664746,0.33576304,0.37394,0.36502594,0.31499836,-0.41176638,0.38272884,-0.34712616,0.36102802,0.3020634,0.3907984,0.29098812,0.29779804,-0.4940964,-0.24696018,-0.35785085,0.3669756,-0.37774295,-0.263324,0.40568423,0.3532869,-0.33076012,0.41321906,0.35981095,-0.13031134,-0.40631375,0.3678093,-0.36118895,-0.2911462,0.42585045,0.3801237,-0.4060846,0.41204977,0.31675658,0.20914175,-0.35634732,0.3518498,0.3527708,0.37351194,0.26579162,0.23557545,-0.33532608,-0.25334242,0.40110746,0.26032758,-0.39295363,-0.18106952,-0.34796658,-0.31470597,-0.35273176,0.3854636,-0.30703768,-0.32061866,0.26830822,0.38267705,-0.35124332,-0.25715446,0.26101688,-0.31929654,-0.30475202,-0.18064426,-0.31019628,-0.26498625,-0.30816567,-0.3466374,0.36339888,0.28616315,-0.30567357,0.38201523,0.26786354,0.25764796,-0.27792677,0.11086693,0.17550333,0.4913139,-0.26256257,-0.21681221,0.31790373,-0.42178854,0.38034424,0.24068657,0.280753,-0.32026032,0.3566798,-0.29492453,0.38478452,0.44018564
ENSP00000304697,0.37398145,0.3568919,-0.24983007,0.21275745,0.31892133,-0.32869267,-0.5107085,-0.29395437,-0.28050017,-0.45109603,0.36401242,-0.43071187,0.40658516,0.42521316,0.27194634,0.35232615,0.4605441,0.28807154,-0.44612452,0.29247946,-0.34326062,0.43977654,0.22801766,0.31654948,0.25658643,0.31852144,-0.5592564,-0.25965953,-0.31611916,0.25028002,-0.3383312,-0.32180694,0.33554363,0.30856523,-0.29785976,0.4780742,0.35845998,-0.12350072,-0.39443806,0.33178946,-0.26022694,-0.2575038,0.29457942,0.41856262,-0.44492912,0.33849978,0.32654443,0.29360276,-0.44827643,0.35439628,0.33900943,0.4047066,0.1937453,0.22147615,-0.29714328,-0.2687624,0.40761393,0.250568,-0.28121993,-0.014002413,-0.15619306,-0.19301343,-0.38466793,0.43492445,-0.3985732,-0.288987,0.3299558,0.34317416,-0.3850003,-0.30934152,0.26167646,-0.3186254,-0.32440794,-0.18020295,-0.19410864,-0.3547513,-0.3503636,-0.33043167,0.35290024,0.39366776,-0.37637377,0.36020178,0.22902931,0.3482055,-0.19151662,0.18919484,0.1269696,0.55430514,-0.28557616,-0.23146504,0.29519287,-0.46731064,0.41133332,0.18563439,0.2546289,-0.45630884,0.35490867,-0.25408375,0.41666824,0.46264705
ENSP00000481878,0.43593073,0.25242668,-0.42034262,0.08887937,0.23822148,-0.23058122,-0.36203465,-0.30050892,-0.73073345,-0.2977332,0.15778711,-0.33087826,0.16293289,0.2406749,0.43478352,0.37327656,0.20576334,0.371747,-0.19090803,0.26083767,-0.16084465,0.2799716,0.29225037,0.27894208,0.25378093,0.5203537,-0.3128569,-0.405776,-0.31015527,0.34581903,-0.29922247,-0.40294752,0.38564372,0.28025237,-0.38650844,0.106733665,0.2446136,-0.98474646,-0.19074886,0.2840428,-0.31396475,-0.31460547,0.15864632,0.32706168,-0.28756657,0.33212492,0.30717534,0.3693531,-0.14448282,0.38306287,0.40855494,0.19339772,0.42850953,0.35913357,-0.39851418,-0.55221826,0.37074772,1.1415524,-0.4006137,-0.87257165,-0.30165038,-0.29564545,-0.33772835,0.71915835,-0.23876674,-0.20942332,0.27308258,0.33258843,-0.20492552,-0.3627475,0.2551256,-0.29535234,-0.35099256,-0.6802533,-0.23861626,-0.47412598,-0.35600817,-0.42913178,0.30199808,0.35118484,-0.16907117,0.52729005,0.37006927,0.3261342,-0.53035665,0.82930416,0.3528962,0.08776284,-0.26223785,-0.50132746,0.42352188,-0.2600688,0.25421515,0.37594837,0.23160416,-0.19010748,0.08239752,-0.38813075,0.282917,0.06212338
ENSP00000248572,0.45197076,0.2782307,-0.33909628,0.045889013,0.32214448,-0.1888434,-0.3327329,-0.25140113,-0.65016925,-0.23458093,0.24492063,-0.33366382,0.1457042,0.25239322,0.3219448,0.4389197,0.21010345,0.3779001,-0.27445555,0.34380335,-0.20173396,0.27899313,0.28908765,0.3794679,0.39601666,0.3936532,-0.29125988,-0.35352105,-0.23842043,0.3746525,-0.35301048,-0.43141875,0.46899152,0.32034633,-0.32475588,0.12820728,0.18900369,-0.9914512,-0.27576828,0.33247906,-0.3154393,-0.34897295,0.23654985,0.3507502,-0.30293617,0.25970352,0.34948748,0.35899752,-0.14527057,0.37487125,0.45492688,0.19369644,0.4300491,0.28795463,-0.348377,-0.45928648,0.33379182,1.2093945,-0.40769836,-0.987248,-0.33800128,-0.26150554,-0.35320774,0.6532477,-0.25521356,-0.36495408,0.26637176,0.38491586,-0.13661508,-0.37341133,0.2946942,-0.34759116,-0.30239752,-0.6261699,-0.35586596,-0.47335893,-0.3191715,-0.33572698,0.2859112,0.24354549,-0.15516967,0.50417465,0.32191962,0.32617098,-0.43053687,0.8861682,0.398053,0.022300836,-0.24951155,-0.45628476,0.42362076,-0.3369972,0.28529882,0.3860943,0.23753305,-0.19455464,0.11438048,-0.4267392,0.28763774,0.0048477603
ENSP00000269305,0.39590752,0.37840894,-0.36043018,0.30198342,0.34764525,-0.43121466,-0.35847643,-0.31937003,-0.21908517,-0.28381467,0.32628232,-0.46307278,0.29301548,0.29786,0.37172437,0.29250127,0.3781121,0.3313641,-0.33114755,0.29671705,-0.34066632,0.31344593,0.3082532,0.39418894,0.289395,0.31334558,-0.4328992,-0.35765293,-0.34319255,0.4270175,-0.3556982,-0.32213125,0.33079043,0.31858835,-0.40405548,0.4317581,0.37292218,-0.17408828,-0.3256595,0.28146735,-0.22405623,-0.42818844,0.3091679,0.3391558,-0.36902228,0.30003315,0.31930432,0.4218508,-0.45413554,0.368675,0.29363042,0.36531356,0.36225873,0.2701548,-0.40152717,-0.3604203,0.32798043,0.19504842,-0.30069134,-0.0026089859,-0.29662207,-0.20534466,-0.3340247,0.40534458,-0.4167939,-0.21749805,0.42124626,0.36197934,-0.4081802,-0.38934153,0.38110408,-0.35556984,-0.23853604,-0.34179518,-0.35098562,-0.28938636,-0.28704816,-0.39857668,0.3164131,0.42727745,-0.38573894,0.34182578,0.266356,0.3027301,-0.2898278,0.2552302,0.35286248,0.40668264,-0.3695178,-0.23570172,0.33341202,-0.37831578,0.27553225,0.32671764,0.27509138,-0.24453042,0.47295508,-0.26801857,0.41172186,0.4777027
ENSP00000284981,0.39589947,0.33645234,-0.4474302,0.30176252,0.24331671,-0.23218329,-0.3766481,-0.3083048,-0.41792414,-0.28198516,0.34547013,-0.35390642,0.21699648,0.19475302,0.34910226,0.35299963,0.23905306,0.33171755,-0.3352618,0.37410897,-0.30139655,0.32967106,0.26994404,0.33377707,0.28915662,0.28973237,-0.43653646,-0.40834308,-0.3495654,0.4093009,-0.31826726,-0.41011855,0.322256,0.32199645,-0.3473032,0.64323545,0.24346021,-0.56545746,-0.23404633,0.27854022,-0.33987325,-0.3548395,0.20737799,0.32743427,-0.30225784,0.3712588,0.25510743,0.36915022,-0.20118508,0.35716596,0.41525728,0.21541874,0.45534885,0.36977062,-0.2697618,-0.31959927,0.28634682,0.5218953,-0.4045911,-0.61313325,-0.33046272,-0.30370167,-0.33308986,0.35900396,-0.2683654,-0.28269273,0.3182059,0.3275396,-0.28830844,-0.3627738,0.4145368,-0.385321,-0.28020597,-0.35788292,-0.2924856,-0.3120388,-0.3558446,-0.40625957,0.29943058,0.29068083,-0.28549647,0.37024742,0.3100295,0.22583252,-0.5497262,0.38794878,0.3564871,0.29782307,-0.2751531,-0.4275103,0.30332562,-0.4315354,0.26861513,0.21794827,0.22169524,-0.40659133,0.2181082,-0.3829178,0.37736696,0.2592597
ENSP00000360532,0.33974922,0.40627837,-0.22611196,0.37631732,0.3883445,-0.34276414,-0.30324113,-0.32453436,-0.12887384,-0.45766154,0.39862996,-0.43060383,0.29517537,0.4231077,0.39261374,0.23755373,0.38380262,0.31409338,-0.25711024,0.18723439,-0.30731398,0.34541896,0.23666003,0.2951924,0.19756864,0.35474372,-0.5962574,-0.30150816,-0.3480153,0.33946645,-0.42472282,-0.3563907,0.2046554,0.33653146,-0.21764465,0.2176761,0.3336971,-0.062238596,-0.32293728,0.353747,-0.23364356,-0.24327554,0.37015033,0.20222382,-0.37703946,0.25346845,0.31747586,0.42906046,-0.43990827,0.30702373,0.2553588,0.46719173,0.27896863,0.36671004,-0.35388413,-0.26127347,0.26344317,0.4189492,-0.26858476,-0.26466897,-0.31310198,-0.3792812,-0.31976375,0.2700991,-0.46503225,-0.2812454,0.3548872,0.4036641,-0.5381385,-0.33768207,0.24911144,-0.23377915,-0.3825535,-0.38854825,-0.39088607,-0.277624,-0.31338853,-0.38101098,0.33627817,0.356077,-0.50501174,0.18104927,0.28093234,0.3886631,-0.3253108,0.30643356,0.21791303,0.3259372,-0.38777673,-0.27622452,0.36294937,-0.3864133,0.39822206,0.3075532,0.30496833,-0.2835688,0.30196944,-0.2603967,0.30653247,0.4520126
ENSP00000216225,0.34178782,0.37824228,-0.37808087,0.36647987,0.327883,-0.34271386,-0.41490033,-0.27210906,-0.29880258,-0.42679155,0.384277,-0.3814713,0.28127664,0.32870477,0.35837412,0.3772221,0.38950425,0.28927794,-0.3555952,0.30603743,-0.31926394,0.33212638,0.34862936,0.324536,0.36306646,0.30522826,-0.49353185,-0.24721067,-0.31872436,0.30011493,-0.3170166,-0.38014546,0.34044212,0.31964687,-0.30845773,0.36402157,0.31251973,-0.31013933,-0.38442057,0.3089419,-0.2785741,-0.28329983,0.38624784,0.32861853,-0.3938903,0.3821966,0.30530044,0.2700844,-0.39659745,0.3487493,0.38398856,0.3626221,0.2652529,0.28538635,-0.27756426,-0.3156242,0.3628658,0.27224138,-0.36479625,-0.3223155,-0.26344875,-0.31409106,-0.3081285,0.3808684,-0.37767974,-0.37813967,0.35356995,0.32793233,-0.31693333,-0.34138748,0.30733335,-0.30928907,-0.30306554,-0.24973308,-0.25659913,-0.27908996,-0.2875422,-0.3677218,0.422081,0.3407774,-0.30880922,0.32654008,0.3781885,0.3558285,-0.26772773,0.290232,0.2945616,0.49131233,-0.28219625,-0.27863333,0.274303,-0.4051964,0.3482287,0.26851478,0.3330499,-0.3855003,0.33448386,-0.31451932,0.4948796,0.44461983
ENSP00000403852,0.3182344,0.40413782,-0.26458597,0.30029172,0.31843856,-0.43005595,-0.3908686,-0.2986482,-0.16563067,-0.4758864,0.36404026,-0.38255104,0.40750623,0.42078602,0.3766243,0.27493498,0.3778638,0.34024316,-0.3702999,0.27473602,-0.41489485,0.3644585,0.310592,0.29020786,0.34900376,0.28307152,-0.4865968,-0.2743437,-0.39854917,0.2660038,-0.39124444,-0.30094132,0.34246138,0.31457058,-0.27319694,0.26643413,0.3407241,-0.2634814,-0.3047254,0.3633634,-0.29266793,-0.32345155,0.42420435,0.35471305,-0.46373555,0.25804394,0.2617686,0.4081531,-0.4125577,0.31747356,0.23030137,0.39291456,0.39628267,0.4081642,-0.28307325,-0.32827866,0.37887537,0.4442714,-0.32181042,-0.25405556,-0.4147119,-0.3647836,-0.33790016,0.33966073,-0.49566382,-0.3439771,0.38149887,0.31345662,-0.46326098,-0.24982323,0.19273251,-0.3195295,-0.38788036,-0.26543793,-0.4364321,-0.3509651,-0.3385813,-0.32205704,0.27147436,0.41863596,-0.39018053,0.3000451,0.3588329,0.2338486,-0.3096161,0.15462515,0.14310212,0.36323687,-0.35018116,-0.27985722,0.2608749,-0.3330815,0.39180678,0.2959752,0.31427228,-0.3723579,0.30709326,-0.26763597,0.3517172,0.477608
ENSP00000451828,0.41586283,0.24718784,-0.4558557,0.3629187,0.34129462,-0.3075015,-0.27991495,-0.3449571,-0.3492667,-0.25962725,0.26587248,-0.45745137,0.38114867,0.29854953,0.29819506,0.3528793,0.28330448,0.32195926,-0.3373223,0.37493217,-0.40293038,0.35393935,0.36967108,0.2982122,0.32697564,0.36246917,-0.45628867,-0.30840817,-0.31659397,0.31387463,-0.316895,-0.3161101,0.34663394,0.3344896,-0.35867915,0.41707334,0.3221604,-0.24933736,-0.34326568,0.23061252,-0.2348234,-0.34127,0.2420908,0.38644025,-0.33935368,0.33397964,0.3242537,0.38429195,-0.3114765,0.40747502,0.37421557,0.23705603,0.4416281,0.41396374,-0.36298153,-0.2775604,0.34736037,0.43332052,-0.31995454,-0.280569,-0.30101982,-0.29132816,-0.31251934,0.34379646,-0.37809128,-0.35494813,0.31883654,0.41440907,-0.3737526,-0.31401578,0.32216513,-0.26289123,-0.35366112,-0.38628814,-0.28036994,-0.29249686,-0.3318175,-0.4195841,0.37386176,0.3466122,-0.39439452,0.36392513,0.31380907,0.32857567,-0.41759834,0.27493018,0.28855506,0.39343554,-0.34077594,-0.3410241,0.32689458,-0.30737916,0.32237035,0.26446453,0.37964812,-0.33204857,0.37126222,-0.3054208,0.34476465,0.4013218
ENSP00000361540,0.37095943,0.32651347,-0.3005561,0.37766173,0.3461031,-0.27657205,-0.46242297,-0.3103093,-0.26297435,-0.39470106,0.3070741,-0.3545023,0.3515802,0.28344625,0.26119888,0.34344748,0.39810017,0.24899654,-0.39860114,0.31687045,-0.27731773,0.34369484,0.28627032,0.32282585,0.3184902,0.31749046,-0.4436241,-0.32335347,-0.31376806,0.37027484,-0.33770475,-0.29204488,0.30464283,0.36900997,-0.30627564,0.44672522,0.35429412,-0.21080972,-0.32162532,0.33180177,-0.3685432,-0.28347468,0.3098057,0.3752854,-0.29074264,0.47257653,0.33231643,0.29812473,-0.36010852,0.31507117,0.34724665,0.2726982,0.32258087,0.35662606,-0.27435094,-0.2657083,0.2525892,0.21218313,-0.43245405,-0.30164784,-0.28254613,-0.364153,-0.31064415,0.42196673,-0.37794408,-0.29459465,0.36541572,0.37750697,-0.33947134,-0.3389071,0.31981325,-0.30781266,-0.38853288,-0.28226948,-0.31395516,-0.24908182,-0.32036415,-0.3482024,0.43000075,0.32517534,-0.38916004,0.33026302,0.27096093,0.2646944,-0.3114298,0.2952804,0.22021824,0.44946656,-0.25508955,-0.24991158,0.34853864,-0.3848822,0.38384044,0.29852206,0.37012234,-0.3790645,0.3832756,-0.2890968,0.5287373,0.3982674
ENSP00000378699,0.3741113,0.2489862,-0.28812087,0.51915395,0.37582275,-0.285279,-0.35504898,-0.31692496,-0.28615138,-0.40166566,0.33022892,-0.320144,0.29932636,0.32992086,0.3645698,0.3122579,0.35033658,0.30646172,-0.32522407,0.2971431,-0.3304612,0.35621575,0.35245046,0.32888874,0.3209596,0.39480448,-0.31276926,-0.33654752,-0.34299105,0.34895858,-0.37054643,-0.35155517,0.34863725,0.30448624,-0.41777107,0.32161847,0.34729147,-0.26578775,-0.32885665,0.30751485,-0.26774922,-0.3970833,0.27676073,0.31080556,-0.35656232,0.34820604,0.32390618,0.33482176,-0.3230767,0.3426736,0.27677807,0.21230465,0.33642635,0.3233373,-0.40682527,-0.35302335,0.32227182,0.29207036,-0.22188012,-0.28653422,-0.34097853,-0.27753776,-0.3118421,0.378069,-0.38193467,-0.25670195,0.3896018,0.32893038,-0.3551741,-0.35387442,0.31194788,-0.29862407,-0.3296055,-0.26685864,-0.3363127,-0.37821373,-0.28773642,-0.33404574,0.29071912,0.33369404,-0.4855851,0.3781796,0.26635313,0.33932155,-0.22272898,0.23788472,0.25637925,0.4425784,-0.32888865,-0.26400903,0.337005,-0.30143932,0.37778217,0.34201735,0.37786052,-0.25596967,0.4504419,-0.26741675,0.40730953,0.4367134
ENSP00000478303,0.33395875,0.332096,-0.2583245,0.3759113,0.34287506,-0.35482988,-0.36871332,-0.25189406,-0.25056642,-0.5531204,0.38153163,-0.471232,0.4042499,0.34264675,0.3150131,0.2651453,0.45619053,0.31274086,-0.29832196,0.17841505,-0.27423644,0.35737213,0.29726455,0.31201375,0.27124742,0.40162623,-0.60456294,-0.3504643,-0.34378356,0.29197964,-0.3522823,-0.23466597,0.25549114,0.35272163,-0.22734621,0.32214287,0.31616023,-0.23139328,-0.24642475,0.29706985,-0.14497767,-0.3315381,0.41490448,0.28328428,-0.36355397,0.31926274,0.29101768,0.37164366,-0.4795906,0.3732084,0.24612114,0.37114656,0.37685236,0.40464202,-0.35153744,-0.34981284,0.33088017,0.39173186,-0.32311144,-0.38587,-0.33998027,-0.36045325,-0.33005726,0.24966052,-0.42180094,-0.3320114,0.32915676,0.32452402,-0.4309953,-0.29499495,0.30300194,-0.36244124,-0.43668097,-0.33675668,-0.3767336,-0.28433964,-0.330188,-0.31615907,0.35299626,0.34539828,-0.3948617,0.2993382,0.41136742,0.3297595,-0.33356825,0.2741386,0.23919694,0.36758876,-0.35851786,-0.25763074,0.36258098,-0.26956677,0.31128857,0.2948708,0.2810391,-0.25699267,0.37742218,-0.29533526,0.3269687,0.4481639
ENSP00000263253,0.34973654,0.3035017,-0.3178923,0.40667605,0.23953608,-0.35109344,-0.40540686,-0.33862555,-0.27684245,-0.4240327,0.4076781,-0.32716152,0.46813324,0.32096195,0.31676218,0.33204862,0.3715377,0.35200384,-0.31729335,0.30998468,-0.33903784,0.2709671,0.325335,0.31387967,0.34644967,0.33894932,-0.36206537,-0.32665238,-0.3793324,0.3424817,-0.35659665,-0.32014528,0.36869752,0.26563838,-0.45002696,0.37492532,0.31702912,-0.17479534,-0.3789854,0.2522267,-0.28476897,-0.3114552,0.3338939,0.28912312,-0.34069437,0.29331705,0.30723178,0.37526396,-0.3613928,0.29263914,0.27509642,0.2839314,0.36807343,0.3413936,-0.3294565,-0.45097744,0.36188105,0.2507644,-0.2521532,-0.07769866,-0.39584702,-0.30031577,-0.39104405,0.3552509,-0.38082135,-0.1718191,0.31192344,0.33290663,-0.44450825,-0.2656611,0.30279672,-0.3606171,-0.2691018,-0.25370452,-0.36967412,-0.24821235,-0.34168366,-0.31056112,0.36620438,0.3970346,-0.38746274,0.29506126,0.27899718,0.21720523,-0.37987077,0.17942768,0.3049272,0.35274327,-0.3552948,-0.26562467,0.32501313,-0.30387262,0.39379916,0.25028923,0.34038177,-0.32682902,0.42007667,-0.34892526,0.3328511,0.30026135
ENSP00000334448,0.35870448,0.30340153,-0.37673786,0.22857852,0.21385147,-0.32217807,-0.30368713,-0.29914242,-0.4415494,-0.2730135,0.23542486,-0.35679567,0.23418272,0.2943676,0.3183292,0.32194826,0.33085072,0.35882235,-0.32696745,0.32750103,-0.2680979,0.28465405,0.2884059,0.32849056,0.28693488,0.33487248,-0.47324795,-0.32743964,-0.323786,0.4346682,-0.26153615,-0.3600107,0.42758927,0.30155042,-0.29761255,0.38152218,0.234697,-0.49950403,-0.29164723,0.32571873,-0.23727968,-0.29434752,0.21060783,0.26316872,-0.203556,0.31267476,0.32729658,0.35419106,-0.2695096,0.3787052,0.37380412,0.22328584,0.46155372,0.37809893,-0.26986083,-0.41630793,0.26368114,0.5929986,-0.47970858,-0.5673229,-0.21746428,-0.2806654,-0.31926793,0.32011804,-0.37176806,-0.31916267,0.32051384,0.37380674,-0.2946747,-0.31589118,0.32600853,-0.44606355,-0.26842824,-0.34058377,-0.2842353,-0.3734387,-0.33690757,-0.36250252,0.29153597,0.28041866,-0.23175855,0.39113045,0.3547545,0.22793296,-0.43994218,0.40078598,0.50336033,0.264073,-0.3244321,-0.41318744,0.34764618,-0.41883263,0.2499056,0.2717921,0.33355126,-0.38994426,0.25450334,-0.29274982,0.2494326,0.27802888
ENSP00000305260,0.39301938,0.27804255,-0.48375538,0.1819196,0.31706014,-0.2655519,-0.2761206,-0.22368214,-0.5123748,-0.18285829,0.2099334,-0.35118878,0.15661398,0.30148435,0.30492014,0.3172459,0.21776173,0.32459885,-0.25505486,0.29342362,-0.2173093,0.2832488,0.3017446,0.369066,0.28312334,0.43835735,-0.4993523,-0.43933275,-0.22500303,0.52764666,-0.25388664,-0.3487405,0.38939565,0.24335249,-0.23806372,0.30512398,0.26401675,-0.67873096,-0.22479637,0.3479329,-0.26486942,-0.2817589,0.28176928,0.2879671,-0.2743087,0.3548368,0.2653266,0.33988377,-0.23618044,0.44789812,0.33460492,0.12962647,0.46049827,0.4127369,-0.27052617,-0.52706665,0.30477634,0.85026425,-0.53368604,-0.72168267,-0.2169842,-0.2989185,-0.3766325,0.4217085,-0.33472893,-0.29823583,0.3257508,0.28171307,-0.21959129,-0.3282803,0.357972,-0.37070572,-0.31880844,-0.4018845,-0.32891402,-0.41364956,-0.3080928,-0.4236436,0.32177106,0.3031401,-0.32404953,0.40757045,0.2949382,0.26971444,-0.5217117,0.50747675,0.41419613,0.15642832,-0.27083626,-0.45593104,0.34979093,-0.43441573,0.2520028,0.2434335,0.26636097,-0.30934763,0.25090986,-0.35775197,0.2380348,0.19779897
ENSP00000383118,0.41212317,0.28490222,-0.3038205,0.5038877,0.30568528,-0.3338522,-0.32562482,-0.39684382,-0.26940024,-0.27552316,0.38085496,-0.4691963,0.23421554,0.34189603,0.33700174,0.33067998,0.3253878,0.40096542,-0.3991803,0.45287997,-0.34764448,0.2825803,0.319364,0.29760602,0.31012985,0.46603227,-0.32391015,-0.32230997,-0.38417995,0.36614048,-0.3366984,-0.29013342,0.3254404,0.33044723,-0.30640426,0.32130983,0.29961407,-0.20617738,-0.32293433,0.30642164,-0.357617,-0.34455886,0.31351703,0.2945742,-0.38838428,0.22722958,0.3095125,0.26774693,-0.32062456,0.36180684,0.30379736,0.34353182,0.27300364,0.36334246,-0.35350722,-0.2654089,0.34848723,0.22614358,-0.30184844,-0.18931992,-0.32405657,-0.29649475,-0.42945272,0.33375013,-0.39343986,-0.3593663,0.2881826,0.43250158,-0.2810458,-0.29579964,0.3902747,-0.24523185,-0.3505653,-0.21301408,-0.2873895,-0.28826624,-0.38127124,-0.3150388,0.51838464,0.3401029,-0.32567805,0.312663,0.25910538,0.26710278,-0.37825528,0.23566903,0.38399276,0.44962934,-0.3505929,-0.2964247,0.28989783,-0.32509482,0.30790755,0.28732803,0.38884324,-0.43053526,0.34169826,-0.32418364,0.3883698,0.5677438
ENSP00000480158,0.38912764,0.2804806,-0.27613732,0.34491074,0.27332357,-0.41824782,-0.31159323,-0.3140083,-0.30940527,-0.54920983,0.35509455,-0.35726744,0.46490088,0.37616658,0.28561324,0.23169377,0.50699914,0.31515,-0.31874856,0.3104922,-0.34094232,0.3416668,0.31632972,0.287398,0.22272006,0.28213418,-0.4585129,-0.31884283,-0.36247385,0.24262424,-0.45272207,-0.3220039,0.2728299,0.2918083,-0.27092993,0.3096332,0.34063226,-0.14519687,-0.34843263,0.33407006,-0.30550402,-0.33121765,0.36207545,0.32775587,-0.40806603,0.21129456,0.22138323,0.3658995,-0.40995988,0.27661693,0.25429523,0.43777815,0.31675255,0.405962,-0.2960796,-0.29789823,0.37929884,0.41188285,-0.36653522,-0.23942865,-0.3770322,-0.3869493,-0.35837686,0.32021326,-0.4079057,-0.29400638,0.36641377,0.3649718,-0.41465473,-0.2561638,0.22345284,-0.30004537,-0.34428638,-0.24975835,-0.3999198,-0.29269657,-0.40561482,-0.30210176,0.30648595,0.39395002,-0.38871437,0.31072277,0.34075096,0.31937551,-0.24687564,0.15688647,0.19938849,0.31508282,-0.41020772,-0.2680507,0.30496973,-0.25613585,0.344098,0.23063543,0.3849509,-0.3098021,0.2123386,-0.23212765,0.30491087,0.31951562
ENSP00000248150,0.35574937,0.29091418,-0.43006572,0.23836462,0.26465985,-0.20589285,-0.39045835,-0.32108802,-0.46742836,-0.2902561,0.24587102,-0.34292662,0.18580772,0.22819822,0.3065062,0.30032277,0.26659665,0.2755532,-0.28010792,0.38308743,-0.28645262,0.29067278,0.3033603,0.33303633,0.28935415,0.44552392,-0.4203618,-0.39934903,-0.28494227,0.4404478,-0.33178124,-0.432299,0.3335588,0.35925904,-0.32558933,0.28540325,0.23001248,-0.6250762,-0.17488198,0.25465554,-0.3264484,-0.31685236,0.24379648,0.3477112,-0.3064797,0.3258981,0.26591587,0.33480895,-0.19242595,0.40312725,0.4204062,0.21153073,0.5034134,0.39518964,-0.27086857,-0.41262102,0.30210152,0.7436557,-0.45173508,-0.6109308,-0.2597644,-0.3006949,-0.268444,0.3860989,-0.3752505,-0.3240194,0.26324135,0.314831,-0.258507,-0.3844129,0.34002525,-0.32547525,-0.31975895,-0.44149768,-0.27815172,-0.39998245,-0.3113227,-0.34484676,0.28540856,0.3179817,-0.23225991,0.40074763,0.38002813,0.32148814,-0.50552726,0.4395804,0.41978046,0.12587202,-0.24513124,-0.49882546,0.32881597,-0.36463344,0.21863921,0.29305393,0.26434618,-0.2354431,0.2551558,-0.3188166,0.25225702,0.25274986
ENSP00000265023,0.35578665,0.2812973,-0.3914188,0.40381563,0.30275145,-0.28797567,-0.31321394,-0.27744356,-0.43190968,-0.3288726,0.22699502,-0.30021828,0.24422033,0.22098942,0.2844018,0.294768,0.29504386,0.3596444,-0.28210554,0.33446875,-0.24037364,0.28341365,0.311872,0.34159914,0.37646848,0.43277067,-0.4313628,-0.37985045,-0.23000851,0.42409545,-0.32000208,-0.3505058,0.38876578,0.34261265,-0.31095836,0.50572914,0.2672118,-0.44386214,-0.35059634,0.2716694,-0.27639574,-0.27542472,0.30515245,0.2831085,-0.2560597,0.35096145,0.33764696,0.35727516,-0.2262208,0.39262047,0.40865797,0.17029224,0.3834114,0.40617922,-0.33527818,-0.31075945,0.3576654,0.6034062,-0.40837738,-0.55154663,-0.28684878,-0.2358614,-0.29128146,0.289868,-0.3629792,-0.3901807,0.33398306,0.32851234,-0.26823232,-0.31574473,0.34356165,-0.34963438,-0.33771467,-0.32090932,-0.35800815,-0.33466333,-0.2906321,-0.42001435,0.3067246,0.3074411,-0.25974575,0.4336982,0.2767619,0.3907637,-0.47177565,0.36745572,0.43522295,0.31519336,-0.29900092,-0.33661896,0.28827444,-0.37623918,0.30046296,0.26008746,0.31597567,-0.3505408,0.2827928,-0.3969121,0.3655612,0.23627384
ENSP00000219252,0.3133437,0.38470736,-0.3322223,0.39954352,0.2785957,-0.39581758,-0.38059846,-0.30147272,-0.23544991,-0.41992214,0.35513863,-0.35981417,0.40332237,0.28797665,0.34818417,0.30239832,0.43251705,0.31426737,-0.36187756,0.236869,-0.37409312,0.34991172,0.28922898,0.34191987,0.25109914,0.320556,-0.55623364,-0.28989178,-0.33021516,0.28246224,-0.34379902,-0.30715868,0.31181586,0.34785146,-0.35266164,0.3459482,0.2781046,-0.16102673,-0.3161358,0.38935778,-0.23867366,-0.2713475,0.40538993,0.28622252,-0.39036608,0.27140376,0.26516116,0.35396883,-0.38498208,0.34147555,0.32575712,0.40496075,0.27939993,0.3437647,-0.3275569,-0.29972303,0.33212087,0.39299917,-0.37829462,-0.3509985,-0.2638373,-0.34673646,-0.2792058,0.3246208,-0.43150294,-0.287292,0.32417363,0.2908664,-0.38449058,-0.34493527,0.23345976,-0.28183058,-0.38034004,-0.30760387,-0.35335258,-0.2798794,-0.320659,-0.23062219,0.3409631,0.37714446,-0.36299017,0.29326636,0.32313237,0.27541193,-0.2979527,0.24476823,0.21949972,0.3274007,-0.39808133,-0.2247401,0.31060612,-0.30721867,0.39055115,0.30436802,0.2749755,-0.30482665,0.28011957,-0.21473983,0.29871914,0.3976403
ENSP00000294117,0.28431532,0.26957306,-0.4448579,0.29694948,0.27618727,-0.23287942,-0.2704998,-0.3265159,-0.5023383,-0.27327916,0.28541043,-0.3509705,0.24356987,0.32988852,0.38532633,0.38448215,0.24960583,0.32412735,-0.32243428,0.3400558,-0.24997462,0.2919035,0.3058055,0.3091767,0.36972943,0.43232557,-0.50371623,-0.37350968,-0.24670544,0.40898213,-0.2552464,-0.39140332,0.35717708,0.3152844,-0.24491474,0.34237146,0.23169407,-0.62888366,-0.21745043,0.30084062,-0.20147239,-0.2833834,0.28006178,0.3475554,-0.26739338,0.35578343,0.32635787,0.3094045,-0.25433493,0.36875415,0.3718598,0.2743506,0.44349506,0.40860665,-0.3091807,-0.39592773,0.2972608,0.75176626,-0.45462775,-0.6680217,-0.24181555,-0.28841963,-0.2651416,0.3564878,-0.29698354,-0.39428064,0.25562602,0.26467925,-0.28993428,-0.31874624,0.3898237,-0.36851165,-0.30914366,-0.49712834,-0.25544336,-0.35650614,-0.2979691,-0.37013352,0.3602245,0.28656575,-0.38041452,0.35902977,0.3054661,0.30950698,-0.4955252,0.40285432,0.37507156,0.17922996,-0.24377373,-0.5173051,0.26447818,-0.32920057,0.22794071,0.2586938,0.20997383,-0.25327042,0.27610496,-0.40530282,0.31291422,0.25757676
ENSP00000215832,0.41431278,0.27081242,-0.2714301,0.44924507,0.28740424,-0.25153676,-0.43880215,-0.281127,-0.31320885,-0.34591785,0.34394497,-0.46674192,0.29171813,0.36100218,0.30117986,0.37130234,0.39079037,0.3400156,-0.32340112,0.3325218,-0.36646637,0.25245875,0.33094522,0.3053833,0.31275824,0.41555852,-0.39064425,-0.2913336,-0.4232448,0.2949166,-0.3266846,-0.2900411,0.3693353,0.40229988,-0.41349033,0.5028583,0.2739903,-0.24801515,-0.36807677,0.29701692,-0.38481778,-0.42267865,0.27304807,0.28841048,-0.32953963,0.32874918,0.30074477,0.41151637,-0.3890146,0.35985482,0.40842587,0.36495462,0.34655252,0.31442526,-0.3875241,-0.26862338,0.23401389,0.39162707,-0.31864956,-0.2651493,-0.29567012,-0.36507654,-0.5234661,0.31628603,-0.38411042,-0.2810388,0.29416135,0.36431384,-0.33805737,-0.38988593,0.42509308,-0.27697077,-0.29582304,-0.26590022,-0.30510396,-0.302458,-0.28616416,-0.36729375,0.38271967,0.28729105,-0.35736266,0.39156526,0.29954425,0.40818572,-0.30940196,0.25597692,0.29563966,0.40034992,-0.3742601,-0.2850644,0.32820076,-0.34643626,0.42095354,0.32258058,0.29158652,-0.4085775,0.34171176,-0.27500653,0.3348644,0.3990163
ENSP00000360021,0.2960523,0.26197112,-0.38383114,0.22258154,0.31463188,-0.25279224,-0.35159692,-0.29027745,-0.49724892,-0.2937735,0.20261216,-0.40240502,0.24133877,0.27045107,0.29276043,0.36420074,0.27805135,0.2804222,-0.25654054,0.35262272,-0.20544295,0.29285184,0.27169245,0.29936042,0.33889797,0.38502663,-0.5067747,-0.42413133,-0.26181176,0.41600403,-0.31859377,-0.3337292,0.4055814,0.29348022,-0.3110846,0.3016622,0.31156254,-0.580408,-0.2902838,0.32457462,-0.3091083,-0.28982368,0.2992334,0.34048185,-0.27471882,0.29461908,0.28382763,0.33506948,-0.17701353,0.32283208,0.4502267,0.15822017,0.39790297,0.5032926,-0.28188565,-0.33632562,0.33380505,0.69733465,-0.42857566,-0.59707564,-0.20843759,-0.25685292,-0.35297063,0.36330923,-0.4026887,-0.36925372,0.30861565,0.28805006,-0.26014692,-0.27215543,0.27543378,-0.36801335,-0.3916754,-0.42913282,-0.31761804,-0.42139745,-0.34255207,-0.4249785,0.38872734,0.3106856,-0.22687502,0.41638285,0.28427246,0.3489864,-0.48673472,0.46655583,0.40250418,0.18788205,-0.31420362,-0.5205896,0.34510893,-0.41910788,0.29875746,0.28720757,0.27573523,-0.24155135,0.18107142,-0.3776108,0.22274745,0.23381545
ENSP00000415536,0.31170088,0.3398113,-0.32893667,0.30269486,0.34783393,-0.36728266,-0.33283165,-0.32917503,-0.21959525,-0.50562257,0.31203058,-0.38094658,0.3176781,0.32810375,0.31256977,0.31976208,0.46225816,0.285267,-0.3515635,0.20225224,-0.38773283,0.26558015,0.33249563,0.36170694,0.34486997,0.41351402,-0.50002116,-0.33290097,-0.34759045,0.30449557,-0.34478855,-0.25947878,0.31835362,0.32337007,-0.3147122,0.33884457,0.33000544,-0.24844046,-0.33189347,0.31124985,-0.29905894,-0.27762687,0.3760534,0.25105956,-0.36323193,0.35634515,0.2849745,0.40647763,-0.4140373,0.26599756,0.32115102,0.33758834,0.3338127,0.34617117,-0.37557748,-0.34457296,0.2565668,0.36301613,-0.30719668,-0.2914838,-0.33458304,-0.3985594,-0.34869233,0.2874837,-0.48613945,-0.24796376,0.32923427,0.31833372,-0.43381682,-0.2931673,0.27924773,-0.35323533,-0.37687862,-0.2960872,-0.4098278,-0.22449403,-0.2808664,-0.24634531,0.27251464,0.33506316,-0.35335833,0.23417424,0.3252056,0.28796756,-0.26552388,0.28248382,0.29807675,0.336201,-0.27929792,-0.28095862,0.37931994,-0.35297763,0.32905778,0.24669896,0.2719783,-0.2628594,0.3746336,-0.30772328,0.37389758,0.39179036
ENSP00000324124,0.3314037,0.35834628,-0.26977375,0.35448107,0.36614683,-0.42834744,-0.3255603,-0.2489096,-0.22191928,-0.48411536,0.4008572,-0.4137436,0.44374615,0.36757123,0.3603668,0.31427836,0.4236522,0.3078971,-0.27834985,0.24825028,-0.3489605,0.25998494,0.2946917,0.35033417,0.27837205,0.3614091,-0.51366204,-0.307886,-0.41926694,0.27932757,-0.37988204,-0.2215151,0.3577018,0.33613968,-0.3246165,0.3663433,0.31426716,-0.17329155,-0.32541612,0.34897822,-0.1953267,-0.30427462,0.34734237,0.2795679,-0.4212193,0.35610884,0.29080424,0.40083492,-0.3568196,0.3032554,0.26809624,0.3129545,0.34210515,0.38879836,-0.26593414,-0.30446953,0.34176818,0.36129633,-0.3885093,-0.23127568,-0.31714943,-0.28999034,-0.33256248,0.31362987,-0.40875986,-0.19037533,0.36195454,0.32883444,-0.4454215,-0.3484324,0.29996413,-0.30710718,-0.41702828,-0.23734939,-0.29367006,-0.2240083,-0.32875055,-0.31630898,0.32897657,0.3896305,-0.43379053,0.27944875,0.36827555,0.3279945,-0.2951677,0.23211835,0.16821285,0.39761013,-0.37277958,-0.19853097,0.35702977,-0.38717908,0.3715843,0.3384305,0.3057995,-0.32887894,0.34032753,-0.29014882,0.29288334,0.31867996
ENSP00000426022,0.31860638,0.25801083,-0.46205097,0.18159285,0.19605637,-0.17430374,-0.31712332,-0.24471165,-0.46820712,-0.2363994,0.2194281,-0.31027326,0.111346446,0.31948906,0.36010155,0.27120927,0.3147146,0.38960186,-0.349747,0.36345175,-0.21644197,0.32473788,0.32057327,0.36096802,0.27745423,0.40684447,-0.6061713,-0.41323844,-0.28593367,0.48474392,-0.22218154,-0.42805648,0.45326436,0.28753877,-0.28435495,0.29350773,0.31396344,-0.56326336,-0.21737216,0.22787839,-0.277879,-0.23193984,0.2228781,0.34150165,-0.21423347,0.4138273,0.2715574,0.26202008,-0.21705604,0.3168957,0.41728368,0.18737413,0.41886973,0.3762697,-0.31425643,-0.35628393,0.3417675,0.6731897,-0.5252545,-0.65194243,-0.23646481,-0.3440233,-0.2813478,0.4044421,-0.28510094,-0.3089002,0.22240178,0.3432603,-0.31994987,-0.31896916,0.35613564,-0.44267038,-0.377998,-0.4382841,-0.3033573,-0.38606662,-0.33568022,-0.42832336,0.29397336,0.21987674,-0.35275507,0.40278423,0.33554357,0.2652701,-0.47548857,0.44808683,0.44445074,0.15557325,-0.2073357,-0.43794987,0.24470685,-0.43067753,0.18177971,0.25717738,0.22622122,-0.33370435,0.27288532,-0.27253586,0.36195442,0.30716127
ENSP00000370625,0.30040392,0.3345222,-0.24810173,0.25238493,0.34409478,-0.3509044,-0.3048099,-0.3063077,-0.24131872,-0.49411845,0.3407194,-0.38098356,0.3405487,0.3948067,0.36461923,0.26998967,0.4476279,0.26710495,-0.28299084,0.279499,-0.38444054,0.2877184,0.34216404,0.3739085,0.3293425,0.38877413,-0.4932225,-0.24824686,-0.37120882,0.27467328,-0.41933706,-0.2463488,0.3593268,0.27612004,-0.32476994,0.21331084,0.3797116,-0.23919909,-0.36601126,0.353903,-0.20018588,-0.2946642,0.39486548,0.32271758,-0.37822306,0.24909602,0.2483991,0.35242382,-0.49492037,0.3495293,0.3344345,0.41123304,0.25165567,0.36647308,-0.3432033,-0.35951892,0.31254408,0.41295174,-0.2446685,-0.2403181,-0.25874257,-0.32187548,-0.27015895,0.26189744,-0.40734044,-0.31845042,0.3709669,0.35332444,-0.5078387,-0.35208833,0.31690243,-0.2229536,-0.3965764,-0.33490235,-0.36947754,-0.29324073,-0.35339716,-0.3004889,0.2785878,0.34101045,-0.45240915,0.27296436,0.34429318,0.30209744,-0.3704161,0.2915662,0.27535015,0.39709073,-0.30036715,-0.2573615,0.31991255,-0.26144376,0.35253337,0.3057972,0.35359943,-0.35653317,0.3199932,-0.2922408,0.38105506,0.3315683
ENSP00000275493,0.2640158,0.37000108,-0.3774603,0.37002218,0.363536,-0.40427488,-0.29466227,-0.3082685,-0.3498029,-0.2198148,0.33687547,-0.29141864,0.27435866,0.32464996,0.3370917,0.30063435,0.40008134,0.3442808,-0.40247214,0.4276906,-0.32766744,0.36805466,0.3591065,0.2361888,0.26373893,0.46662903,-0.3533071,-0.2897853,-0.29639003,0.32493868,-0.3031066,-0.25909746,0.40293413,0.36867234,-0.22957906,0.32405335,0.31802037,-0.27887633,-0.33630767,0.30195472,-0.35163593,-0.39232522,0.2920425,0.24482335,-0.33501837,0.30639058,0.29447758,0.34893286,-0.39061886,0.42547974,0.39445785,0.31887206,0.36672953,0.4288117,-0.29776502,-0.25521886,0.35191718,0.24613881,-0.43989077,-0.25389162,-0.33586589,-0.26455796,-0.45001796,0.3146373,-0.28955993,-0.38039842,0.2869709,0.4345937,-0.2545804,-0.34234297,0.4396185,-0.38585335,-0.28085685,-0.20269519,-0.30716556,-0.33061263,-0.294784,-0.3390705,0.39755028,0.33357644,-0.30455303,0.32147488,0.35325253,0.31676647,-0.43899828,0.23221007,0.29712892,0.39615327,-0.34525824,-0.31914392,0.3478603,-0.4406202,0.336729,0.30005625,0.3232329,-0.34945607,0.23088558,-0.3469595,0.45200208,0.46446955
ENSP00000375727,0.35730135,0.32977378,-0.4215426,0.23716171,0.27881354,-0.32571423,-0.37533987,-0.30996352,-0.41423714,-0.3243033,0.2495725,-0.38637638,0.2130286,0.29003707,0.3821066,0.39126408,0.30849078,0.311174,-0.31832796,0.3662038,-0.26964927,0.2969741,0.27029535,0.31238565,0.28876972,0.39954117,-0.537289,-0.30847389,-0.31197557,0.4519394,-0.30911347,-0.38979584,0.42315316,0.29334608,-0.3097672,0.32020485,0.27340913,-0.5916029,-0.26901817,0.336031,-0.30076718,-0.27639005,0.27780846,0.2931084,-0.26681915,0.3921641,0.27601105,0.2767941,-0.22857353,0.3927447,0.36233005,0.2057341,0.4585713,0.37080953,-0.3118415,-0.34494478,0.30372205,0.69094735,-0.48367608,-0.633875,-0.2646343,-0.282277,-0.29476807,0.3292798,-0.32807082,-0.37390214,0.28151807,0.3713195,-0.23733476,-0.31669816,0.3485485,-0.43775743,-0.27494165,-0.3548023,-0.34876472,-0.36972076,-0.330134,-0.4027051,0.33523178,0.2865176,-0.29145157,0.35622004,0.3047865,0.29948026,-0.4658944,0.42399594,0.36699533,0.26885197,-0.2984586,-0.45090678,0.2889112,-0.43198556,0.29400575,0.30794668,0.22453254,-0.27881444,0.25025493,-0.36281273,0.2959972,0.21516562
ENSP00000380432,0.32897335,0.4074385,-0.3490581,0.32822046,0.3268083,-0.4264395,-0.3015876,-0.36046618,-0.31195354,-0.31263083,0.3816994,-0.38775322,0.30888933,0.33103472,0.3923972,0.30191082,0.27905574,0.37279746,-0.29467395,0.43223658,-0.3594475,0.37220463,0.24554841,0.343718,0.3362091,0.34429222,-0.14238586,-0.2549026,-0.32819933,0.37052214,-0.30909783,-0.3212029,0.31848708,0.4199105,-0.28803858,0.34538502,0.35584313,-0.13476627,-0.3202389,0.39101398,-0.30793914,-0.37662065,0.35662588,0.34900352,-0.37941816,0.35731128,0.33246967,0.24650937,-0.2805388,0.43036398,0.36387774,0.37699878,0.3322083,0.32285926,-0.28285787,-0.23871179,0.39407057,0.35714006,-0.3294195,-0.0869146,-0.3083087,-0.41952708,-0.3433796,0.30844375,-0.32115683,-0.21624163,0.35165027,0.35208708,-0.3612312,-0.28044415,0.44631168,-0.27436972,-0.29794538,-0.3086154,-0.34470817,-0.36719278,-0.35421652,-0.3248957,0.31572115,0.46579692,-0.31458127,0.39784062,0.2963845,0.31997764,-0.32655194,0.2649487,0.31556028,0.36357754,-0.37946674,-0.38084057,0.37637636,-0.32798105,0.33738157,0.2823438,0.29846877,-0.38862255,0.3075296,-0.34382278,0.4091189,0.2508852
ENSP00000348838,0.3153121,0.36122087,-0.34354165,0.34956622,0.37031412,-0.3785274,-0.47046092,-0.27631634,-0.3487416,-0.31132713,0.26666716,-0.46742368,0.4240794,0.244449,0.2556519,0.31859007,0.38453758,0.2876315,-0.39278877,0.34616566,-0.30162528,0.3738529,0.27116153,0.38015372,0.30525064,0.28716016,-0.39551514,-0.34947875,-0.33186162,0.27780578,-0.36999527,-0.32130438,0.39227903,0.36748564,-0.29931214,0.50263745,0.35221386,-0.33129305,-0.35507455,0.2675091,-0.27178437,-0.3219335,0.4211422,0.40891898,-0.30322307,0.37256396,0.42103538,0.32347828,-0.35682583,0.31475982,0.32510933,0.34631386,0.30043665,0.3746827,-0.27816886,-0.27639106,0.3595551,0.3057449,-0.37877652,-0.21607134,-0.35101715,-0.19491395,-0.30123538,0.37537923,-0.39706212,-0.28439805,0.29403186,0.2826132,-0.33627614,-0.35665804,0.32724422,-0.29596692,-0.32288402,-0.3265248,-0.22825967,-0.32831052,-0.30443138,-0.32359862,0.3830618,0.31306675,-0.3433466,0.3163166,0.3305005,0.24048428,-0.33404374,0.23940253,0.22001833,0.46858978,-0.25548044,-0.32408255,0.3718044,-0.35072675,0.32103127,0.28796527,0.35368893,-0.28167808,0.38836032,-0.30766213,0.42913574,0.43600154
ENSP00000300873,0.3141459,0.2566352,-0.4369556,0.35147187,0.33038142,-0.29265857,-0.318071,-0.2531154,-0.39949766,-0.263943,0.28903466,-0.32494444,0.19622438,0.27608442,0.286034,0.31277457,0.26024765,0.36232868,-0.29137972,0.3487061,-0.2848945,0.3112058,0.3442635,0.3464324,0.36009043,0.4192589,-0.40424612,-0.3048373,-0.3185532,0.36025983,-0.28594577,-0.37010744,0.36627656,0.29521954,-0.28177333,0.3308686,0.22800492,-0.5999293,-0.26172104,0.3456717,-0.2853291,-0.3283381,0.29192325,0.26317844,-0.25996917,0.3726049,0.3117833,0.35524955,-0.26196066,0.3356298,0.33561903,0.19405471,0.42995903,0.4021051,-0.30594215,-0.38112712,0.32912585,0.5961357,-0.4521112,-0.5883997,-0.27719933,-0.25266635,-0.29431456,0.36912647,-0.32740304,-0.28331318,0.36396265,0.33756772,-0.29531553,-0.31713146,0.36058137,-0.3899293,-0.30920267,-0.36743194,-0.28114903,-0.34043512,-0.277595,-0.36488628,0.34289342,0.30934343,-0.28651002,0.34256998,0.31211686,0.33709094,-0.39671853,0.47753492,0.33250746,0.24820206,-0.29065225,-0.38840675,0.36274147,-0.38213867,0.26032805,0.27887815,0.2633317,-0.3344146,0.31644353,-0.3163428,0.27451652,0.20100878
ENSP00000263967,0.3444616,0.38480428,-0.33443558,0.328841,0.24493636,-0.25981453,-0.39365372,-0.3951616,-0.41800645,-0.3103681,0.22831649,-0.32050905,0.22036773,0.31269777,0.37374863,0.32634917,0.32652315,0.40010884,-0.36439246,0.41047886,-0.26816615,0.2852829,0.38313237,0.3910196,0.27545345,0.32931483,-0.26806027,-0.37667063,-0.37036467,0.4010311,-0.30783188,-0.32588312,0.36563104,0.3844058,-0.32912078,0.43792012,0.33090743,-0.4502385,-0.28839874,0.28306004,-0.3847808,-0.33830005,0.280598,0.35175744,-0.30620268,0.3407687,0.37702224,0.35460916,-0.28521526,0.37349287,0.3122552,0.27531436,0.4234039,0.32956508,-0.26037538,-0.2903992,0.33331668,0.35709098,-0.41785076,-0.33576882,-0.3231219,-0.399631,-0.36881116,0.36857262,-0.2993338,-0.37081856,0.3386578,0.31615832,-0.22385421,-0.29017898,0.35308757,-0.33421043,-0.3277488,-0.34096467,-0.34787026,-0.39906308,-0.36363524,-0.31814617,0.3810228,0.38640925,-0.30817893,0.33376077,0.3273025,0.30495143,-0.37236416,0.34498152,0.36810017,0.34845373,-0.30283052,-0.38882998,0.317729,-0.30311596,0.3236457,0.29841298,0.30521646,-0.3560443,0.29462427,-0.35004428,0.3180404,0.18354101
ENSP00000363411,0.36698082,0.3287915,-0.44025514,0.31350884,0.30601093,-0.27632138,-0.25313845,-0.3572871,-0.5038729,-0.25958496,0.24791528,-0.3956511,0.30089906,0.25241145,0.38993418,0.32312155,0.27038795,0.32806697,-0.2910047,0.29099077,-0.23471855,0.26757944,0.31408858,0.34494445,0.39515662,0.39347947,-0.39670354,-0.3916468,-0.27538082,0.38623247,-0.25590476,-0.33499652,0.37604418,0.32431844,-0.30203894,0.30160725,0.23630631,-0.5335042,-0.2041597,0.32036895,-0.29956892,-0.31310079,0.32965502,0.37009236,-0.21092871,0.37155586,0.2591008,0.30596146,-0.20831901,0.3807683,0.39031106,0.24376848,0.46256885,0.37664613,-0.33756584,-0.40416557,0.35327438,0.5518581,-0.42414463,-0.5339176,-0.25928053,-0.34334353,-0.34914395,0.3435201,-0.33268213,-0.33568856,0.34615213,0.3246568,-0.23739573,-0.32274684,0.3133648,-0.432813,-0.35005152,-0.37963006,-0.2914863,-0.44094723,-0.27107647,-0.3645835,0.3737539,0.26734686,-0.28121635,0.42618513,0.32844496,0.35064617,-0.44107586,0.43316567,0.35512745,0.26470608,-0.35407433,-0.4806875,0.3268446,-0.3408486,0.25924724,0.32144997,0.271298,-0.31716597,0.27126262,-0.26691073,0.35687092,0.21038342
ENSP00000229264,0.27428406,0.32341987,-0.3537155,0.3390278,0.29079786,-0.38075706,-0.3558212,-0.2611789,-0.3784331,-0.3068876,0.21808408,-0.3645862,0.294557,0.3020872,0.3324885,0.28656587,0.27558064,0.2971475,-0.33728647,0.28498307,-0.27443817,0.35349974,0.29283857,0.3793504,0.34728247,0.34884033,-0.42473266,-0.3617466,-0.30130962,0.38632077,-0.25148907,-0.31582722,0.3424097,0.30917042,-0.32176167,0.34516785,0.28990433,-0.5000308,-0.30498573,0.33420533,-0.30513346,-0.2797289,0.31623778,0.3477141,-0.2454015,0.3273542,0.22465377,0.29253614,-0.26549035,0.38119805,0.3644645,0.297121,0.3486102,0.38360295,-0.33361197,-0.41241077,0.28003573,0.48851138,-0.47826734,-0.46273142,-0.29437232,-0.26188973,-0.31171367,0.36711875,-0.34089068,-0.27761486,0.2822715,0.32751828,-0.27716494,-0.3679141,0.29259384,-0.37821215,-0.3493208,-0.3239241,-0.31987756,-0.31096423,-0.2913724,-0.43303466,0.36118534,0.35659337,-0.37734008,0.33828005,0.33493543,0.31013304,-0.44033358,0.42114884,0.40481955,0.2873839,-0.30924162,-0.38847142,0.3211695,-0.38908136,0.30091769,0.25770485,0.25657865,-0.26576477,0.3321161,-0.33468702,0.28848433,0.3482274
ENSP00000301788,0.2793933,0.389096,-0.23364487,0.2991664,0.3120568,-0.37116522,-0.34005588,-0.31416324,-0.22657877,-0.5787396,0.44697744,-0.41099015,0.40464061,0.33482182,0.29353434,0.30097923,0.44586816,0.33446977,-0.30790687,0.3018563,-0.34808186,0.3223196,0.32608214,0.34387824,0.319902,0.31342736,-0.5547902,-0.22245494,-0.37777612,0.31027696,-0.41749063,-0.26828042,0.24961467,0.31364873,-0.3430734,0.28041172,0.36219108,-0.16011569,-0.3469815,0.36390346,-0.1990582,-0.273759,0.38480318,0.31350008,-0.38194206,0.3006392,0.23383287,0.34709606,-0.49287057,0.36913893,0.3479908,0.38427958,0.272093,0.39228165,-0.32698816,-0.29634306,0.28821394,0.38621962,-0.32098868,-0.27406955,-0.39582285,-0.33109942,-0.26297346,0.369799,-0.42797196,-0.2927918,0.32382703,0.2869412,-0.48102894,-0.2839895,0.28742212,-0.2616201,-0.38424057,-0.33972222,-0.42700925,-0.31450465,-0.3514349,-0.21976934,0.2636961,0.32701886,-0.42596272,0.29192656,0.32859582,0.29097658,-0.2785618,0.2875972,0.18447812,0.310391,-0.34189418,-0.19038105,0.24820593,-0.362379,0.37848052,0.26794207,0.35444352,-0.32626766,0.27531445,-0.2569898,0.25735945,0.42110863
ENSP00000428056,0.34035465,0.29445475,-0.3782685,0.45083463,0.33509353,-0.30936784,-0.35149917,-0.42803267,-0.28636137,-0.266966,0.27648342,-0.38032666,0.2548033,0.2489204,0.34130564,0.3248724,0.34658715,0.3486132,-0.27732366,0.38271683,-0.3230926,0.30929953,0.37844583,0.40595028,0.3520256,0.30916286,-0.35485235,-0.37318382,-0.288185,0.36433548,-0.30709347,-0.29771528,0.3890448,0.3893495,-0.2681092,0.40122896,0.31683946,-0.4188952,-0.26111093,0.29458168,-0.27011544,-0.34561005,0.24171385,0.34106958,-0.34108353,0.30837622,0.23496662,0.27588174,-0.32263562,0.38050583,0.34189075,0.2650988,0.4236011,0.43954653,-0.339469,-0.33347654,0.30401328,0.46391076,-0.41333956,-0.4014628,-0.2575956,-0.29456118,-0.39671513,0.27444652,-0.28151706,-0.36924472,0.31696773,0.3750938,-0.35031375,-0.31991932,0.3377975,-0.36954457,-0.31443408,-0.25603896,-0.36076158,-0.29746586,-0.27454522,-0.29995155,0.4388625,0.3183905,-0.35418355,0.30887604,0.30429423,0.33915314,-0.40203363,0.30010253,0.37772176,0.32646728,-0.30714226,-0.34101096,0.37938842,-0.38333303,0.33067238,0.29294696,0.2905122,-0.27200627,0.30994928,-0.40070927,0.40889937,0.37511197
ENSP00000400175,0.40464127,0.3551536,-0.355082,0.33961165,0.38013276,-0.27485985,-0.31377694,-0.42379713,-0.27446815,-0.32195,0.32504612,-0.4614271,0.2368832,0.2805613,0.35722625,0.38025016,0.4290473,0.40006152,-0.43651202,0.4159856,-0.27671573,0.24805693,0.3311404,0.2692935,0.28634533,0.4353299,-0.36506993,-0.36052382,-0.25865892,0.3544884,-0.34152564,-0.24505386,0.3908849,0.41938156,-0.3325101,0.46508867,0.26290098,-0.33932453,-0.3836741,0.26220173,-0.38035095,-0.25310245,0.277473,0.26594606,-0.36523062,0.35601842,0.3467475,0.3125648,-0.26038593,0.29576266,0.3476095,0.3064632,0.34886113,0.29055747,-0.31286618,-0.35636657,0.36478764,0.30545205,-0.40476045,-0.30579787,-0.33333102,-0.313209,-0.3703397,0.4075605,-0.32516402,-0.36557165,0.35384837,0.40885186,-0.37843174,-0.25196385,0.36199898,-0.29192033,-0.34494784,-0.29066256,-0.37816668,-0.22567822,-0.34988195,-0.44152832,0.42171717,0.43101308,-0.36600778,0.304485,0.2196731,0.3561923,-0.40510276,0.2296222,0.32958093,0.25971445,-0.33616403,-0.2990586,0.31024602,-0.29713383,0.33867604,0.2980437,0.37198135,-0.27240774,0.38353136,-0.3782226,0.30049413,0.4284703
ENSP00000342889,0.35839283,0.31154025,-0.3380293,0.43877757,0.31776702,-0.3288187,-0.33798477,-0.2580857,-0.2716087,-0.5611645,0.34175617,-0.35322756,0.31390163,0.32383168,0.28639048,0.31656507,0.4555202,0.2748363,-0.32802835,0.27773586,-0.33101368,0.31517795,0.3682,0.33123207,0.23889135,0.34812236,-0.51673025,-0.3060239,-0.3553904,0.30323377,-0.3150715,-0.27706733,0.33966026,0.26490465,-0.28805318,0.23548193,0.3370932,-0.22137263,-0.27256605,0.33910626,-0.2349246,-0.28294623,0.43360493,0.26506644,-0.34771502,0.20609152,0.28746477,0.36522135,-0.34125456,0.32307646,0.30787718,0.35982123,0.28926155,0.3580797,-0.32081774,-0.36486384,0.32446244,0.37070906,-0.32116833,-0.32869768,-0.3507991,-0.36286646,-0.31819695,0.2893829,-0.38685724,-0.29404378,0.30091476,0.34023404,-0.44697914,-0.3013047,0.31829768,-0.30586088,-0.31012073,-0.3453873,-0.35971937,-0.33222803,-0.33548912,-0.3248282,0.29440254,0.42474028,-0.42748123,0.30764106,0.27478746,0.27635014,-0.36719534,0.31742638,0.1935084,0.3594865,-0.3237718,-0.33151704,0.2640263,-0.28241423,0.3891634,0.31569102,0.3894571,-0.31201217,0.30176437,-0.25104555,0.35585383,0.3992536
ENSP00000348461,0.35990357,0.27377573,-0.28173554,0.47811297,0.41671574,-0.34809202,-0.28139326,-0.30505162,-0.31352493,-0.28412002,0.29332197,-0.4247413,0.28768158,0.2321284,0.27450228,0.28746688,0.3269511,0.35492262,-0.33161932,0.4205229,-0.3406085,0.2497696,0.35055146,0.34167284,0.30587143,0.34285775,-0.40173352,-0.2547664,-0.32502794,0.39664215,-0.2738388,-0.27634975,0.36271423,0.34229746,-0.3215643,0.4815364,0.3181171,-0.28134793,-0.26513568,0.3133268,-0.3936736,-0.2548589,0.29702947,0.30547905,-0.2847478,0.43419355,0.33672953,0.30772308,-0.27617797,0.33821744,0.34284812,0.36858124,0.37385955,0.36890915,-0.3204628,-0.32599503,0.32475606,0.32701507,-0.47201496,-0.37268236,-0.299472,-0.2902682,-0.3902623,0.4128865,-0.37392703,-0.32155636,0.34705585,0.28410226,-0.31211627,-0.28156248,0.32685146,-0.26548842,-0.2592697,-0.18074788,-0.339427,-0.27887207,-0.34157282,-0.36565688,0.4845693,0.38228992,-0.4618448,0.37115413,0.34554294,0.3134742,-0.3323426,0.3083616,0.36653623,0.37867573,-0.3246115,-0.38423848,0.31057358,-0.33898503,0.34690496,0.2395805,0.3925044,-0.3105583,0.32887107,-0.39370793,0.41036582,0.56695133
ENSP00000371594,0.37133223,0.34101704,-0.36472753,0.2835218,0.2248843,-0.3249385,-0.3162949,-0.2910573,-0.42587715,-0.3201645,0.23107293,-0.3575502,0.25157416,0.3524774,0.34373653,0.37805638,0.2702398,0.41593096,-0.30607936,0.29953128,-0.3170231,0.3082685,0.26302317,0.3320525,0.305027,0.37399748,-0.4311411,-0.31933093,-0.29992327,0.39018252,-0.2823565,-0.38708735,0.41670933,0.29518977,-0.35710362,0.3071965,0.23760805,-0.5692469,-0.24767533,0.27072787,-0.24308039,-0.33215252,0.20538497,0.28336743,-0.31520805,0.32933465,0.25544897,0.37317938,-0.26683703,0.28979734,0.33671904,0.18342862,0.46003366,0.34912118,-0.32056868,-0.39402187,0.29952475,0.6112523,-0.42287546,-0.60463387,-0.25306126,-0.28160724,-0.38359413,0.36190838,-0.31182358,-0.36932254,0.35357064,0.30057052,-0.22984344,-0.3457086,0.3437447,-0.34098777,-0.33741015,-0.44686693,-0.30488327,-0.37695494,-0.3539855,-0.35514694,0.3359735,0.29598966,-0.31105983,0.39908886,0.34972364,0.33125213,-0.40033647,0.47505242,0.37360278,0.25269175,-0.30778524,-0.43625438,0.3035164,-0.4089203,0.22831413,0.28153795,0.22754432,-0.27352747,0.25051686,-0.33422968,0.27407622,0.21161383
ENSP00000335153,0.29419735,0.31180778,-0.23999348,0.45366845,0.3808847,-0.3498787,-0.24549311,-0.35003433,-0.29464558,-0.39488807,0.3889598,-0.34342507,0.2720711,0.37967,0.3783329,0.37516043,0.42275155,0.37137035,-0.41530785,0.3621684,-0.35994595,0.3535068,0.32338443,0.33056456,0.3303312,0.37664837,-0.39961404,-0.37128782,-0.39896977,0.3194528,-0.42065302,-0.2907791,0.3085071,0.33163756,-0.33626097,0.26192355,0.32260865,-0.29397255,-0.3399886,0.38640416,-0.36963874,-0.3077326,0.35160065,0.30768648,-0.4376631,0.23471683,0.3132466,0.30376384,-0.3119973,0.3525732,0.38447142,0.35097343,0.36107257,0.31492293,-0.34942678,-0.29294345,0.2577179,0.2954868,-0.25526664,-0.20205943,-0.29753253,-0.37089065,-0.35929146,0.29517952,-0.3735129,-0.36660564,0.35742584,0.39142653,-0.29427892,-0.36602706,0.40961498,-0.28584486,-0.32025495,-0.3288081,-0.31767324,-0.27334952,-0.3362609,-0.3166904,0.40319964,0.36730587,-0.37144437,0.25088546,0.3735815,0.33452296,-0.36318544,0.23668545,0.24557006,0.31786802,-0.3224088,-0.3246107,0.2994479,-0.29436827,0.35318673,0.31738907,0.34270275,-0.36916453,0.29230773,-0.3158614,0.33126807,0.3472943
ENSP00000362680,0.33453315,0.34475815,-0.38465038,0.3734221,0.3528076,-0.36089957,-0.32101032,-0.34738946,-0.26131207,-0.29828063,0.36935815,-0.31002095,0.3204352,0.34959695,0.4031007,0.2678079,0.28433326,0.35964194,-0.30945137,0.37426838,-0.33914647,0.28705087,0.36283234,0.33094183,0.35040563,0.29866335,-0.36183214,-0.3716817,-0.27830297,0.32064483,-0.30930012,-0.32276115,0.33498007,0.36121532,-0.3700556,0.34622997,0.26780692,-0.25778702,-0.35773307,0.25122774,-0.294044,-0.37145576,0.26029795,0.27930823,-0.3764152,0.3446276,0.36365306,0.36938924,-0.4175816,0.3281573,0.3423507,0.27988896,0.36876097,0.33880568,-0.29249778,-0.2245585,0.29370865,0.29824984,-0.4097,-0.2668832,-0.34440526,-0.28067228,-0.38134748,0.27211025,-0.27106866,-0.33210555,0.3633318,0.30387375,-0.3017319,-0.3021731,0.34087867,-0.25538194,-0.2887793,-0.3003745,-0.33300847,-0.2616957,-0.30650324,-0.29436547,0.40682393,0.3345406,-0.38770044,0.40306512,0.28025612,0.33088282,-0.35326007,0.26835075,0.37867334,0.44756207,-0.35200265,-0.35525736,0.32211044,-0.36140516,0.32303923,0.3330873,0.33539444,-0.38162735,0.36381108,-0.33883625,0.33200824,0.44017914
ENSP00000359675,0.2867661,0.32746962,-0.4933213,0.30154753,0.32609764,-0.32291293,-0.24084659,-0.3389087,-0.41506135,-0.26572928,0.28429332,-0.32372352,0.18845305,0.34158692,0.40726703,0.37320167,0.2674618,0.3529799,-0.2336848,0.35417098,-0.17865108,0.22878921,0.30419382,0.3353278,0.35296088,0.37266645,-0.5399085,-0.32253838,-0.23445962,0.4221334,-0.2604249,-0.3883381,0.43539023,0.2807076,-0.28835505,0.30340192,0.21796772,-0.5415427,-0.24343774,0.3247351,-0.3698814,-0.31907123,0.30423883,0.3417895,-0.26831815,0.30309808,0.22002085,0.2913507,-0.21017717,0.38187608,0.30276287,0.24035516,0.52668816,0.44755217,-0.27291423,-0.32660216,0.30531898,0.7014468,-0.44988555,-0.5522688,-0.26202598,-0.29194686,-0.36089647,0.34749964,-0.2878889,-0.38895193,0.20844665,0.26318887,-0.3092806,-0.35061538,0.34865096,-0.35511178,-0.34451863,-0.36801744,-0.36484468,-0.41348577,-0.31007305,-0.3542653,0.42966148,0.27090573,-0.22344251,0.4125583,0.34769523,0.3222034,-0.5278256,0.37284872,0.38650286,0.2750878,-0.24985628,-0.45016766,0.26366535,-0.39159685,0.29873642,0.30005014,0.2518675,-0.2957202,0.28042185,-0.31763273,0.25984323,0.26885363
ENSP00000261837,0.35148057,0.3032252,-0.4604421,0.19944912,0.29498416,-0.29662445,-0.28239727,-0.2556534,-0.48341763,-0.25675458,0.30843595,-0.35312667,0.25682595,0.3008275,0.39168066,0.37013742,0.34742796,0.3133241,-0.2622295,0.38632238,-0.25599506,0.3430595,0.3028247,0.38993242,0.3624117,0.3804822,-0.48192227,-0.34839627,-0.2903075,0.43510908,-0.285829,-0.3500993,0.38682047,0.34033933,-0.30904454,0.31458825,0.24831177,-0.5154275,-0.28563806,0.26244277,-0.34207264,-0.31338024,0.3047935,0.27920955,-0.21786806,0.36017883,0.2603066,0.26840964,-0.23653105,0.39992535,0.33067,0.21100056,0.40644205,0.39949086,-0.3629888,-0.3589712,0.27769065,0.5518056,-0.42491078,-0.5677325,-0.26689652,-0.2998607,-0.3343236,0.3528832,-0.34796438,-0.34761852,0.29970834,0.29196155,-0.23658687,-0.3421015,0.35049593,-0.2961263,-0.29616022,-0.37965453,-0.3458529,-0.38659853,-0.28114256,-0.38121113,0.37398365,0.32435262,-0.32865632,0.32846653,0.37232962,0.329218,-0.4715684,0.34831926,0.3784546,0.23785819,-0.29511708,-0.41586155,0.25193995,-0.3998602,0.28343418,0.32443118,0.23651771,-0.2714507,0.2684764,-0.33940777,0.36931276,0.2320222
ENSP00000232564,0.36589634,0.3190723,-0.31890154,0.31368473,0.3087352,-0.35089096,-0.30575034,-0.31450406,-0.37240908,-0.2827867,0.21955499,-0.3473234,0.21261723,0.27184108,0.3333103,0.31574866,0.29219624,0.3489374,-0.31363198,0.3687862,-0.26018813,0.2958215,0.34194168,0.33760563,0.28149047,0.38678354,-0.40745476,-0.34615877,-0.28145796,0.3591952,-0.25134486,-0.4046102,0.40630963,0.25670132,-0.27629542,0.34120366,0.31541032,-0.63135684,-0.2520192,0.3136926,-0.26322454,-0.33174786,0.27623808,0.2794446,-0.22143637,0.3618341,0.24219458,0.3008838,-0.23142374,0.29577583,0.3558146,0.2759386,0.3433269,0.3670474,-0.33438805,-0.40556306,0.32979128,0.5948294,-0.4058243,-0.64470035,-0.23820774,-0.28393245,-0.37331054,0.41478455,-0.40188372,-0.33091685,0.31844,0.3486654,-0.2679717,-0.3361013,0.28938183,-0.2877025,-0.30711666,-0.42954057,-0.34569657,-0.34628943,-0.35239345,-0.33885682,0.31407028,0.31144613,-0.33170816,0.34503603,0.35625768,0.32205093,-0.4453287,0.48998424,0.35461682,0.23891886,-0.2552992,-0.46073478,0.36794454,-0.37952664,0.23363145,0.3131837,0.2222168,-0.2589114,0.27983055,-0.42999056,0.32255572,0.29270616
ENSP00000364289,0.25402167,0.3813791,-0.2360351,0.38948274,0.2985359,-0.41372344,-0.41167572,-0.255438,-0.27559268,-0.49496517,0.37287393,-0.39368144,0.41365832,0.33000234,0.34389302,0.3275402,0.39788264,0.31431794,-0.28803453,0.21734136,-0.34678116,0.30602413,0.36928952,0.34565398,0.27796862,0.38152358,-0.5490529,-0.2765092,-0.35120752,0.33709908,-0.4079148,-0.2464567,0.34022748,0.33014932,-0.32052228,0.2944956,0.3686505,-0.1878558,-0.2926311,0.3307956,-0.25888237,-0.28475156,0.33437553,0.30340898,-0.37214738,0.28846863,0.24969661,0.33986112,-0.41114613,0.3858577,0.3768201,0.39516866,0.3591274,0.46347013,-0.2896845,-0.28161484,0.3035357,0.31847337,-0.2736488,-0.35782456,-0.28364715,-0.32251713,-0.2890169,0.33920106,-0.42728195,-0.31583682,0.38608056,0.31882894,-0.38357598,-0.36217868,0.3053827,-0.2915005,-0.43897268,-0.30653313,-0.3482788,-0.27548996,-0.28260347,-0.2538378,0.31616345,0.31602126,-0.4519695,0.27320948,0.33337402,0.2819458,-0.28715807,0.256092,0.33988973,0.2942825,-0.34641135,-0.33253112,0.34962854,-0.3202334,0.3743837,0.27773693,0.29118448,-0.3967938,0.28676927,-0.2017252,0.39485765,0.44041267
ENSP00000272645,0.31014717,0.32567438,-0.22982897,0.338642,0.2859013,-0.3880069,-0.40235847,-0.32765454,-0.22472271,-0.5032014,0.46407008,-0.36052075,0.49606714,0.36957827,0.35747334,0.33214247,0.35781765,0.33229503,-0.28796306,0.21992628,-0.354151,0.35445127,0.2570384,0.34678006,0.3016891,0.3864055,-0.51875675,-0.23671208,-0.41263124,0.33183256,-0.36165816,-0.24108039,0.32036993,0.32612598,-0.3408835,0.302577,0.29098955,-0.15685876,-0.304097,0.3688037,-0.32671082,-0.23395753,0.38452268,0.30425364,-0.38706198,0.22075278,0.30937326,0.41194907,-0.3977704,0.36539695,0.3002825,0.3825885,0.40244544,0.37971237,-0.34042445,-0.33912218,0.31756464,0.41782412,-0.34831536,-0.25421053,-0.37226325,-0.37714738,-0.3811228,0.31457913,-0.50705975,-0.23477013,0.38376114,0.4171281,-0.49034995,-0.26779673,0.25691065,-0.35073605,-0.35032398,-0.31734455,-0.36157876,-0.24563059,-0.35961416,-0.29400104,0.28776118,0.4208399,-0.43721908,0.22586055,0.3804206,0.20835125,-0.30595705,0.30163288,0.23874421,0.3848862,-0.32971066,-0.25158,0.3152079,-0.35066628,0.38473827,0.31905803,0.34564015,-0.29070374,0.38575664,-0.29396716,0.32321155,0.39393523
ENSP00000324804,0.41241932,0.31961977,-0.28067183,0.4147126,0.36435565,-0.30318758,-0.31582975,-0.35897744,-0.2793772,-0.36338928,0.34513226,-0.40234482,0.33535254,0.3935557,0.3758846,0.35781118,0.3132586,0.39206976,-0.28519365,0.2727137,-0.45753807,0.35359323,0.3622107,0.34755036,0.3807171,0.39079255,-0.48144624,-0.39487302,-0.32495004,0.28288242,-0.34101892,-0.35735583,0.3284355,0.32460594,-0.31432357,0.3107167,0.33872736,-0.31137264,-0.29580507,0.4426878,-0.37315914,-0.44048473,0.35831627,0.31504905,-0.39621496,0.32414353,0.34173062,0.31805328,-0.4295966,0.27499816,0.31198034,0.361898,0.26545373,0.27772686,-0.37184206,-0.30981144,0.32623202,0.32892555,-0.29543284,-0.19327585,-0.363654,-0.35673997,-0.32307377,0.29929766,-0.33484027,-0.3217305,0.33502674,0.30491477,-0.42036194,-0.3883333,0.30243796,-0.2562625,-0.39023316,-0.37092894,-0.31677717,-0.2946394,-0.29500157,-0.40665698,0.1963123,0.40290353,-0.39751258,0.31485632,0.37544584,0.32272783,-0.28383395,0.1882328,0.37007973,0.35416347,-0.29920557,-0.26330668,0.32106093,-0.2842588,0.39717457,0.25543988,0.33537963,-0.3227285,0.28985012,-0.26887792,0.35472345,0.4157092
ENSP00000376297,0.46886206,0.27407306,-0.2427635,0.3956611,0.31116816,-0.27863643,-0.2662013,-0.37363717,-0.36904556,-0.34215432,0.3456958,-0.3675626,0.37988603,0.46534422,0.30044043,0.3549408,0.37605387,0.3333311,-0.2794216,0.2709049,-0.37929404,0.303406,0.31004807,0.4145748,0.37753358,0.38457653,-0.30405086,-0.43476233,-0.34427825,0.33900344,-0.26567093,-0.2776944,0.30915838,0.24147612,-0.386267,0.3733744,0.4286437,-0.3154369,-0.29564095,0.37077853,-0.33469757,-0.3850831,0.33074313,0.3693602,-0.3580398,0.35442922,0.32914993,0.2958231,-0.38399783,0.3574138,0.39434537,0.30746478,0.28892678,0.18682888,-0.3825204,-0.3061728,0.26745674,0.36526915,-0.31213698,-0.31216952,-0.37029094,-0.34228948,-0.3525423,0.26048005,-0.33530432,-0.30583557,0.37246734,0.28976852,-0.3191356,-0.38800707,0.35508966,-0.30107188,-0.3010906,-0.21859474,-0.370251,-0.25588074,-0.3386195,-0.3308194,0.36339974,0.36959508,-0.3809493,0.28285503,0.3519893,0.34187996,-0.19224976,0.27685127,0.20456177,0.3340404,-0.36962128,-0.2396626,0.31824657,-0.296302,0.37517625,0.36833706,0.38314676,-0.3387777,0.356252,-0.26675993,0.37917024,0.3634378
ENSP00000363019,0.24660414,0.36018467,-0.34931365,0.36006758,0.3901868,-0.3225173,-0.6920281,-0.32412156,-0.27766198,-0.3948447,0.3350575,-0.40833583,0.31121457,0.30400163,0.31034783,0.24882352,0.45599914,0.17739142,-0.51610535,0.3142552,-0.3506489,0.3811419,0.2923952,0.32398194,0.26526523,0.3459161,-0.6262114,-0.20751613,-0.25942636,0.26235875,-0.3138163,-0.27138948,0.3284098,0.329739,-0.28223008,0.4202187,0.2878128,-0.20688204,-0.3395166,0.28746095,-0.2876181,-0.30189347,0.36900878,0.35340703,-0.36264557,0.31271732,0.36770928,0.2955499,-0.4444628,0.24514191,0.344303,0.35227177,0.22165096,0.2855511,-0.29772156,-0.29794016,0.32227132,0.20058358,-0.33231637,-0.18089792,-0.2910879,-0.30735645,-0.3190792,0.4706817,-0.36201358,-0.35484815,0.26133946,0.3032434,-0.37261894,-0.30903798,0.25368828,-0.26963282,-0.28377637,-0.18263574,-0.1959093,-0.3211448,-0.24307121,-0.2835699,0.37687021,0.32555273,-0.36110878,0.2746762,0.35516605,0.26926452,-0.18326575,0.24681373,0.2421549,0.57138807,-0.23578943,-0.19781215,0.32483444,-0.48998058,0.3522964,0.23355463,0.35285014,-0.28632683,0.33607674,-0.30743563,0.56296074,0.4468077
ENSP00000231487,0.2676713,0.3876233,-0.32500347,0.29961333,0.3886328,-0.2714368,-0.5814025,-0.2526366,-0.2865972,-0.4128,0.28672424,-0.3827905,0.31431997,0.26872984,0.28318626,0.34125218,0.4445004,0.24850354,-0.4255663,0.2619122,-0.34789166,0.36687696,0.22274023,0.3575479,0.33930963,0.26265022,-0.4813413,-0.21420473,-0.2886959,0.39172083,-0.3577521,-0.29309252,0.34248874,0.37005186,-0.2898986,0.3445235,0.28933153,-0.38059288,-0.3611088,0.29151776,-0.32956296,-0.25986847,0.29899117,0.4150452,-0.2717849,0.42099363,0.37503397,0.30206382,-0.39786097,0.27847174,0.32821468,0.32230508,0.24069121,0.2931116,-0.27976406,-0.3113572,0.35545698,0.19674733,-0.33312374,-0.33221602,-0.30504164,-0.25743797,-0.37229824,0.48221016,-0.3338145,-0.30617517,0.36799046,0.34602362,-0.34809932,-0.35046467,0.2911974,-0.301954,-0.33725536,-0.23236836,-0.23900554,-0.25032267,-0.3388297,-0.29319432,0.3963422,0.29214293,-0.34519556,0.35458815,0.33483595,0.34967792,-0.21304286,0.30514193,0.2500861,0.47943014,-0.21684638,-0.2754001,0.3273036,-0.35927254,0.31885675,0.27265704,0.32983574,-0.34824046,0.3182783,-0.38134587,0.45131782,0.4440647
ENSP00000432083,0.32809618,0.2945101,-0.2668995,0.35235515,0.31196833,-0.41279033,-0.3270998,-0.25626355,-0.3222993,-0.3911202,0.3468001,-0.40235496,0.3795322,0.38293132,0.33984634,0.3474527,0.47691685,0.33893144,-0.2968787,0.28031826,-0.38323906,0.3426558,0.2888438,0.278531,0.27791002,0.34851336,-0.473204,-0.26610085,-0.3416612,0.34588903,-0.40302998,-0.3034119,0.31204173,0.40109858,-0.28919056,0.336166,0.2801999,-0.29212433,-0.27686518,0.28672397,-0.28865185,-0.29056758,0.34039506,0.27137527,-0.39062896,0.26387128,0.3199995,0.36639425,-0.41677272,0.2742986,0.4347153,0.39366686,0.30721915,0.44405586,-0.30761415,-0.251769,0.32698956,0.38592693,-0.4139612,-0.37474632,-0.24461292,-0.35021824,-0.37389126,0.3635429,-0.32340643,-0.4018993,0.29400814,0.39356172,-0.42327484,-0.22454448,0.34694892,-0.30655435,-0.38392535,-0.350254,-0.33755055,-0.3320426,-0.2989726,-0.35279796,0.39554965,0.31598556,-0.38663965,0.3197532,0.2222698,0.25566307,-0.31697822,0.26384577,0.34341082,0.3144176,-0.3089256,-0.33683676,0.3569344,-0.33628917,0.35356182,0.26498997,0.29149008,-0.44841954,0.33627495,-0.25384414,0.35107997,0.4774006
ENSP00000300093,0.34772176,0.29506,-0.28157714,0.44712156,0.35799778,-0.3167461,-0.29077035,-0.36339587,-0.1983142,-0.40780005,0.4655428,-0.43303195,0.30626103,0.3946667,0.46254665,0.37523642,0.41788027,0.3797759,-0.44194773,0.24683772,-0.31183305,0.3486237,0.29999098,0.41261935,0.3828192,0.39062485,-0.397549,-0.3577418,-0.43774498,0.28132346,-0.36994636,-0.39829692,0.33490083,0.33129418,-0.39374894,0.24759701,0.37620744,-0.3454393,-0.36742067,0.32402587,-0.35617587,-0.36474004,0.31403896,0.36156964,-0.3251357,0.24471655,0.3463985,0.31219754,-0.34683013,0.25989252,0.35891783,0.33343846,0.32341802,0.25003433,-0.37292686,-0.2872131,0.30156922,0.3583965,-0.27638063,-0.107152216,-0.3595639,-0.30633911,-0.19482149,0.32178083,-0.4749638,-0.29480806,0.37191898,0.40937573,-0.31959406,-0.3248626,0.26456085,-0.32737184,-0.32106903,-0.32663235,-0.36924496,-0.31192622,-0.28090683,-0.25852418,0.33255702,0.41345292,-0.37112412,0.24031898,0.3258591,0.2949077,-0.19344452,0.2474861,0.1806559,0.41156203,-0.38429365,-0.21668828,0.3543741,-0.2831741,0.42248505,0.28537226,0.36458725,-0.33631188,0.3978512,-0.3345343,0.4770499,0.37106514
ENSP00000262367,0.38506547,0.3234004,-0.34044564,0.35542557,0.26076728,-0.27996174,-0.33646178,-0.31483138,-0.29360828,-0.4256718,0.36710677,-0.3446698,0.34857687,0.38105157,0.40637618,0.3764916,0.37771833,0.3769364,-0.35956645,0.32347456,-0.36105448,0.35842878,0.36863217,0.3171582,0.36307907,0.30004826,-0.31251487,-0.31064487,-0.38489625,0.3114476,-0.3918621,-0.3440027,0.37813553,0.3528776,-0.35108736,0.30531454,0.2983727,-0.21565582,-0.36296248,0.28470707,-0.3331224,-0.38479573,0.3162971,0.37147266,-0.40585005,0.26176026,0.32910854,0.39163053,-0.43189704,0.4138549,0.3556352,0.315116,0.31326422,0.3276392,-0.407956,-0.2986055,0.36264595,0.29221156,-0.33514175,-0.16559704,-0.4031481,-0.37219065,-0.3460839,0.31090006,-0.38665262,-0.3439534,0.32880938,0.32589945,-0.40875676,-0.39903095,0.31990054,-0.2930933,-0.33796066,-0.25683853,-0.3538448,-0.3601185,-0.3122661,-0.35322455,0.26697707,0.3256973,-0.3679694,0.32252967,0.33501768,0.3562075,-0.33012336,0.2377473,0.31117988,0.3159167,-0.390036,-0.3050029,0.28140968,-0.24465801,0.32913488,0.3123606,0.3563124,-0.28712165,0.4043838,-0.275126,0.38626987,0.26700413
ENSP00000292614,0.36528543,0.35565028,-0.21364164,0.27396524,0.2688941,-0.36239323,-0.28564966,-0.32895353,-0.242411,-0.46734318,0.3479953,-0.38806796,0.36353394,0.33715355,0.32471013,0.30205834,0.34813464,0.3431108,-0.25906792,0.35158667,-0.3850621,0.37243322,0.32731855,0.42027023,0.28836998,0.28052688,-0.3704599,-0.26057202,-0.34402826,0.30888876,-0.43653634,-0.34802723,0.34954634,0.31661958,-0.26567918,0.285246,0.38013032,-0.2117709,-0.39499077,0.4206174,-0.25933686,-0.265659,0.40970445,0.25211358,-0.43059745,0.32115945,0.28413686,0.35791737,-0.40619618,0.32310975,0.29629403,0.3983045,0.33311793,0.29330027,-0.3224111,-0.36000416,0.38225934,0.38777602,-0.29958048,-0.2026228,-0.2974562,-0.37003103,-0.36379215,0.28090066,-0.36059716,-0.26270813,0.39049065,0.39490888,-0.37420356,-0.3264548,0.22219469,-0.25421548,-0.3565815,-0.3922676,-0.43032187,-0.2466653,-0.27978542,-0.3021922,0.28423163,0.390567,-0.39445743,0.25056118,0.33551696,0.22212292,-0.28808597,0.26257437,0.17166667,0.3613234,-0.3401297,-0.30546653,0.3274044,-0.27361718,0.39543647,0.31541413,0.30914047,-0.30981642,0.2706947,-0.27583733,0.37954426,0.32919234
ENSP00000262306,0.2836065,0.3372031,-0.2411823,0.24486206,0.31149217,-0.35914755,-0.6082513,-0.27201992,-0.2898299,-0.49324578,0.29901618,-0.4668069,0.29599512,0.33744627,0.32866353,0.3216285,0.42213073,0.3119296,-0.3623481,0.36643845,-0.37405735,0.3565572,0.38325384,0.36868247,0.26863605,0.29178345,-0.45575324,-0.23090392,-0.29327223,0.31172398,-0.34361237,-0.28582603,0.37670514,0.35128894,-0.303609,0.34408307,0.35174835,-0.26436695,-0.3567187,0.31975403,-0.2971697,-0.21449886,0.42798454,0.3622933,-0.40212074,0.36345503,0.3760168,0.22495551,-0.3592522,0.32932058,0.4006641,0.35077524,0.26009253,0.29405415,-0.3121295,-0.3062682,0.30382192,0.22055538,-0.29283333,-0.27643666,-0.3232477,-0.3021262,-0.32358357,0.5166429,-0.3967972,-0.39575267,0.36331573,0.3112434,-0.41711232,-0.24620865,0.26807702,-0.16301267,-0.4181928,-0.28630772,-0.26090065,-0.29368803,-0.3365307,-0.2682313,0.42500955,0.26799607,-0.3319208,0.35656825,0.3559563,0.25459227,-0.24261962,0.19210511,0.24705122,0.46222287,-0.27243024,-0.27897868,0.28092295,-0.44438905,0.36848378,0.19493145,0.36511615,-0.36858475,0.30007958,-0.26984861,0.5477548,0.42662388
ENSP00000326806,0.30917075,0.32608935,-0.1768249,0.33913732,0.43438837,-0.29629403,-0.34670785,-0.2274583,-0.19767451,-0.58844954,0.368964,-0.43803066,0.37608674,0.34664562,0.27926102,0.31466705,0.43633884,0.36326945,-0.31418467,0.27361718,-0.4084188,0.31613156,0.27349433,0.35498786,0.27509788,0.33783332,-0.55288893,-0.29491857,-0.3548171,0.3443622,-0.42201567,-0.34536985,0.2804358,0.31922412,-0.21821107,0.30474573,0.3606327,-0.12843229,-0.395266,0.2975124,-0.24776427,-0.24298996,0.41346735,0.2786701,-0.4632248,0.17925307,0.25432852,0.38454422,-0.38612604,0.32730582,0.27243754,0.46711397,0.32921565,0.40061557,-0.28402492,-0.289962,0.34655485,0.39291793,-0.34013078,-0.3543834,-0.24504326,-0.35299852,-0.3389059,0.3108512,-0.48124787,-0.3550362,0.3195013,0.35468227,-0.45867383,-0.32628283,0.3059037,-0.29740492,-0.42148474,-0.39815572,-0.34428725,-0.33423373,-0.3877503,-0.3607128,0.33754966,0.33608517,-0.39948454,0.26502657,0.27128676,0.2525312,-0.27439493,0.16365682,0.27950916,0.4038978,-0.3637691,-0.3186502,0.27719483,-0.31210902,0.40405914,0.24204782,0.29573375,-0.36332038,0.26085815,-0.1905242,0.39661127,0.50928456
ENSP00000316176,0.36884484,0.3015174,-0.3555377,0.35014838,0.31039184,-0.29264745,-0.539455,-0.36940464,-0.2750766,-0.35407245,0.33618417,-0.40788737,0.31284153,0.2881149,0.36370504,0.2956162,0.41500217,0.3012506,-0.35251507,0.33219704,-0.30916256,0.35772857,0.3489708,0.40929794,0.2969584,0.31143767,-0.42413023,-0.26943126,-0.34400344,0.28090557,-0.37488383,-0.29920384,0.29430577,0.36020428,-0.37185907,0.4295145,0.3447663,-0.28209317,-0.3747388,0.34775242,-0.281826,-0.33196566,0.28893405,0.35420877,-0.37171614,0.3788798,0.34329915,0.32093495,-0.3738106,0.34483713,0.27738342,0.39386538,0.29157543,0.2662401,-0.27451438,-0.3011275,0.33084843,0.18131396,-0.37355617,-0.25362274,-0.23311853,-0.35106444,-0.26871216,0.37095156,-0.3278345,-0.3183154,0.31872404,0.2960466,-0.39617175,-0.27062505,0.26281625,-0.32134733,-0.35314798,-0.29415873,-0.31843814,-0.3360254,-0.26280704,-0.30462575,0.3746968,0.3149763,-0.29679126,0.28846788,0.34103543,0.34342995,-0.24988365,0.2713347,0.26978126,0.52406645,-0.31713298,-0.3228591,0.33687478,-0.40473858,0.37785786,0.2736295,0.3306055,-0.3322482,0.35286114,-0.29781765,0.40957507,0.41082254
ENSP00000248564,0.33701065,0.28133702,-0.33539766,0.2715047,0.28433698,-0.313115,-0.24444653,-0.27916217,-0.3859538,-0.24951717,0.2569688,-0.27677444,0.2634099,0.33002728,0.33301014,0.38608083,0.26058912,0.3530029,-0.37859246,0.34810105,-0.27422804,0.25931594,0.35838473,0.30669197,0.3212587,0.37067428,-0.38220134,-0.3899452,-0.24914147,0.37985536,-0.3319928,-0.2935358,0.39990017,0.3256055,-0.27742764,0.2795276,0.2660884,-0.530362,-0.24281418,0.2834013,-0.2641989,-0.25132647,0.25070852,0.28951415,-0.28998134,0.31379616,0.33387277,0.29907823,-0.25974354,0.30516747,0.3902468,0.25515312,0.384428,0.3363177,-0.31583542,-0.29210547,0.29493698,0.6034988,-0.3358813,-0.5992959,-0.3469073,-0.33825332,-0.3403119,0.38918537,-0.33659148,-0.23786515,0.31134802,0.31468025,-0.2820589,-0.36300123,0.32388008,-0.30548838,-0.36251193,-0.42129114,-0.2889895,-0.39573207,-0.29573172,-0.37368003,0.31006512,0.34040034,-0.29820982,0.382569,0.3070066,0.3525914,-0.4291958,0.43013483,0.31502926,0.26367113,-0.36198464,-0.3671203,0.2969443,-0.35450783,0.30418137,0.25430006,0.29244354,-0.2665188,0.25049227,-0.34443992,0.2630888,0.190921
ENSP00000348965,0.37281984,0.32294932,-0.30992007,0.44578755,0.36668098,-0.3195734,-0.28702167,-0.37088114,-0.27511343,-0.38348117,0.35223356,-0.33353925,0.2443655,0.3654247,0.36531192,0.3011357,0.44282597,0.3102974,-0.30099943,0.2838557,-0.38853097,0.3758349,0.35311472,0.35104918,0.35884392,0.45178628,-0.32066816,-0.3545313,-0.39714304,0.34047136,-0.3512308,-0.3989565,0.26334983,0.33757427,-0.43920955,0.26740167,0.37981266,-0.2605573,-0.27288288,0.3489266,-0.36308283,-0.37624308,0.32935774,0.34393537,-0.3509594,0.3346742,0.39773202,0.4025868,-0.27135864,0.26065105,0.38220608,0.31362545,0.23831937,0.30872953,-0.331316,-0.29164803,0.29045847,0.38795045,-0.30099443,-0.24515933,-0.3463883,-0.3232409,-0.2658183,0.28102177,-0.42324084,-0.30697864,0.32997948,0.36401114,-0.33289415,-0.4043649,0.32869723,-0.25208852,-0.34924975,-0.32881755,-0.31611967,-0.30077043,-0.28436324,-0.31719398,0.2825003,0.39959136,-0.45107916,0.29321358,0.3009939,0.32361394,-0.2143679,0.28610846,0.298912,0.28335482,-0.3415436,-0.38080516,0.36529744,-0.33428738,0.3500935,0.3569143,0.32449707,-0.28747886,0.4145165,-0.33086458,0.40005663,0.40187997
ENSP00000468897,0.38584146,0.33557338,-0.30940843,0.29984757,0.31890473,-0.17824437,-0.32327536,-0.3103259,-0.4150105,-0.20838788,0.20708409,-0.32399267,0.14757845,0.34708697,0.32502276,0.37622365,0.29310167,0.4143046,-0.25296956,0.38476202,-0.27833685,0.3020641,0.3055004,0.40499967,0.3283976,0.3421955,-0.4703845,-0.35008556,-0.25800478,0.44250485,-0.2674155,-0.40108755,0.38084614,0.24221225,-0.33860835,0.2984598,0.25447077,-0.63852125,-0.29368263,0.29681873,-0.34318146,-0.26680738,0.2385805,0.33670157,-0.2439716,0.338395,0.25901982,0.2907998,-0.1714868,0.33134103,0.41491273,0.14831099,0.39105603,0.3604899,-0.3158333,-0.30115277,0.25751182,0.79683375,-0.4777435,-0.5414573,-0.3448107,-0.30139896,-0.37219808,0.365689,-0.35295632,-0.44243845,0.31642523,0.3190007,-0.2749277,-0.28491768,0.3026742,-0.39357865,-0.26041114,-0.440644,-0.3235863,-0.31061792,-0.3669175,-0.38829142,0.27904764,0.26417518,-0.26039523,0.43862495,0.3731843,0.28454018,-0.42431608,0.3980734,0.42441848,0.20326248,-0.29130393,-0.53980416,0.33313304,-0.3354933,0.2594784,0.25371116,0.24662934,-0.30948964,0.23864739,-0.27946088,0.33909264,0.3446928
ENSP00000478121,0.28838652,0.3674996,-0.31250104,0.33868414,0.31477687,-0.27292663,-0.42678887,-0.34257057,-0.2598624,-0.39933616,0.28059062,-0.43200225,0.31857252,0.33514658,0.3283935,0.3480469,0.45211783,0.2559954,-0.35420823,0.30538544,-0.34255946,0.32312077,0.31435138,0.2942905,0.29158604,0.28516528,-0.40275502,-0.25462687,-0.26782367,0.3801052,-0.36668357,-0.3123331,0.37617064,0.31686997,-0.35106915,0.48325753,0.26852554,-0.2950979,-0.3630189,0.33671644,-0.34427035,-0.3487547,0.38848764,0.36319602,-0.34436682,0.3228282,0.2840758,0.32042173,-0.31349492,0.33690086,0.27483672,0.37214857,0.29575786,0.29409224,-0.3667667,-0.37729612,0.3689836,0.256169,-0.4200284,-0.30934286,-0.29214877,-0.25623196,-0.28857264,0.37680015,-0.3584996,-0.33354113,0.30296776,0.29417047,-0.34219337,-0.27698213,0.3265119,-0.37068397,-0.37761784,-0.30527312,-0.316555,-0.3472907,-0.30350012,-0.33341715,0.41149047,0.35998467,-0.42953777,0.30467513,0.35862747,0.32869026,-0.28539404,0.2714166,0.28937438,0.4998297,-0.30216384,-0.23958673,0.28107852,-0.3317742,0.37080193,0.2867602,0.28379336,-0.32871586,0.37042964,-0.27434635,0.41287106,0.39339912
ENSP00000253024,0.3629566,0.6651666,-0.4371792,0.19182062,0.16074665,-0.20576333,-0.39232442,-0.5351328,-0.33571276,-0.32453212,0.4824247,-0.30406433,0.2824484,0.49925604,0.4824168,0.427303,0.46606013,0.5732979,-0.48969808,0.20861083,-0.33471686,0.4343072,0.5242031,0.45205376,0.24106775,0.14339188,0.6162872,-0.6800142,-0.32385606,0.45960292,-0.37413073,-0.3240794,0.48616958,0.3596935,-0.29019916,-0.0040696864,0.6401593,0.01886065,-0.54007965,0.44279948,-0.45161134,-0.11889204,0.401207,0.37648407,-0.5165721,0.8562926,0.32915616,0.3718543,-0.5465182,0.4025223,0.30304626,0.32168782,0.6163641,0.3371418,-0.39801773,-0.3273132,0.6898075,0.10957906,-0.093787506,-0.035929006,-0.25346455,-0.16230042,-0.43290833,0.25337362,-0.4353339,-0.24919091,0.37851304,0.2358017,-0.6304087,-0.45710254,0.3114599,-0.9011137,-0.40516695,-0.28195542,-0.64409035,-0.379055,-0.34271336,-0.22688341,0.77408206,0.4055078,-0.017779348,0.31106898,0.53200924,0.291967,-0.7185758,0.27484012,0.025299367,0.1993595,-0.28569815,-0.3708568,0.28246075,-0.31617087,0.43768358,0.9194095,0.15835795,-0.27704307,0.7770218,-0.5373453,0.1420212,0.0913252
ENSP00000477527,0.37856212,0.37873554,-0.3355461,0.29799542,0.37608716,-0.36554712,-0.3812488,-0.32806483,-0.25669348,-0.38609457,0.3255091,-0.3355407,0.3305966,0.3709811,0.34411386,0.26514587,0.3222566,0.29175937,-0.43378603,0.34385037,-0.3751191,0.3410196,0.3581181,0.35490587,0.27442724,0.317584,-0.40318802,-0.2908418,-0.331408,0.34029526,-0.37405217,-0.29412916,0.27758914,0.2088511,-0.42565405,0.35380188,0.41571084,-0.11258691,-0.3436622,0.26194382,-0.29798532,-0.24998026,0.3109911,0.30773216,-0.36183918,0.3154635,0.3106715,0.38194034,-0.43901676,0.34363925,0.30014268,0.34781778,0.2910785,0.28785303,-0.30043358,-0.3330541,0.41142035,0.3676849,-0.22980475,-0.1519092,-0.40538138,-0.2667458,-0.3248024,0.29223862,-0.3715129,-0.36849138,0.31236213,0.32949564,-0.4446195,-0.37491083,0.33720353,-0.35877696,-0.35598153,-0.23520067,-0.32154992,-0.34447455,-0.35669726,-0.36074755,0.3141209,0.4514193,-0.32286468,0.28191665,0.31746548,0.2820511,-0.34311354,0.29083318,0.20206827,0.34336594,-0.35902295,-0.24887446,0.40954924,-0.33575857,0.37142032,0.35612798,0.33943307,-0.26259604,0.42399406,-0.31608528,0.32541406,0.3176634
ENSP00000221859,0.35612065,0.29209322,-0.289725,0.36321968,0.35532525,-0.302429,-0.39704916,-0.28728366,-0.22847763,-0.52426505,0.38822323,-0.43377367,0.36465964,0.31025264,0.28624845,0.29704154,0.44522694,0.2690839,-0.32747334,0.28202587,-0.42449355,0.30812782,0.36085945,0.31481278,0.30147654,0.29079467,-0.5467103,-0.28796378,-0.35465518,0.37832993,-0.3744,-0.32522514,0.34106314,0.29557794,-0.32699144,0.38030598,0.33686894,-0.20925038,-0.27701083,0.3338419,-0.26813504,-0.25726986,0.42256644,0.23299491,-0.37776765,0.25385055,0.27446538,0.4187269,-0.44330877,0.31032848,0.28312802,0.4014305,0.3070987,0.36584333,-0.3776531,-0.32829365,0.31460735,0.3752692,-0.31055632,-0.25109896,-0.40594712,-0.28040016,-0.36880657,0.35584956,-0.43974927,-0.2860824,0.43781453,0.34303576,-0.48982856,-0.32333443,0.33690086,-0.329088,-0.32915333,-0.23811421,-0.36550188,-0.24701363,-0.2600114,-0.24651197,0.298673,0.33021635,-0.43388072,0.24169692,0.30722824,0.2860587,-0.26539856,0.2923883,0.24355999,0.35670018,-0.29323575,-0.28108847,0.39359906,-0.37391457,0.4206381,0.24094976,0.31192568,-0.34805214,0.33916488,-0.29539916,0.31543332,0.37042183
ENSP00000482674,0.28378072,0.3965105,-0.38776225,0.3748244,0.3613622,-0.4070409,-0.36977574,-0.37663236,-0.28087386,-0.34346992,0.42976016,-0.33966267,0.42937604,0.371831,0.36596137,0.35929585,0.2260665,0.2982416,-0.37202933,0.36917126,-0.35853904,0.3334817,0.28374183,0.44234037,0.3362306,0.3479781,-0.37200367,-0.35136947,-0.42517546,0.25223416,-0.41858795,-0.3197086,0.32753286,0.28191063,-0.3727109,0.28927115,0.3704557,-0.14802748,-0.3658523,0.36154258,-0.33337948,-0.37301916,0.34853476,0.2567986,-0.38730696,0.30598846,0.37507522,0.365187,-0.4042666,0.40136385,0.3049745,0.32139507,0.38141328,0.30725896,-0.33794346,-0.40413556,0.36174446,0.3557536,-0.29446876,-0.074475475,-0.4066819,-0.36452764,-0.3725595,0.27750826,-0.4689636,-0.28231534,0.33877772,0.32888058,-0.4863629,-0.34461996,0.33308977,-0.37026083,-0.34734112,-0.22706689,-0.34688592,-0.311241,-0.31752467,-0.28811163,0.25421894,0.41984582,-0.29381078,0.24693269,0.33684158,0.2777265,-0.37997505,0.20611493,0.24199662,0.3541398,-0.353345,-0.23121957,0.34732082,-0.3996523,0.3364965,0.3564884,0.37061316,-0.2999645,0.4771875,-0.29934248,0.31114557,0.2667636
ENSP00000332194,0.38702166,0.38309622,-0.3166294,0.32116014,0.4243458,-0.33047745,-0.4621872,-0.34148774,-0.3000659,-0.3627608,0.39865446,-0.3986709,0.40401477,0.30268088,0.42534876,0.37170854,0.34773678,0.306862,-0.40152556,0.3805647,-0.36581123,0.2902111,0.28860727,0.34264192,0.28811085,0.31491163,-0.42796963,-0.3134089,-0.38954648,0.32249027,-0.37387246,-0.34314376,0.27461335,0.29985377,-0.39301607,0.36114413,0.35409075,-0.18393973,-0.3229236,0.29411817,-0.30211622,-0.30524358,0.3720922,0.29974598,-0.36237425,0.32283935,0.28798193,0.3489045,-0.36422783,0.35658014,0.33427444,0.32377332,0.3745457,0.34488437,-0.37553635,-0.38371402,0.3706143,0.3574379,-0.29659453,-0.25382367,-0.37372735,-0.3235607,-0.34736282,0.28536525,-0.41834602,-0.27644718,0.32272288,0.36493507,-0.47979575,-0.2925369,0.3097602,-0.33868495,-0.3252737,-0.28377262,-0.3261796,-0.27331796,-0.31769112,-0.31107032,0.2693922,0.39801735,-0.34659308,0.27547476,0.34344468,0.33089408,-0.32898355,0.29976565,0.29866013,0.31515008,-0.26375294,-0.31770328,0.3276574,-0.30836913,0.36456347,0.3343298,0.37203497,-0.37018138,0.3599809,-0.29035673,0.36465502,0.39638612
ENSP00000355627,0.3668642,0.3738414,-0.3774677,0.27955842,0.27402422,-0.26770496,-0.27961344,-0.34961894,-0.46364844,-0.29159784,0.26280662,-0.34837288,0.2691567,0.32196933,0.37856278,0.35194513,0.36817372,0.39650545,-0.23702706,0.32550833,-0.23831871,0.30887365,0.39668158,0.28884393,0.28746414,0.2895027,-0.4266626,-0.36040133,-0.34216622,0.44798347,-0.35263646,-0.35422096,0.3549246,0.29171348,-0.3434573,0.36684015,0.2662669,-0.48814303,-0.27976176,0.33829108,-0.3369684,-0.2384087,0.2541351,0.37506014,-0.2370031,0.40574092,0.299385,0.29505327,-0.24745202,0.34293845,0.304409,0.16693926,0.447164,0.34413803,-0.28152522,-0.3405195,0.27526775,0.51184803,-0.35245517,-0.46629968,-0.29914525,-0.2835839,-0.4037025,0.28216666,-0.36166427,-0.3472161,0.37570405,0.25607586,-0.2291833,-0.37327898,0.26487148,-0.3226266,-0.31014588,-0.40921175,-0.37415057,-0.33942857,-0.4063563,-0.29373714,0.364747,0.29504824,-0.2625679,0.34521216,0.31291592,0.3557207,-0.41265124,0.31867874,0.33406958,0.19865201,-0.3560038,-0.40854263,0.28685883,-0.37385112,0.33368698,0.24617448,0.31645373,-0.31839955,0.37371477,-0.30023354,0.2088462,0.26021793
ENSP00000245907,0.28101778,0.32070968,-0.45596913,0.25271848,0.32834837,-0.3206182,-0.29653966,-0.32916006,-0.3466074,-0.31049865,0.27682233,-0.3672646,0.27825403,0.3468454,0.35360494,0.3358654,0.26096442,0.3469403,-0.36532453,0.30034253,-0.27132297,0.22615343,0.36178136,0.35781297,0.29117462,0.35890037,-0.37030244,-0.31882316,-0.30337894,0.44431528,-0.25766644,-0.3453791,0.35462502,0.31060728,-0.31876212,0.47039977,0.26957288,-0.5127323,-0.24927884,0.25330192,-0.37304848,-0.34847513,0.2561477,0.29565573,-0.27431935,0.3419413,0.33376977,0.30822062,-0.2997745,0.34227145,0.31289268,0.23776503,0.37908608,0.32192147,-0.31443474,-0.3117093,0.34328306,0.4770704,-0.39132777,-0.47401604,-0.2680148,-0.33901814,-0.27395898,0.31625417,-0.29337838,-0.37251145,0.34483486,0.32154828,-0.25901833,-0.30459425,0.31982493,-0.35674566,-0.34737834,-0.35746148,-0.31411606,-0.37113565,-0.2868559,-0.3936427,0.34034818,0.36131975,-0.3157713,0.3569846,0.3504349,0.30975938,-0.35601595,0.37919563,0.36823112,0.22643979,-0.33974412,-0.4473307,0.27136925,-0.38684404,0.22658989,0.27740115,0.32023686,-0.3411017,0.292982,-0.3689755,0.38078973,0.23965187
ENSP00000344456,0.30341423,0.30681035,-0.3650571,0.35057917,0.29017276,-0.30856165,-0.31213024,-0.41644296,-0.3294781,-0.37055767,0.3724204,-0.4154705,0.3464563,0.2996739,0.32758284,0.33580127,0.39585626,0.36049137,-0.3640662,0.3689166,-0.32512373,0.30941692,0.40272528,0.2820488,0.29198086,0.37545156,-0.39411628,-0.32238275,-0.33866844,0.29785067,-0.3795291,-0.37997228,0.30124292,0.34037164,-0.3477799,0.40035936,0.34192005,-0.1838965,-0.32034278,0.32832992,-0.3419941,-0.35288957,0.3480338,0.34203634,-0.34477338,0.30537105,0.29758945,0.32337838,-0.3153774,0.41739753,0.30905095,0.30678716,0.323975,0.33534768,-0.31474477,-0.31959093,0.3904368,0.25184396,-0.31448108,-0.16263317,-0.31415665,-0.33280236,-0.36662832,0.37121364,-0.31727108,-0.3423155,0.34275272,0.3203347,-0.2824012,-0.33455873,0.39299187,-0.35440683,-0.3945765,-0.27525806,-0.29348847,-0.3086616,-0.292935,-0.37888747,0.37448105,0.40516847,-0.37255973,0.28116322,0.26019064,0.3322075,-0.3510485,0.29459366,0.31844997,0.38405222,-0.36208817,-0.25829875,0.38884795,-0.41983226,0.3520544,0.2488621,0.32704434,-0.36470935,0.3801186,-0.3143378,0.35774198,0.37460923
ENSP00000269349,0.27843672,0.23719662,-0.2975075,0.44036075,0.34927735,-0.34076038,-0.3396535,-0.3572562,-0.1527492,-0.48416227,0.28951544,-0.34420565,0.33451748,0.31857246,0.3149124,0.29206416,0.44689143,0.35029414,-0.27215734,0.19845968,-0.33979332,0.3446465,0.30247173,0.32425976,0.2211441,0.36313766,-0.6462621,-0.3368225,-0.29681006,0.32508656,-0.35904863,-0.3260661,0.2997432,0.30308452,-0.26381785,0.2836557,0.31554365,-0.21005327,-0.27424967,0.40710357,-0.26230633,-0.33342522,0.38974687,0.3425213,-0.3338551,0.26436394,0.19870925,0.306763,-0.34688562,0.2873588,0.33447057,0.398964,0.33610952,0.3561692,-0.32862312,-0.25933954,0.31723568,0.38289484,-0.26077956,-0.3368232,-0.2945708,-0.27699637,-0.25202706,0.2631676,-0.44563684,-0.2716306,0.339122,0.35287404,-0.47181734,-0.27815002,0.24139194,-0.25200498,-0.39475957,-0.36260098,-0.3897033,-0.2574423,-0.3838729,-0.27916574,0.29101026,0.29345807,-0.40042743,0.31383586,0.32899112,0.30807438,-0.27901378,0.23402572,0.34513825,0.36711797,-0.31014976,-0.35894042,0.24614187,-0.3058821,0.38340443,0.23935312,0.3328893,-0.3003179,0.3091884,-0.16278122,0.24007675,0.5383423
ENSP00000366618,0.3644524,0.31793332,-0.28502357,0.3366847,0.33330855,-0.31797078,-0.390691,-0.3824706,-0.28166956,-0.35168523,0.3666083,-0.34407422,0.43935573,0.36850798,0.37571287,0.3271977,0.31752488,0.30880845,-0.36261705,0.37817022,-0.2851499,0.34978253,0.35290205,0.36905777,0.37391946,0.35704345,-0.32484514,-0.29043895,-0.4165638,0.34023666,-0.29367453,-0.3420133,0.31178156,0.31929743,-0.3681559,0.30462113,0.35259646,-0.20221478,-0.28050423,0.3352216,-0.28776535,-0.28560734,0.41116428,0.3342787,-0.30194917,0.27577448,0.27504867,0.36814734,-0.3751851,0.30786332,0.2992757,0.33917615,0.37901622,0.2861171,-0.34152454,-0.43224928,0.35740894,0.28993136,-0.29206657,-0.12921749,-0.2826945,-0.31041944,-0.31828627,0.2434765,-0.3668651,-0.26135302,0.37280953,0.34416682,-0.4078902,-0.34979528,0.2649144,-0.38525075,-0.35126826,-0.2759518,-0.3591103,-0.30444413,-0.34029117,-0.28569964,0.2919923,0.40890548,-0.43154293,0.33203304,0.3426758,0.2608619,-0.40522897,0.26219276,0.26234153,0.35766348,-0.33529812,-0.33224604,0.30917642,-0.32382756,0.3950764,0.38829136,0.31496948,-0.3502702,0.36208463,-0.24490854,0.34718612,0.31153226
ENSP00000265171,0.32304713,0.28787494,-0.27372527,0.41273537,0.22724846,-0.30548784,-0.33006477,-0.38226122,-0.29677385,-0.2558193,0.2784251,-0.3006815,0.35407093,0.34823722,0.3802501,0.2980315,0.28777128,0.37218255,-0.31039023,0.35737732,-0.3698336,0.3132502,0.2841908,0.27664113,0.32864618,0.325423,-0.27697462,-0.33749646,-0.38520563,0.30089828,-0.27323866,-0.34020284,0.36028284,0.4113176,-0.3581782,0.3401687,0.3119071,-0.3159848,-0.4012636,0.2816958,-0.29156333,-0.29460013,0.31066874,0.31451806,-0.33782437,0.3848044,0.32141176,0.36756733,-0.2942618,0.31235382,0.3407602,0.32485133,0.28321922,0.34986633,-0.32625112,-0.25305063,0.27200466,0.31859982,-0.3677065,-0.26361534,-0.32577494,-0.36842608,-0.4107765,0.28646445,-0.28599942,-0.36673883,0.3313498,0.31407222,-0.359682,-0.30928522,0.39905483,-0.29986075,-0.3782122,-0.24981587,-0.34386748,-0.313954,-0.37507612,-0.36115646,0.39903104,0.38123804,-0.39552432,0.32235044,0.23519826,0.33840528,-0.3232689,0.24652128,0.32887843,0.38285142,-0.33224022,-0.34387538,0.32519594,-0.36603683,0.2696195,0.3357507,0.29857287,-0.44090647,0.36510187,-0.32017112,0.4441369,0.43216008
ENSP00000476136,0.31102693,0.39086896,-0.3604684,0.4763411,0.2953566,-0.37800995,-0.35059735,-0.37474722,-0.27849177,-0.328427,0.3327847,-0.34322998,0.38278952,0.3546178,0.39014068,0.28600606,0.30528706,0.36966488,-0.3515172,0.31650245,-0.34393048,0.30295783,0.28846,0.3245489,0.32182083,0.33579946,-0.43881106,-0.30064717,-0.36802265,0.32537127,-0.41186252,-0.33084887,0.32580143,0.24413154,-0.34625852,0.3851468,0.38448575,-0.15325387,-0.30683994,0.29068685,-0.31205305,-0.3585338,0.3765298,0.31251955,-0.2794379,0.23208176,0.2986071,0.3015075,-0.38950962,0.35277072,0.3600959,0.30411693,0.39949772,0.29892743,-0.3751635,-0.39119482,0.39008543,0.35616526,-0.23274142,-0.09655481,-0.3663986,-0.33812493,-0.28680232,0.27594307,-0.4020854,-0.29032782,0.36515483,0.33722016,-0.462902,-0.3017664,0.25702244,-0.4007543,-0.2800328,-0.3336145,-0.33702353,-0.31573835,-0.3779877,-0.3476277,0.22701636,0.41293576,-0.384796,0.2614599,0.30940613,0.30750865,-0.3221323,0.22267325,0.26493728,0.41753876,-0.40638193,-0.30559942,0.30951178,-0.38684633,0.36869577,0.3534823,0.35579684,-0.32055065,0.4287308,-0.32204404,0.3805745,0.29845348
ENSP00000359206,0.3357849,0.34996292,-0.3104501,0.2612622,0.34832755,-0.36815247,-0.58465266,-0.32544878,-0.35212648,-0.32244214,0.34706047,-0.41955826,0.31176195,0.30561113,0.2994937,0.3048742,0.36466888,0.25273883,-0.4222323,0.32061273,-0.36162037,0.40790117,0.30417725,0.3792322,0.3245114,0.26455915,-0.42884028,-0.2935955,-0.30800924,0.34709066,-0.31039754,-0.26014376,0.3813881,0.36079276,-0.34890774,0.35630342,0.2837917,-0.27608016,-0.36848775,0.3181547,-0.34575507,-0.25258783,0.3094197,0.36840373,-0.33368513,0.38351363,0.35800052,0.3357464,-0.31894925,0.30278113,0.29843065,0.32013136,0.269153,0.27094853,-0.26589137,-0.29418516,0.3716379,0.22692645,-0.40516242,-0.2764615,-0.29656175,-0.29205889,-0.3351943,0.44418836,-0.30874422,-0.30310157,0.28212044,0.30966654,-0.41463923,-0.32761222,0.28966784,-0.27878505,-0.2810312,-0.26975003,-0.21615914,-0.33390072,-0.3586928,-0.34881094,0.32317558,0.34285036,-0.29702812,0.35986555,0.3239169,0.31220123,-0.30313417,0.27635327,0.26406547,0.48840755,-0.3523121,-0.29055223,0.2918982,-0.42559406,0.38146517,0.24880704,0.29949433,-0.35682338,0.38225478,-0.38593626,0.49444592,0.45170406
ENSP00000334051,0.39373553,0.35190994,-0.30431896,0.018196438,0.31700644,-0.23734649,-0.38705924,-0.39804155,-0.6138507,-0.2153874,0.35596806,-0.18863021,0.23596592,0.3315212,0.35550267,0.47966716,0.192764,0.36067656,-0.3092231,0.40071842,-0.31591332,0.38595924,0.30286598,0.3072702,0.34189075,0.32148814,-0.113388665,-0.30990538,-0.37494627,0.3141039,-0.34145272,-0.4007256,0.3576121,0.4314359,-0.3858677,0.08588408,0.37895605,-1.7930434,-0.32103798,0.37906292,-0.30479306,-0.40701556,0.2154955,0.3571983,-0.3892517,0.30908862,0.44145185,0.401974,-0.32026872,0.3263901,0.38806248,0.3273956,0.38851565,0.2395704,-0.40371498,-0.48859155,0.3843324,1.1234992,-0.19998693,-0.8899966,-0.35837483,-0.341596,-0.36102545,0.6778743,-0.2576714,-0.19783968,0.31908053,0.3405824,-0.1889737,-0.3689241,0.25309694,-0.25821885,-0.4260261,-0.75906044,-0.3546277,-0.48858365,-0.46911052,-0.37059546,0.19951832,0.42696524,-0.1069688,0.45590657,0.31368136,0.2738887,-0.31433845,1.4979031,0.30729267,0.16781345,-0.30984455,-0.44679958,0.38252777,-0.19366467,0.29569533,0.3999107,0.2743345,-0.24486011,0.14557931,-0.42570752,0.12725797,0.14310254
ENSP00000326804,0.30878076,0.36790457,-0.33597633,0.24156229,0.32909232,-0.36846948,-0.43198037,-0.28876823,-0.30493245,-0.36905444,0.31645742,-0.38584045,0.30689594,0.34621012,0.33653393,0.31393045,0.40659022,0.30137348,-0.3848554,0.34148896,-0.34122846,0.36858776,0.3641151,0.34792,0.2969749,0.27112767,-0.35706937,-0.24120219,-0.35806826,0.3846993,-0.2961356,-0.34700507,0.35111576,0.37286234,-0.3264753,0.40842965,0.3156272,-0.30290172,-0.39052635,0.30629632,-0.29437232,-0.28619212,0.3709297,0.3622998,-0.32421705,0.39193764,0.3449886,0.34120312,-0.33277354,0.33754176,0.3329571,0.32933685,0.25071698,0.25920704,-0.36299497,-0.3197849,0.34037206,0.24661216,-0.3479732,-0.29833844,-0.28840113,-0.33450374,-0.35347468,0.42265287,-0.39360785,-0.32280535,0.3191439,0.31283024,-0.32223657,-0.33773723,0.28787833,-0.2723609,-0.36465362,-0.30766544,-0.33330023,-0.31510034,-0.344839,-0.30507165,0.37049884,0.34199193,-0.27701354,0.3606279,0.36559966,0.30674508,-0.2691785,0.28916258,0.24349749,0.3874401,-0.32894903,-0.30253282,0.38603145,-0.3123895,0.38564435,0.260925,0.3312734,-0.37298352,0.28985927,-0.35905075,0.408009,0.35456213
ENSP00000274764,0.3373958,0.3655338,-0.5106605,0.33513144,0.35797077,-0.30155155,-0.39638087,-0.2879208,-0.317316,-0.35404935,0.43598896,-0.37565967,0.35407743,0.3095227,0.32766038,0.27072367,0.3097064,0.28394017,-0.39409918,0.30692068,-0.30096903,0.31312618,0.26028353,0.38234013,0.32739097,0.36526197,-0.5596713,-0.34330118,-0.3738468,0.32277495,-0.31359386,-0.28063104,0.25561062,0.23178428,-0.36896825,0.43308973,0.30781227,-0.29571232,-0.34023517,0.28917822,-0.32083154,-0.30091682,0.3372177,0.28234732,-0.3774403,0.36823803,0.35125667,0.38034424,-0.39733765,0.31408486,0.32814565,0.27125818,0.40470088,0.28157064,-0.399011,-0.40404087,0.29666257,0.43508783,-0.34499875,-0.17514192,-0.32385188,-0.32143953,-0.26402512,0.27213508,-0.4546153,-0.3086893,0.37864476,0.34226444,-0.57291543,-0.39436463,0.18175459,-0.31402978,-0.26259202,-0.2641931,-0.3979256,-0.23526393,-0.3105994,-0.27312672,0.27437493,0.2976795,-0.34588832,0.2989347,0.2918424,0.23672152,-0.41555035,0.26692164,0.21297671,0.37732872,-0.32723984,-0.27354628,0.2921603,-0.40117145,0.36517447,0.3874193,0.25412354,-0.31582493,0.38955048,-0.2747381,0.40832737,0.3089315
ENSP00000349722,0.3175692,0.37548035,-0.29629093,0.28992528,0.33052617,-0.33896923,-0.59003866,-0.2528168,-0.29314727,-0.36033052,0.35425872,-0.3588664,0.36714566,0.2666649,0.20558177,0.2876625,0.50440586,0.18976921,-0.40013298,0.26895773,-0.3264807,0.3777392,0.33153296,0.36250377,0.3365765,0.22961937,-0.46981788,-0.3142365,-0.29627106,0.32652134,-0.32682928,-0.33658618,0.29522613,0.3487065,-0.28809348,0.45760947,0.30813235,-0.3301689,-0.40327072,0.3098236,-0.3147693,-0.2359797,0.3267187,0.36311767,-0.3556418,0.47137356,0.34200615,0.35603204,-0.38782302,0.2522877,0.30611023,0.37304452,0.29648042,0.3828494,-0.3102513,-0.32336402,0.35607675,0.2749236,-0.35415038,-0.30199465,-0.31061015,-0.3154499,-0.31236908,0.4405728,-0.33404845,-0.3532616,0.2899329,0.33292827,-0.32258213,-0.32343563,0.31007323,-0.29702294,-0.36834025,-0.24196532,-0.25422665,-0.33630112,-0.29865676,-0.2724598,0.32970503,0.27255395,-0.28970915,0.33419463,0.2989468,0.28870112,-0.32205653,0.397604,0.25135985,0.5743702,-0.21659449,-0.25842068,0.3304089,-0.4547662,0.41712832,0.19521035,0.30336097,-0.38912842,0.41079456,-0.35691184,0.4451717,0.4073947
ENSP00000289316,0.35884315,0.38659418,-0.2912374,0.37409103,0.401081,-0.37597442,-0.36450064,-0.31225184,-0.29303786,-0.42125642,0.31808913,-0.34684533,0.36296147,0.3179132,0.36463326,0.33734423,0.33310008,0.3355998,-0.32047257,0.3324729,-0.32096493,0.38476667,0.3449944,0.3234826,0.28340098,0.34737304,-0.3635257,-0.36630768,-0.31756803,0.3210312,-0.36176696,-0.34894803,0.3441244,0.34434503,-0.40219766,0.3037916,0.33446732,-0.1959117,-0.2956233,0.2679758,-0.2948981,-0.33653763,0.35356668,0.3451814,-0.39999688,0.26702255,0.34613377,0.32376432,-0.40740123,0.39525837,0.25907043,0.3487994,0.34381008,0.33321682,-0.33852684,-0.3665468,0.35743514,0.3941658,-0.33836064,-0.25910223,-0.32588634,-0.3079569,-0.28145522,0.33364785,-0.39844415,-0.3046747,0.28489962,0.2907802,-0.41903082,-0.35205498,0.33422875,-0.32058427,-0.31488174,-0.3116946,-0.2866578,-0.27054468,-0.33265072,-0.39400923,0.31724975,0.36245045,-0.42868745,0.3053868,0.3579735,0.29720318,-0.30956337,0.3011976,0.33496025,0.33346924,-0.34022924,-0.28103915,0.36475363,-0.35208416,0.33638054,0.3626258,0.3574943,-0.2907432,0.36058363,-0.29597655,0.34292066,0.37322834
ENSP00000230640,0.20883377,0.31844497,-0.22738048,0.4079858,0.34070593,-0.35999742,-0.34485757,-0.32340258,-0.25047395,-0.44426417,0.33385512,-0.34532937,0.3344199,0.31757084,0.25955564,0.32644022,0.44411916,0.2997068,-0.23893256,0.3110288,-0.39374456,0.3669065,0.30140796,0.34692132,0.24943607,0.31316912,-0.6963275,-0.32998723,-0.29293463,0.32043064,-0.3209788,-0.256948,0.33226365,0.3218943,-0.23169248,0.26638836,0.36375004,-0.23825881,-0.32270798,0.37986642,-0.33626863,-0.26663092,0.3789716,0.29968002,-0.32635438,0.25813824,0.23915423,0.29566187,-0.32439315,0.33464226,0.2851945,0.42221805,0.36442003,0.40373474,-0.3079735,-0.32401282,0.34008172,0.3151597,-0.30262974,-0.21803975,-0.36830884,-0.33105275,-0.26718053,0.28320372,-0.3557624,-0.30024555,0.2887147,0.38335598,-0.49076173,-0.2714987,0.33186603,-0.26296005,-0.35534784,-0.29904318,-0.34100756,-0.26486465,-0.30346316,-0.35018927,0.2850273,0.37957135,-0.39658907,0.31600735,0.31131688,0.34342295,-0.2859228,0.20773113,0.31153148,0.35478464,-0.3219387,-0.29053062,0.30306473,-0.3521165,0.3028816,0.30757183,0.36385402,-0.26291826,0.2450275,-0.26127684,0.30147094,0.40455928
ENSP00000358151,0.34734574,0.39668664,-0.4448158,0.30961546,0.36209717,-0.3874984,-0.4172027,-0.33610904,-0.23915496,-0.35406074,0.3180476,-0.37325495,0.390378,0.32337213,0.3463148,0.34587175,0.32487983,0.27917224,-0.3135477,0.31666937,-0.37110487,0.31657147,0.2962292,0.31808248,0.33016413,0.41409788,-0.4342706,-0.26421598,-0.41616997,0.28851637,-0.38804454,-0.33155075,0.31685066,0.22498898,-0.45480508,0.38146237,0.42331222,-0.14475146,-0.31336528,0.31836635,-0.2998916,-0.27280438,0.37147212,0.29372123,-0.4050797,0.39942306,0.35296428,0.34754714,-0.3966293,0.40328926,0.33272117,0.3157569,0.30471322,0.33576643,-0.3583528,-0.31891397,0.3981911,0.34717336,-0.2995354,-0.21342357,-0.35988745,-0.2970396,-0.35479707,0.31244504,-0.4214184,-0.255265,0.374625,0.40613696,-0.4387939,-0.312017,0.21359569,-0.2836611,-0.30799824,-0.3373081,-0.29338446,-0.24260399,-0.31553605,-0.3864984,0.3100144,0.41879633,-0.46647856,0.26042372,0.26453122,0.29090172,-0.4181015,0.2168813,0.209167,0.40922958,-0.28719422,-0.2210485,0.41857,-0.35165456,0.38383743,0.32503948,0.33433002,-0.34416744,0.4116577,-0.24558684,0.34310225,0.22917882
ENSP00000385675,0.39079884,0.37105086,-0.26612574,0.31813633,0.26499167,-0.32769594,-0.40146077,-0.27695423,-0.36814824,-0.331556,0.27199352,-0.3775006,0.35595074,0.34484947,0.4056165,0.36831748,0.30728886,0.31872013,-0.33854222,0.32864538,-0.34870595,0.31016117,0.36027476,0.32648593,0.33248746,0.24084567,-0.36322147,-0.37446034,-0.2866179,0.42563987,-0.3439221,-0.3944135,0.30958265,0.35715017,-0.30466044,0.4877044,0.26452306,-0.30263358,-0.3689732,0.27685264,-0.35594553,-0.33927697,0.33850905,0.40459117,-0.29803705,0.3874415,0.40041593,0.30859798,-0.3561082,0.37474504,0.31372458,0.26623923,0.35474056,0.3535038,-0.25874048,-0.28119648,0.35057247,0.22997743,-0.33959016,-0.301459,-0.2806945,-0.33461422,-0.31697217,0.401822,-0.36381447,-0.27797818,0.36156103,0.33186567,-0.30654058,-0.28948578,0.29549822,-0.29101858,-0.3388081,-0.2757701,-0.3811207,-0.29964498,-0.33475918,-0.41123307,0.36852872,0.3943905,-0.4418146,0.37307626,0.2793576,0.31308666,-0.40667707,0.29341573,0.25602844,0.42679766,-0.37563348,-0.33517992,0.33020294,-0.33971274,0.33129522,0.26317224,0.33755973,-0.40516198,0.39201736,-0.38108465,0.36892322,0.27738708
ENSP00000407586,0.3553377,0.34212983,-0.2946581,0.40048245,0.27515113,-0.29507852,-0.30487448,-0.38022864,-0.3435267,-0.2930203,0.35133928,-0.41132176,0.3587488,0.2877081,0.29885244,0.35591996,0.27744174,0.31957093,-0.29155442,0.3884342,-0.268704,0.33595484,0.36639822,0.36401626,0.30377638,0.40341052,-0.39793503,-0.26995662,-0.34348184,0.39197472,-0.3460639,-0.3226808,0.31399977,0.33207735,-0.38239256,0.4489136,0.30731964,-0.3585716,-0.2635795,0.2769001,-0.31064463,-0.292278,0.30610654,0.3144146,-0.33070722,0.44153583,0.27182338,0.29545215,-0.3521728,0.32759574,0.3520265,0.33653644,0.35907057,0.3554425,-0.2975979,-0.29318175,0.275044,0.39960873,-0.40626377,-0.3319723,-0.34710586,-0.2813901,-0.4407451,0.36770058,-0.35049233,-0.2945769,0.34292737,0.33959687,-0.31867936,-0.3518431,0.37449032,-0.30670628,-0.3133796,-0.3675969,-0.34937054,-0.28004327,-0.32013896,-0.3559168,0.4076322,0.38256326,-0.29468885,0.35257193,0.28854382,0.3598488,-0.3386914,0.33140156,0.3312832,0.37815183,-0.3843132,-0.3937538,0.3263844,-0.33618194,0.30619386,0.3089778,0.36351705,-0.29476836,0.3892304,-0.27439684,0.27794832,0.3791327
