ENSP00000000233,0.05089228,-0.062270407,-0.0012649447,0.0062112953,0.027341131,-0.06426723,0.0021430766,-0.048503958,0.021082534,0.031114317,-0.06325111,0.016900038,0.011390616,0.02926177,-0.03387228,-0.03173578,-0.020439573,-0.0038938755,-0.05671216,0.06510626,0.02794509,0.023751598,-0.00982116,0.004187852,-0.029121552,0.018720394,-0.027501766,-0.03819497,0.0022773407,-0.008505809,0.034332182,-0.0018389905,-0.020472642,-0.047637127,0.05541213,-0.050396167,-0.07334444,-0.030596936,-0.0033974885,-0.036392946,0.0453106,0.05872436,-0.069776215,-0.0026820116,0.055591546,-0.053426474,0.0150447115,0.019071408,0.04048228,-0.024840778,0.0050513525,-0.031346478,0.015197642,-0.006628574,-0.00058473647,0.046440322,-0.021950258,-0.06614324,-0.03216182,0.0021731104,0.031164408,0.06037911,-0.027015287,-0.00065174047,0.059825458,-0.0066223866,0.045831308,0.06991711,0.010151706,0.01671138,-0.04144411,-0.0014507528,-0.005151605,0.008401981,-0.020210892,-0.032361135,-0.0042768167,0.024045184,0.023008065,-0.05496519,-0.022959134,0.047624398,0.014614275,-0.039743412,-0.0040554563,-0.052277442,0.04160729,0.038638547,0.04506741,0.035500854,0.060647376,0.01693454,-0.009467256,0.07140027,-0.054565012,-0.015178081,0.035268903,0.0068159336,-0.016231602,0.039733347
ENSP00000272298,-0.0041167904,0.025034623,-0.036501914,-0.027830482,-0.015314201,0.03302305,-0.0047088824,-0.01122688,-0.057758704,-0.009250003,-0.057073496,0.064768426,-0.020528484,0.053729605,-0.00016675144,-0.06518244,0.0313919,-0.026433127,-0.015749788,0.0510742,0.031047255,0.0046530366,-0.038266502,-0.042628296,0.06262621,0.0054457774,-0.02016731,0.02195754,-0.020601721,-0.032056805,-0.009288518,-0.011546333,-0.005049873,0.06697676,0.019393507,0.0024267063,0.036062595,0.0004411582,-0.052967854,-0.033137083,0.00988447,0.06459573,-0.013503473,0.024990117,0.017093915,-0.037386846,0.0105317,0.033265945,-0.026151327,-0.055237137,0.0074935425,-0.07340161,0.0074734828,0.06899736,-0.022342961,-0.035102013,-0.010602614,0.015539417,-0.053091798,-0.03127675,-0.012224706,-0.003902601,0.05460469,0.0366857,-0.034860525,0.034144178,0.022149188,-0.009849456,0.019005496,-0.054662373,0.009420683,-0.042979594,-0.012937162,-0.042514443,0.007909289,-0.008708922,0.010363382,0.028182361,0.056887984,-0.020090846,0.032579206,-0.009466386,0.041561037,0.021542802,0.009078157,0.060850598,0.012913324,0.05453624,0.021649657,-0.034866244,0.034015983,0.078450575,-0.020197198,0.07433571,0.037853952,-0.004475265,0.010153934,0.042454608,-0.054028537,-0.022116492
ENSP00000256682,-0.00039418368,-0.000715934,0.025900021,-0.03355802,0.0276721,0.0026383325,0.049540255,0.028367613,-0.033008233,-0.004781212,-0.038088672,0.065798394,-0.019038748,0.038239628,0.032343127,0.020647312,0.016598513,-0.017842405,-0.058662497,0.040406685,-0.015957799,0.026514024,-0.010424383,-0.0046320744,-0.02391718,-0.036076374,-0.025836462,0.025243016,0.025623456,0.0055132704,0.056240525,0.03172477,-0.024561536,-0.0011091325,-0.009501552,0.00095917843,0.005572006,0.013026461,1.4701858e-05,-0.05702124,0.023103748,0.011639188,-0.051372796,0.019559506,-0.039738193,-0.053165562,-0.04391315,-0.010193072,0.05445803,0.02904598,-0.017919539,0.014974501,0.020670986,-0.02837643,0.04945406,-0.017695898,-0.0027993415,0.015902694,0.04952525,0.02307843,-0.012531724,0.060896322,0.038311,-0.0114131225,-0.023651924,-0.014156701,0.027659772,0.075489305,0.035133228,0.007886377,0.036199365,0.071507365,0.01652383,0.020078573,0.0008182783,0.025912102,0.0336064,0.000994246,0.05516489,-0.054761317,0.061279118,-0.037428632,-0.023249142,-0.037465576,-0.01568512,-0.046219677,0.068415366,-0.015758174,-0.0063017895,-0.00058713555,0.009587749,-0.027559925,-0.016241437,0.05178889,-0.011296165,0.021849364,-0.009204402,0.004962745,0.012112424,0.039369993
ENSP00000262812,0.03282155,-0.01223823,-0.052611355,-0.052367985,0.071829766,-0.029232077,0.036673833,0.015239297,0.017487034,-0.0016339498,-0.028525751,-0.025577199,0.011074975,-0.022966243,-0.02357002,-0.02857922,0.009427698,0.018965002,-0.04293141,-0.0013988493,-4.7640875e-05,0.001922518,0.05138114,-0.042335507,-0.03094505,-0.05219856,-0.02035856,0.012405212,-0.05282606,0.041520037,-0.017097432,-0.020107638,0.043361228,0.013418292,0.030427087,-0.02562645,-0.032211076,0.00094370404,0.0024345499,-0.032321166,0.04911395,0.03999567,-0.06406676,-0.053069174,0.05479736,-0.017455276,-0.055542763,0.020540822,-0.0033264728,0.043829948,0.000694453,0.009705296,-0.03260711,-0.013191068,0.05015996,0.034965575,-0.06133979,0.0011699251,-0.0034604492,-0.0461169,0.0236924,0.052390974,0.024536509,0.001858654,0.06563953,-0.020298043,0.07027405,0.046726108,0.028316755,0.008190812,-0.03108301,-0.020187393,-0.053571872,0.005235673,-0.011414301,-0.007953096,-0.0015596664,-0.0049565965,-0.034160703,-0.0049308483,0.033835266,0.012214909,0.0072362814,0.036199424,-0.00754162,-0.055394825,0.0577013,-0.008450954,-0.045633417,-0.028737968,0.005830133,-0.052880086,-0.01899178,-0.0041485406,-0.038831003,-0.04325116,0.048396386,0.032266483,0.02600696,0.039879877
ENSP00000266376,-0.008062136,-0.04593159,-0.033385452,0.0687624,-0.07104101,0.024792627,0.017756188,-0.010299659,-0.03623922,0.0022463696,0.011416725,0.018174326,0.07141313,0.058411483,-0.030554924,0.026572287,0.035846107,0.012063987,0.07359176,-0.030637259,-0.068594664,-0.04355202,0.012737206,0.0288089,0.074206635,-0.046940573,-0.04627949,-0.03794456,-0.045648992,0.01743536,-0.028824095,0.073532626,-0.040842198,-0.017055098,-0.01442375,0.03994793,-0.020222865,-0.013368512,-0.0248522,-0.044980682,0.022396252,0.0120753795,0.009312176,0.025223581,-0.0039803125,-0.0056983205,0.023952968,0.024059186,-0.010438809,-0.028247723,-0.0054057427,-0.04150568,-0.029770352,0.018551996,-0.07323976,-0.04215116,0.017041458,0.0142741185,-0.050739072,0.016750136,-0.036513902,-0.019183684,0.0327901,-0.044723332,-0.009828683,0.04296103,-0.013395029,0.025525156,-0.06276605,0.0041255215,-0.030269433,0.009574994,0.014300029,-0.023613585,0.033847407,-0.0040113833,0.07691999,-0.05757439,0.056051273,0.005810666,0.03271576,0.014376199,0.022183426,-0.013309419,0.011948078,0.073536575,0.003472785,0.0074631884,0.037981432,-0.03609937,0.038783178,0.069391295,0.042435948,0.031366687,-0.003992442,0.011227394,-0.0023182516,0.030958652,-0.007048565,0.007965906
ENSP00000297494,-0.06947853,-0.027133707,-0.010720371,0.038301967,-0.045691103,-0.0048597287,0.060042776,-0.04888596,0.021305699,-0.0011915569,-0.048116833,-3.2090116e-05,0.0065767905,0.057675213,-0.02937259,-0.029943747,0.056016408,-0.061050884,-0.017764533,0.053428125,-0.026342593,0.013409241,3.7704594e-05,-0.017438326,0.0082764365,-0.024878234,0.0013377299,0.021468591,-0.0077496306,0.021337345,-0.017709821,0.0341044,0.012458314,0.039545875,-0.043652844,0.022813682,0.04076051,-0.015975416,-0.07598311,0.018469505,0.023188293,0.029299157,0.02940735,0.00029037707,0.013380143,-0.049207587,-0.04716579,0.04165344,0.06144577,-0.036255952,0.0015931247,-0.04415553,-0.0491672,-0.016819509,-0.0041844975,-0.048372272,-0.0026977034,-0.0036024053,0.031131294,-0.062312696,-0.04264944,-0.028879924,0.017247438,-0.036377925,-0.007006456,0.015205216,0.009257978,0.026770458,0.03563408,-0.0633791,-0.018581487,0.017014602,-0.0179824,-0.024220517,0.027359907,0.03565872,0.029351316,-0.064521536,0.020102266,-0.022224523,0.0058087152,-0.01377838,-0.034282494,-0.049194448,0.06789187,0.040997744,0.052683048,0.022815557,0.06093011,0.021118183,0.057195645,0.025334489,0.01984835,-0.017235927,0.04843308,-0.013973592,0.06186617,-0.011014478,-0.040910915,0.048765987
ENSP00000320821,-0.004585539,0.009838375,0.031597633,0.00012484519,0.0264595,-0.0017917324,0.06899053,-0.011378162,-0.005217444,-0.031175662,0.0076955473,0.06302365,0.044628218,0.03453791,0.040638506,0.01169034,0.0036513023,-0.06507634,0.028066382,0.04280687,-0.019324675,0.041116793,-0.025167042,-0.019006629,0.030899413,-0.04135128,-0.011966883,0.002613184,-0.053403556,0.026304396,-0.0041172495,0.04355192,0.011700875,-0.072040066,0.001260858,-0.009494006,-0.026076874,-0.002015025,-0.008052437,0.014258396,0.052290693,-0.024520509,-0.023772838,0.008753292,0.027195979,0.0065583987,-0.018982831,0.033995844,0.0015014643,0.044551797,0.027823426,0.022025323,0.037256416,-0.0067677405,-0.033549856,0.047365338,-0.07006036,-0.0075484687,0.018479735,-0.049289215,-0.013758164,0.060240295,0.026089754,-0.0512354,-0.01692099,-0.03458699,0.031353325,0.0567333,0.0032968936,0.070695415,-0.017621543,0.041670203,-0.024501905,0.03330048,-0.04073755,-0.0020890543,0.017494809,-0.006689459,-0.025680222,-0.017178245,-0.010534938,0.04850257,-0.002229996,0.035352807,0.047354117,-0.050616544,0.04776344,0.03492062,-0.0074379826,-0.025010569,0.044093188,0.0002664465,0.043300956,-0.017484069,-0.008735845,0.0053405357,0.065665625,-0.017460432,0.020542286,-0.020535458
ENSP00000349259,0.040302567,-0.06233298,-0.03314194,0.020627517,-0.020167015,-0.00206684,0.043983653,-0.054874547,-0.011804746,-0.046652026,0.00041314284,0.07078585,-0.016314972,0.03398641,0.053494286,-0.028322607,-0.011323774,-0.036151033,-0.026221897,0.06009105,0.01836181,-0.011785555,-0.010357115,-0.057143226,-0.0334998,0.022493104,-0.020466726,-0.07221324,-0.0074050734,-0.0039221887,0.024879983,0.022467507,-0.023335047,0.0031409757,0.03632688,-0.068613544,-0.061265633,-0.033000156,0.016518181,-0.061273802,0.01382143,-0.0003456357,-0.023496384,-0.038136788,0.00052280165,0.022281576,-0.0011974196,-0.015271369,-0.033298366,0.032636546,-0.0037173596,-0.07679955,0.058704734,-0.055268846,-0.008432062,0.0055807154,0.036007468,-0.06286674,0.0010567349,-0.0019534288,0.05850022,0.042267185,0.057557676,-0.020599764,0.059708502,-0.026563697,0.044439048,0.07255968,-0.0050873086,0.037564177,0.044641748,-0.0042128908,-0.03281784,0.009832607,0.049943596,-0.030476544,0.015824571,-0.03397005,0.06571808,-0.06680466,0.0027563742,-0.025058247,0.024716381,0.0037684562,0.041524984,-0.07577152,0.06453415,0.054064635,0.04279557,0.06566224,0.019770443,-0.05036804,-0.021798657,-0.010869313,0.016918726,0.051178,-0.009309098,-0.00013764063,0.0021257363,0.01756452
ENSP00000355645,0.0070982175,0.02054012,-0.01612181,0.0169284,-0.00035441713,0.053318642,0.06994856,0.015572242,-0.035708938,0.026497982,-0.026699474,0.028609134,0.063703395,0.05998443,-0.040036224,0.026630433,0.047619794,-0.07161853,0.045796443,0.008877949,-0.059867296,-0.0065468857,-0.06860499,-0.005974939,0.065432504,0.036612675,-0.044600744,0.027307529,-0.050937176,0.0017766703,0.05757654,-0.008972866,0.008077659,0.044756923,0.0093502235,-0.017651016,0.0014090403,-0.05054285,-0.033581693,-0.04370408,-0.018767983,0.0070688683,0.006346977,0.031821422,0.03168861,-0.0050359373,0.042077392,0.033078052,0.035167225,-0.027182765,0.041480664,-0.025617111,-0.033473544,0.060500745,0.005213207,0.023025911,-0.0077077504,0.0013719765,-0.026379257,-0.0021322267,-0.017391708,0.039818265,0.033442177,-0.030404897,0.00974728,0.04430777,-0.0033093852,-0.0075516487,-0.03345465,-0.02702925,0.01907467,-0.002975909,-0.0057182135,-0.064487934,0.023612129,-0.037220392,0.0629638,-0.040332094,-0.011118257,0.019967342,0.010046057,0.018269902,1.8698163e-05,0.008378785,0.03761508,-0.021134172,0.034249507,0.020238249,0.007339731,0.057914197,0.016218374,0.010468076,0.043220643,0.017992385,-0.03559272,0.011191274,0.042811442,-0.010456781,-0.04409958,0.04827869
ENSP00000361057,-0.02401847,0.01522036,-0.014638272,0.0054749995,0.017066225,0.011906818,0.021119516,-0.025590345,-0.033914316,0.06222828,0.022673896,-0.0003601471,-0.024653964,-0.017366325,0.0088422,0.004039163,0.023463937,0.018106647,0.015353754,0.034922317,-0.012619621,0.00650054,-0.013337806,0.022730246,0.06146131,0.00072322553,0.050537933,0.0076373373,0.016260635,0.022177061,-0.024481649,0.051942296,0.03318168,-0.056382544,0.0054992493,-0.04164767,0.016266204,-0.061412215,-0.035971057,0.018736672,-0.022945644,-0.008980437,-0.054993488,-0.006269978,0.0030116355,-0.038032833,0.026931796,-0.012995443,0.07620027,0.030550838,0.058003146,-0.07371995,-0.0011382088,0.0026206952,0.04643475,0.04818161,-0.03324745,0.013582717,0.053653438,-0.041852552,0.021593584,0.003567941,0.029306533,0.0010352675,0.039730623,-0.041399237,0.046071295,0.06813739,0.016447099,0.07016823,0.04390514,0.0033250852,-0.031633247,0.022236697,-0.032513972,-0.040716134,0.03361012,-0.03985777,0.03729462,-0.051528953,0.01518675,0.0074741286,0.018192299,-0.014882845,0.046166755,0.009184292,0.06655387,0.021814462,0.056523856,0.0055539096,0.03139755,-0.03336697,-0.030769695,-0.012600638,-0.06685443,-0.008121828,0.052085392,-0.016544066,0.048503693,-0.022823175
ENSP00000379191,0.02171094,-0.06867189,-0.031895466,-0.044912815,0.03180143,-0.06392627,-0.0149652455,0.011461258,0.03212808,0.010856612,0.02337294,0.014326077,-0.044905465,0.044910524,-0.003014993,-0.010679202,-0.0069487942,-0.02283359,-0.030041333,0.047827147,-0.028877243,-0.031592537,-0.016170193,-0.024087342,-0.05067726,0.014915945,-0.021237737,-0.008075883,-0.0640978,-0.0059490846,0.038490426,0.016932514,0.006391202,0.025929274,0.0024957983,-0.079821944,-0.07498499,0.0043601594,0.02468619,-0.037524823,-0.019435398,0.024213783,-0.032994695,-0.012373945,0.024367932,-0.024274148,-0.023075426,-0.030324485,0.026478136,-0.012245016,0.059618913,-0.018124707,-0.016455112,0.022099718,0.0603961,-0.0124768615,0.039798535,-0.06869493,0.009759564,0.013212343,0.0015923264,0.0029541887,0.0637822,-0.06717787,0.022806754,-0.05675824,0.043610323,0.0019123582,-0.018447801,0.01920632,0.053082954,0.008409597,-0.051584356,0.0023256205,0.025566544,-0.01800947,0.010028016,0.02619132,0.029097969,-0.011357959,-0.017471327,0.009891732,0.016868636,-0.022183467,0.06543799,-0.01751495,0.02046898,0.05100574,-0.023648085,-0.008320799,-0.006008411,-0.002773732,0.016555792,0.002256371,-0.013252996,-0.010135115,0.063922495,0.04142706,0.0060526705,0.041229658
ENSP00000388878,-0.021703076,0.0028789472,0.044398636,-0.016417101,-0.0073202285,0.00059095956,0.06001058,0.019132737,-0.036151346,-0.012536403,-0.072778665,-0.016643714,-0.032796405,-0.016202899,-0.021494625,-0.018239887,0.024565581,0.01451072,-0.0035221456,0.06085493,0.0026705954,-0.035046786,0.032948513,0.019868176,0.057705622,0.010748382,-0.030404294,-0.01964083,-0.024049003,0.010187922,0.049880736,0.074576885,-0.01264729,0.0059700366,0.04013149,-0.053115048,-0.029996235,-0.0046833395,0.02472267,0.023643177,0.027337756,-0.024692992,-0.032517925,-0.018206727,-0.0398704,-0.06751046,0.026336007,-0.016360762,0.05969455,0.06419311,0.037931886,-0.010467945,0.06134643,-0.009312441,0.008491094,0.0026323805,-0.047844186,0.00093479594,0.053290635,-0.023091685,0.055743877,0.029900242,0.0050643794,-0.032863095,0.058931164,-0.03170483,0.011670279,0.017441263,-0.00877208,-0.01079465,0.033299066,0.03525344,0.030009657,-0.017068308,-0.010226974,-0.028029408,-0.032257214,-0.05905707,0.022905994,0.014487821,0.04191619,-0.04369595,-0.045246623,-0.0052809315,-0.020357473,0.019964736,0.041328676,-0.015257765,0.00068849535,-0.025238384,0.057478078,-0.003930956,0.01174344,0.025658995,-0.034276735,0.04168942,-0.020547867,0.0651073,0.04569787,0.026461467
ENSP00000408979,0.023477456,-0.048877966,-0.0023290822,-0.063183226,0.0686073,-0.050967887,-0.0035118833,-0.030079424,-0.01828471,-0.01125633,0.020263515,0.047117084,-0.04344543,-0.031540096,0.050357256,-0.028132707,0.034520064,-0.075367816,0.0052108755,0.016238626,0.025242392,-0.021088196,-0.011846192,-0.011316093,0.02303775,0.017188154,0.017989058,-0.01566765,-0.0550518,-0.012821928,-0.03844402,-0.02244172,-0.033977598,-0.009371106,0.004628242,-0.0063409936,-0.022249393,-0.008438423,0.027270125,-0.05610135,0.0004024394,-0.03303709,-0.048480045,-0.038610164,0.03408563,-0.019434953,-0.027494734,0.079063736,-0.018998738,-0.019609418,0.033301197,-0.058269285,0.05575178,-0.013573692,-0.0012634993,-0.021578066,-0.05188322,-0.01011838,-0.004790871,-0.029162828,0.043522157,0.029753186,-0.020210937,-0.012766011,0.009542169,0.013604269,0.060337305,0.066733494,0.04539149,0.041238997,0.044304892,0.0018209661,0.020357797,-2.7853996e-05,0.029688375,-0.015524025,-0.0018463456,-0.042036563,-0.015420271,-0.008809123,0.01802348,0.027431414,-0.031419843,0.021591239,0.07287566,0.0028364793,0.065529056,0.04457113,0.036978815,0.026386548,0.07492537,-0.021141486,-0.017329926,0.06945156,-0.04599657,-0.005127604,0.040484596,0.038725093,0.053486127,0.05824607
ENSP00000463393,0.03518083,-0.0638888,0.03343991,-0.00082190614,0.06351475,0.018345898,0.009542372,0.031296074,-0.047331516,-0.027622588,-0.023502935,0.00074403593,-0.032139815,-0.010832052,0.011302287,-0.008588107,-0.0067335404,0.004438664,-0.027793922,0.03400697,0.026410772,0.010885158,0.029820127,-0.053469278,-0.02222395,-0.032778848,-0.03595631,-0.01876991,-0.023614053,0.001637687,0.017571768,0.045482885,0.06040834,-0.053823717,0.072930135,0.011155812,-0.03377687,-0.06021798,0.016546883,0.015403791,0.0048742746,-0.010471695,0.008572452,-0.031512387,-0.021808453,0.027305877,-0.061458837,0.07292042,-0.0006440487,0.0011984105,-0.0032249028,-0.014595217,0.05143347,-0.022415712,-0.031450666,0.010880753,-0.021955315,0.02435709,0.043179356,-0.011151069,0.014901808,-0.018261798,0.059366062,-0.054993935,-0.009712435,-0.0071514724,-0.012928831,0.062156938,0.012615301,-0.0025870083,0.0091063185,0.071095295,0.018275468,0.009746223,0.017231107,0.015320865,0.013211649,-0.06001569,0.044554077,0.017436357,0.003334271,0.014398941,0.056141302,-0.021945762,0.05011157,0.0057855127,-0.013226407,-0.031730585,0.054997053,-0.025689084,-0.0106154885,-0.055300314,-0.010678962,0.020738719,-0.03869522,-0.008529282,0.0031359515,0.03864396,0.05697474,0.0073570195
ENSP00000222547,0.04980504,-0.050842136,0.011516259,-0.073736645,0.043775804,-0.018978097,-0.017901354,-0.023496058,-0.021610655,0.06601972,0.0068265703,-0.010861317,0.027535371,-0.0014333497,-0.0016247057,-0.010698797,0.0065082344,0.022249363,-0.06940377,0.06988674,0.014625398,-0.019117452,-0.023824077,-0.00532153,-0.026227226,0.03907918,0.01668686,-0.06408747,-0.003254353,-0.027744586,0.023055382,-0.0023644185,0.044303082,0.0072235055,-0.0064793425,-0.027094962,-0.06758796,0.0051195063,0.055736333,-0.056684367,0.004729841,0.044446975,-0.01654029,-0.03443408,0.03406286,0.004697372,-0.041501697,0.0590425,0.07062727,0.059155837,-0.003920683,-0.035552952,0.049214173,0.032630756,-0.019295491,0.021337796,-0.06040072,-0.04797726,0.048083052,0.03272962,0.027700067,0.040967483,-0.0047561005,-0.032092094,0.04274839,0.013115396,0.03449665,-0.0011462141,0.019220997,0.067006394,0.027749874,0.01860728,0.0023018809,-0.012809498,0.039120752,0.043467037,0.027519776,-0.027313588,-0.0057978537,-0.053461567,0.050752215,-0.018303592,0.044629876,-0.015058672,0.028949268,-0.008048134,0.06939845,-0.020020077,-0.037664972,0.048014656,-0.01687404,-0.0048188535,-0.012611384,0.011297707,-0.055504363,-0.02146266,0.027750112,-0.019176401,0.036681104,0.024583798
ENSP00000260363,0.0031485865,0.014456743,0.040057495,-0.011921816,0.04215089,-0.00016762828,0.062832855,-0.023287494,0.019825876,0.002318329,0.017845899,0.036500048,-0.002179685,0.047152642,-0.02478744,0.005069766,-0.028644718,0.015422685,0.019351363,0.065997094,0.067857,-0.024927385,0.009878418,-0.009932813,-0.0194166,0.041851707,0.029479364,-0.010424577,-0.06659188,0.04023824,0.036027733,-0.024555745,0.044995774,0.018406961,0.006227566,-0.059910625,-0.06896884,-0.0018255599,-0.031218527,0.02855077,-0.008104331,0.037885394,0.020928802,-0.008942948,0.029364236,-0.03425104,-0.009715892,0.057327233,-0.02500638,0.071342565,-0.0026029884,-0.04299115,-0.014694625,-0.040315233,0.027066348,0.011511059,-0.0010938216,0.012764765,0.007630612,0.0011932992,0.04062863,0.054506786,-0.01868879,0.003254864,-0.019796094,-0.0049674613,0.00752706,0.039011277,0.032598723,0.06714214,-0.020817723,0.024699155,-0.043880522,0.024751697,0.01379206,-0.012046565,0.03546508,-0.050700095,0.012759231,-0.060222123,-0.007104932,-0.008861885,-0.005525462,-0.024153836,-0.0025932076,-0.039392557,0.071668155,0.032295626,0.0627631,0.0099997,0.06877984,-0.031132847,-0.01723584,0.022813944,-0.06761848,0.0037795193,0.06828777,0.02916796,0.07346683,0.04628496
ENSP00000263980,-0.02669627,-0.04977428,0.010178723,0.05119435,-0.067484856,-0.010841538,0.0671303,-0.07882714,0.00090106344,-0.014540952,-0.03269531,-0.0026618913,0.028776111,0.03295357,-0.0026685433,0.008874153,0.04474436,0.013536742,0.04226606,-0.0037319134,-0.042507302,0.020553768,-0.039084353,-0.0458467,0.04209941,-0.05665409,0.014899312,-0.05338331,-0.0601538,-0.02379071,0.0024913708,0.048705533,-0.037398294,0.044976056,-0.0048516784,-0.009874578,0.04219587,-0.024584621,-0.023247711,-0.045382336,0.029962322,0.03975054,0.011395117,0.049501725,0.055617083,-0.053356707,0.021516478,0.056697875,-0.0025672326,-0.055777602,0.041699838,-0.06877364,0.02459548,0.057782255,-0.066977486,-0.03579978,0.069352046,-0.049571883,0.008106572,-0.015759492,-0.040040366,0.044447325,-0.008649805,-0.00718009,-0.017730208,-0.017811917,-0.03644763,0.041918263,-0.05684697,0.018120524,-0.037316393,-0.06759214,-0.047995392,-0.025969714,0.027684176,0.06807274,0.06588175,0.0024266997,-0.0026112096,0.0010624302,-0.03580127,0.04463913,0.024424363,-0.049754605,-0.026771897,0.042212054,0.035689633,0.05866046,-0.029229892,0.006893351,-0.008677994,-0.0035491576,0.020708663,0.02414454,-0.031538483,-0.04142837,0.037548155,-0.014413017,-0.04021907,0.03906835
ENSP00000282356,0.0094189765,0.008193372,-0.06325083,-0.016957663,0.027944509,0.022871526,0.046645924,-0.07828603,-0.0055255806,0.035740577,-0.005002921,0.0710977,0.004341724,-0.0009476659,-0.0060827197,-0.039395552,0.015432418,-0.025370233,-0.0006142147,0.015391011,0.014924209,0.010827105,-0.03792207,0.03350403,-0.00034247478,0.015157023,-0.045479186,0.024477713,0.0020191167,-0.012672614,0.049992118,0.027841967,-0.024471503,0.067463785,0.0245911,-0.006764039,0.067119956,-0.047515884,-0.0024680616,-0.059485484,-0.015317308,0.010567743,-0.00296449,-0.007359289,-0.028242042,-0.039833143,0.03199114,-0.011927474,0.0528857,0.018888347,-0.02859974,0.005960935,0.034985892,0.06477739,-0.02799328,-0.05675619,0.011222719,0.010353126,0.016030507,-0.038397916,-0.056823436,-0.013508009,0.047268566,-0.057830177,0.020192703,0.054977126,-0.039644185,0.0572661,0.015673349,-0.048621435,0.025383513,-0.0030972818,-0.0030325428,0.02702363,-0.0010259544,-0.011007598,-0.004186877,-0.0637388,-0.02772148,0.000754231,-0.042361226,0.00500072,0.017377734,0.012360592,-0.01566907,0.0143560255,-0.0056883977,-0.015516359,0.042563383,0.022238487,-0.022155905,0.024362858,1.1024065e-05,-0.024283204,-0.0014590407,-0.0051643867,0.02471368,0.00023334008,-0.021310903,0.024049805
ENSP00000307078,-0.0118748695,-0.0055247475,0.021853518,-0.06900849,0.0015875758,-0.064574234,0.07009762,-0.0022920622,0.0070232553,0.0069036563,0.0037491673,0.013637548,0.046763018,-0.008884065,0.00347743,-0.01717466,0.010205256,-0.044955794,0.020850424,0.059447385,0.059630234,0.030953646,0.05552952,-0.009709915,-0.009704871,0.02223691,0.015109093,0.0028378144,-0.015916882,-0.0058599664,0.012439958,0.046013243,-0.033632785,-0.050005514,0.07283548,-0.060522478,-0.004242306,-0.068066254,0.01806477,-0.05585038,-0.02901473,0.044175792,0.017147895,0.029486194,0.036853645,-0.066076905,-0.050906394,0.074611776,0.058161702,0.043846443,0.029921593,-0.07602371,0.03042135,-0.003837889,0.03684623,0.04593916,-0.012613764,-0.06974046,-0.019105442,-0.05729454,0.0441073,-0.00946526,0.044860795,0.0030522635,0.011176765,-0.02572534,-0.016843706,0.0108653875,0.008653671,0.011253087,0.02542434,-1.0437099e-05,-0.002627654,0.015734687,-0.017771417,0.018132176,0.034175016,-0.00015322026,-0.0018122443,-0.059550006,0.053167377,-0.039514873,-0.023864686,0.010629021,-0.008811632,-0.05588732,-0.016664159,0.035992384,-0.018376948,0.05253311,0.011409964,-0.013884011,0.030264392,0.015949003,-0.025063388,-0.021747094,0.0164297,0.01811762,-0.006281132,-0.022903522
ENSP00000330945,-0.0064630033,0.007445518,-0.018647447,-0.06020589,0.01591178,-0.076863736,0.057133302,0.032679766,0.02841565,0.011835798,-0.0117504,0.011202602,0.040806126,0.04325444,0.043114305,0.02123329,0.00956063,-0.012413829,0.009484402,-0.002758244,0.07765169,-0.009364951,-0.031986296,-0.03777661,0.0048952466,-0.04672538,-0.04392209,-0.0391383,-0.00040928088,-0.01984096,0.060246676,0.010312929,0.026100794,-0.006633722,-0.017058436,0.0006104307,0.010879642,-0.04590352,-0.039115235,-0.04941878,0.019727455,0.03491153,-0.02592444,-0.05461532,0.004390263,0.0093092425,-0.06913353,-0.03724368,0.05455896,0.06593772,0.05129513,-0.047943816,0.058004536,-0.011361882,0.029729303,0.005920929,-0.054579794,-0.036319215,-0.016737415,-0.01347056,0.045154076,0.049999315,0.06903903,0.018248066,0.029927762,-0.018578429,0.06001055,0.06084151,0.07359189,0.022047758,0.05464263,0.05600066,-0.042507574,0.0148188835,0.04959365,0.043380972,0.011824186,-0.018275565,0.054795045,0.015992887,0.010165127,0.031030394,0.0030675167,-0.016732888,0.06986432,-0.009356896,0.044254635,0.016068896,0.052357282,0.070765115,0.055959463,-0.011578782,-0.01805835,0.004413706,-0.04192593,-0.047213048,0.012952215,-0.0021888409,0.040295295,0.06585865
ENSP00000353452,-0.010177317,0.0043225223,-0.05744569,-0.00076399744,-0.051255614,0.043057323,0.059015695,-0.047040373,-0.059204012,0.048474588,-0.043835,0.07539709,0.005557411,-0.019761834,0.015213758,-0.0029329779,0.0648174,-0.05599333,0.048072383,0.035380226,0.00432959,-0.017915655,-0.05979824,-0.007602279,0.018237986,-0.051676065,-0.039994158,0.0046910737,0.004375633,-0.050491966,0.012139694,0.024017394,-0.07702796,-0.00080181984,-0.037430465,0.02953556,0.030004457,0.012970654,-0.007367367,-0.023505842,-0.034397807,-0.026458953,0.07156296,0.04955656,-0.03486889,0.018880628,0.04737387,0.0020261966,-0.02508305,-0.056555256,-0.02526448,0.00650178,-0.0047364775,0.03593503,-0.07689561,-0.031323407,0.054587606,-0.015841614,0.030561032,0.020869046,-0.028302759,-0.03283813,0.024697986,0.008065784,0.048390213,-5.266629e-07,0.031207982,0.0008911742,-0.028472366,-0.013832691,-0.023541046,-0.02185494,-0.03724372,-0.055135157,-0.021936744,0.0010092128,0.04531488,-0.06483684,-0.008417246,-0.014632145,-0.055321254,0.023202213,-0.039524484,-0.0133002205,0.012753217,0.06312689,0.026721308,0.06745773,0.008355571,-0.019311957,-0.010127016,0.021846792,0.041611318,-0.0071104947,0.01286183,-0.033172995,0.015845772,0.02898302,-0.0434827,0.047192052
ENSP00000359000,0.04495567,-0.018546825,-0.039377883,-0.041666564,0.0058002365,-0.0037483824,-0.001417161,-0.052966338,-0.03146162,0.04741465,-0.011842745,-0.013637388,0.03363591,-0.023007356,-0.0024682728,0.025556846,-0.031246403,0.0027289796,0.0041303346,-0.020897996,-0.013676941,0.042781133,0.0573613,-0.032367386,0.039780527,-0.035346385,-0.013892359,-0.026010614,-0.00020381063,-0.036628682,-0.01723218,0.0005831113,-0.050032668,-0.0045090355,-0.010735985,-0.030033024,-0.06427157,0.019750105,0.019393008,0.015512297,0.02901918,0.049725987,0.020492723,0.013236099,0.046911005,-0.0162931,-0.009956116,-0.00762025,0.0492059,-0.017749388,0.026365833,-0.036895163,-0.028637515,0.015822362,-0.00442187,0.028100817,-0.009263391,-0.042119686,-0.041873544,-0.013763783,-0.019486906,0.026143305,-0.0031051198,-0.023222696,0.052646797,-0.014228347,-0.0057689566,0.0036842376,0.053017158,0.055513408,-0.04382977,0.063464954,-0.034705862,0.02206115,-0.02721786,0.047987968,0.007283612,0.020616822,0.061254464,0.019408198,0.046975087,-0.025999393,0.0031980886,0.025159901,0.06677292,-0.026807291,0.01773645,0.015478658,-0.026636148,0.062564254,0.07021664,0.027343472,-0.025419425,0.03224138,-0.042000297,-0.012703054,-0.026693508,0.0619536,-0.0033458797,0.073103234
ENSP00000373884,0.0015311567,-0.033753615,-0.052482937,0.05510446,-0.027965633,-0.009684622,0.010693459,0.016714357,0.024988104,-0.021836411,-0.05425518,0.071232215,0.017435495,-0.009224961,0.016148187,-0.031416852,-0.013265075,0.021213286,0.049411144,-0.0071950564,-0.05275244,-0.040883612,-0.07288474,0.018187756,0.037398536,0.011447347,0.0032895403,0.022760727,-0.04743515,-0.00075507443,0.01063304,0.06558533,-0.03834427,0.007423795,-0.0508617,0.05115997,0.008949091,0.02834344,-0.02612788,-0.044729166,0.026778173,0.04292083,-0.02075912,0.03299106,0.03761367,-0.055429716,0.03248824,0.026069071,0.03461677,-0.048294485,0.012888436,-0.053817593,0.032299608,0.040876776,-0.004815939,0.020411093,0.018111706,0.0054109464,0.0030976578,-0.006751241,-0.06453531,-0.010746171,0.013117648,-0.039294157,0.037101284,0.04108215,-0.016196063,0.0040030503,0.020422734,-0.01577039,0.037348658,-0.06528347,-0.006004619,0.0100879725,-0.004775123,0.013317396,0.073298566,0.0239084,0.0027157431,0.040731296,0.031143688,0.048285816,0.008729551,0.0049687605,-0.013108296,-0.017720863,0.03575609,0.026427649,0.034086898,-0.0025247964,0.014948338,0.04772148,0.039656173,0.06668824,0.022259424,-0.05724631,0.035346664,-0.013061569,-0.02607506,-0.011322608
ENSP00000382428,-0.052937258,-0.013946179,-0.06285727,0.05099159,-0.0019236393,0.023176834,0.016127516,-0.07371478,-0.030582404,0.059807148,0.0237967,-0.016716264,-0.0023971708,0.031487048,-0.061871037,-0.019496772,0.044729847,-0.03894852,0.072484106,0.028594043,0.02474416,-0.01370467,-0.011667498,-0.040521033,0.04473935,0.035291992,-0.04479433,-0.013212521,-0.045269236,-0.033586327,0.028950218,0.07121873,-0.027266165,0.04089566,-0.013921378,-0.02096125,0.02174003,-0.0029929504,-0.036463454,-0.062708005,0.0012079002,0.030856298,0.010424742,-0.01775214,0.048078276,-0.030234132,-0.03321111,0.0038483911,-0.0538928,-0.034384485,-0.03576409,0.012818685,-0.023654863,-0.009573981,-0.07053081,-0.062064838,-0.013886388,0.0008163648,0.018813066,-0.03822906,-0.032918368,-0.023325788,0.019287206,-0.05463249,0.034294836,-0.018046673,0.022009552,-0.009309359,0.016849019,-0.030777443,0.017580956,-0.041405838,-0.06106757,-0.031344336,-0.03550938,-0.024043366,0.024767509,0.0050580297,-0.0044951634,-0.017569412,-0.014352871,-0.044982765,0.035385236,-0.0054090023,0.037078787,0.060750857,0.036742557,0.042893406,0.046339605,0.0066083004,-0.020364605,-0.02044692,0.044396557,0.012719475,-0.027630668,-0.05115409,0.012309937,0.018126445,0.010459078,0.010065546
ENSP00000402373,0.0036646626,-0.031244207,-0.023097262,-0.020296525,0.036531176,0.0483618,-0.014073636,-0.05010018,-0.050367035,-0.0062684235,3.7204707e-05,-0.0031653228,0.020839129,0.033346973,-0.023049869,-0.023099106,0.011790926,-0.03563144,0.032669358,-0.03254873,-0.023569692,-0.062802464,-0.02297952,0.04709649,0.06749858,0.01949714,-0.0112537,0.032013778,-0.022236343,-0.0027096644,0.033455737,0.06444323,-0.037511393,0.06608658,-0.015169464,0.06622187,0.04029133,-0.016901437,-0.013974447,-0.0020592075,-0.007101314,-0.031838596,0.010444458,-0.0023797085,0.023741089,-0.025181288,-0.0361511,0.047411736,-0.030741036,0.007596488,-0.041146383,0.0011724513,0.024597052,0.06840239,-0.023453854,-0.072610445,0.04016246,-0.06141585,-0.04923653,0.011093759,0.03419032,-0.0046686735,-0.0071172584,0.02028032,0.0049969265,0.011040373,-0.008040321,0.030155757,-0.031066176,0.030856427,0.023171932,-0.0022826092,-0.026972633,-0.0034734127,-0.03241465,-0.038179506,0.0544146,-0.05032385,0.057829715,0.034662038,-0.0580926,-0.022725834,0.016020633,-0.049163464,0.05207973,-0.012424172,0.019169392,0.054283384,0.026332092,0.04418193,0.029633239,0.048093975,0.043758947,0.05426803,-0.0034468207,-0.06070168,0.0052222097,-0.0021052784,-0.041424207,0.06844177
ENSP00000432568,0.019064851,-0.016683739,-0.02712461,0.015642773,0.034934234,0.013997721,0.02603621,0.042811412,0.015691394,0.0003403487,-0.0346797,0.05448137,0.028941462,0.017124783,-0.014130981,-0.01731087,-0.042342234,-0.051694013,-0.023122383,-0.027565222,0.024821676,-0.068445005,0.020764902,0.02149339,-0.02806662,0.013834094,-0.038968936,-0.045230094,0.011974497,0.03785202,0.00320481,0.045319963,0.059175704,-0.009637385,-0.0029792357,-0.048979737,0.019507054,-0.00019326154,0.050599605,0.004190493,0.04943914,-0.0053912285,-0.003846515,-0.029545039,-0.03372578,0.004976209,-0.03465023,-0.002851109,0.07527246,0.026276032,0.039472412,-0.050090425,0.05407638,-0.011129478,0.051582273,-0.019836444,-0.0653875,-0.032344293,-0.0297635,-0.06779446,0.06339706,0.006951209,0.01841651,-0.0417175,-0.026705567,-0.009819664,-0.0254387,0.05373885,-0.024625491,0.042321272,-0.042829704,0.012303427,-0.012019899,0.050721195,-0.03318943,0.045525685,0.011958559,-0.04236507,0.008559211,-0.01126079,-0.02058756,0.025800947,0.041225884,0.004829717,0.03401463,0.02184198,0.025624603,-0.0057053734,-0.027151305,0.055378042,0.03774539,0.022324111,-0.0023755264,0.0031819744,-0.022396728,0.034618314,0.04902585,0.06731241,0.0017194166,0.007424555
ENSP00000480707,0.06328012,0.023381405,-0.003911092,0.02477307,-0.018035972,0.020122355,0.054597624,-0.022037579,-0.04582386,0.0670696,0.00016412605,0.052598745,-0.0294886,0.0126476865,-0.024198955,-0.027863592,0.0061372146,-0.04133405,-0.016292337,-0.0037349872,-0.011946088,-0.055919513,0.0097972145,-0.0037836758,0.025110759,0.00085182884,0.045712117,-0.04363205,-0.014444396,-0.03904523,0.013830305,0.035567574,0.01401656,0.004743454,0.052569672,-0.042993106,-0.0023601782,0.0067542116,0.00095212273,-0.06106436,-0.032401457,0.027964218,-0.028097047,0.025456943,0.018110927,-0.012691065,0.013533704,0.051505044,0.026193628,0.015449513,0.0109577235,-0.01223798,0.061444998,-0.056096774,0.024366617,0.007908025,-0.023499962,-0.014591483,0.036068387,-0.050261855,0.014968934,0.048331082,0.06912763,-0.054662935,0.053932674,0.019557092,0.058742363,0.049522355,0.0567656,-0.009673456,0.018657096,-0.00031751255,-0.04381968,0.0680026,0.036095485,-0.00719293,0.00408831,-0.034203246,-0.0316597,0.023630695,0.0041995593,-0.03808675,-0.026166886,-0.0049075056,0.06903316,-0.07193548,0.025777232,0.019836852,0.019535515,0.059983812,0.044609115,-0.038325164,0.04565162,-0.0070532165,-0.043869775,0.03642891,0.00011107931,0.05277002,0.006627854,0.041623224
ENSP00000160827,0.0010335376,0.023118164,-0.011126334,-0.05840818,0.006681451,0.013509862,0.052006528,-0.013335478,-0.026933305,0.05444086,-0.07075976,0.05832748,-0.0201453,0.014377616,-0.004000187,0.01882387,-0.050470456,-0.0046059107,-0.016198404,-0.02134969,0.044267908,0.031590894,0.040162224,-0.047784247,0.03133123,-0.0026895772,0.052037843,-0.0021980498,-0.06028717,-0.029745048,-0.017346058,0.043298908,0.054350443,-0.07375754,-0.007277837,-0.045366414,-0.038716804,-0.032830104,-0.022248391,-0.044064857,0.057557553,-0.018733757,0.022801686,-0.056544665,0.01593003,0.0018700203,0.0015396937,-0.003743452,0.026864402,0.038477663,0.00023670029,-0.0776767,0.008479879,-0.030507483,0.05841819,0.061209507,-0.008498235,0.011422019,0.053157125,-0.027338505,-0.023847552,0.028035196,0.049646765,0.016541041,-0.0063935826,0.006185647,0.0101617,0.0068029566,0.042050958,0.071444936,0.035225354,0.014591445,-0.038051203,-0.01092048,-0.023138892,-0.041531555,0.023770439,0.026739959,-0.03296171,0.01587842,0.0483627,0.048683606,0.011179357,0.049879443,0.026758235,-0.02326694,0.015335877,0.022750996,-0.0011427365,0.03566911,0.02675212,0.023434222,0.023057502,-0.0060797073,-0.025300186,-0.024953289,0.017055742,0.05200568,0.066833735,0.049703557
ENSP00000258739,0.050181802,-0.05655566,-0.004208735,-0.06445516,-0.024414673,-0.05793072,0.06533236,-0.0050293757,-0.037256185,0.06780664,0.02517383,-0.017700745,0.023227273,0.017250033,-0.010078033,-0.027202137,-0.020294698,0.01958874,0.026753027,0.004728421,0.02559103,0.0367734,0.061212994,-0.05194799,-0.038077753,0.01780967,-0.04226592,0.022161867,-0.04574025,0.041309312,-0.00064171385,0.035735197,0.004110595,-0.018501444,0.009314819,-0.07137083,0.004766444,-0.0087203905,0.017222315,-0.048444677,0.016496673,0.052146476,-0.045586757,-0.05444427,0.008868628,-0.058022242,-0.02797984,0.012325591,0.009761151,0.0118270535,0.0365312,0.00052310526,0.009838316,0.03152818,0.019919768,0.022479808,-0.053769708,-0.03538578,0.008853039,-0.05769971,-0.013120244,-0.0017312588,0.051713806,0.007324109,-0.016064066,-0.074561946,0.067306414,0.063099265,0.056674812,-0.008244947,0.04161179,0.030402418,-0.028857578,0.04022724,-0.008836363,-0.039085273,0.026417708,-0.058654442,0.055743527,0.00021164026,0.012915113,-0.016242301,-0.0027676607,-0.044158272,0.05831021,-0.06380616,-0.021295123,-0.0112984385,-0.0073936246,-0.009139491,-0.013668446,-0.043780886,0.00902673,0.055399247,-0.0012225625,0.025015075,0.043864988,-0.01673359,0.06564602,0.05806027
ENSP00000263245,-0.019702509,0.013391783,-0.010052184,-0.053905334,0.027343525,-0.04366012,0.031435013,0.027534496,-0.0013530098,0.058173243,0.011999333,0.048456144,-0.0021736864,0.05557835,-0.035135224,0.029572316,-0.04505885,-0.049016416,0.01236492,-0.0021746708,0.0028376812,-0.04138631,0.043543745,-0.047343202,-0.049446374,-0.01080266,0.010194387,0.018346032,-0.06629163,-0.0017478671,-0.012594547,0.054315582,0.0027841674,-0.042152252,0.044546437,-0.046415918,0.012703568,-0.05890923,-0.040140092,-0.0005954014,0.027328655,0.047015525,0.014508224,0.024322592,0.05461204,-0.037967157,-0.043888234,-0.004757176,0.039805964,0.017008161,0.014501114,-0.054445263,-0.0036658025,-0.04279587,0.036129896,-0.035636656,-0.032988906,0.002917503,0.0018852921,-0.030933797,0.02549011,-0.01006952,0.032588214,0.026001468,-0.0059193224,-0.0040659313,-0.021948764,0.06547287,0.019614598,-0.009819024,8.682348e-05,0.04907242,-0.002354738,-0.010586325,0.042790037,-0.010745018,0.05398321,0.024499193,0.04467453,-0.045987993,0.032518137,0.0030524852,0.0384851,-0.03013108,0.0019999729,-0.055899307,0.043667424,0.013712455,0.031752713,-0.004204097,0.0658587,-0.0637253,0.018908907,0.051952284,-0.018630387,-0.021556865,0.039556336,0.04995237,0.0032749847,0.018760169
ENSP00000300087,-0.013471084,-0.005933655,-0.03482874,-0.07195105,0.018923244,0.012499635,-0.015920667,-0.047644142,-0.048517056,0.022361733,-0.026504895,-0.010627035,-0.010736438,-0.023186706,-0.012547394,0.029976841,0.04107928,-0.05859214,0.00965875,-0.0076769376,9.639375e-05,-0.06499629,0.038606353,-0.04097002,0.0073639164,-0.02171679,0.042840477,-0.06502038,-0.016151814,0.030005246,0.007582601,0.05772724,-0.007309198,-0.037155584,0.07452115,-0.06447457,0.017926918,0.0013437425,0.025199834,-0.049319766,0.019312933,0.043225754,0.010494408,-0.051176354,0.08060669,0.027532766,0.014955189,0.037862897,0.025298111,-0.0055936156,0.015095938,-0.05683455,0.02485262,-0.023233581,0.013687847,0.036406986,-0.02251096,-0.05319697,-0.03241442,-0.049815774,0.026159886,0.039919484,-0.009981055,0.0016889162,-0.021536646,-0.033415623,0.007462395,-0.013533534,0.011154581,-0.0023159776,-0.031092048,0.036739282,0.0051625455,-0.013162234,0.0129778795,0.045678284,-0.017750446,0.006981875,-0.021502342,-0.02334297,-0.0034323512,0.026830474,0.046251222,-0.021748226,0.06247916,-0.044672422,0.020766981,-0.0010899808,0.031044517,0.06120935,-0.010701247,0.00012120581,0.03118168,0.0651812,-0.019554164,0.037684746,0.0022275914,0.031052597,0.026740154,0.07243967
ENSP00000324020,0.048369747,-0.018037036,0.026324455,-0.047926396,0.017400978,-0.07644873,0.030133419,-0.052737307,0.030476281,0.047109496,-0.056512967,0.07013326,0.00021952484,0.057202257,-0.032524247,-0.008897814,0.005604301,-0.032062553,-0.06969684,0.04573046,0.054244034,0.0056249797,-0.012688228,0.011202428,-0.031558257,-0.027021758,0.04713555,-0.009989721,0.0035854336,0.06665454,-0.02534822,-0.0025237733,0.0503793,0.036879092,0.07190807,-0.004847344,0.0027200617,-0.06237352,-0.024559036,-0.054664996,-0.019502027,0.0070307893,0.021342428,0.011523895,0.069085166,-0.058565237,0.025819214,-0.0056517255,0.011720126,0.030351488,0.024638472,0.011991084,0.041131835,0.009284725,0.041587267,0.0018051928,-0.010126401,0.0062062927,-0.0010916619,0.03533962,0.06977412,0.0044427086,-0.012534609,-0.0708702,0.015050175,-0.06896238,0.06692102,0.02112728,0.03168231,0.024508504,0.005969331,0.04220877,-0.032252185,0.0645632,0.030361257,-0.012544964,0.054420505,0.016037986,0.017087163,-0.025914405,0.010934131,-0.039092004,0.0428191,0.018097103,0.046103224,0.009219588,-0.016691972,0.03996342,0.031054161,0.06626167,0.065895766,0.0109993145,-0.03668101,-0.017189816,-0.038478766,-0.012801902,0.04415839,0.009365598,0.0040546814,0.0151880365
ENSP00000352834,-0.027174313,-0.04720927,0.0066616824,0.030234445,-0.024213426,-0.007267299,0.045752496,-0.055645697,-0.03368554,0.044963103,0.026501952,-0.0058261813,0.050769836,0.014311347,0.0037403833,-0.050064567,-0.0128737325,-0.01804268,0.06979239,0.025994519,0.018025821,0.013564473,-0.023460187,0.028568856,-0.019247264,-0.021077555,-0.064138584,0.010477811,-0.06900537,-0.07326778,-0.00981356,0.050137177,-0.004657351,-0.01686994,0.00083590345,0.03196294,-0.01701735,0.0094278,-0.033532195,-0.05840085,-0.044358917,0.01397597,-0.0037640473,0.02520346,0.010135409,-0.012575152,-0.04207042,-0.006727798,-0.043055233,-0.014482905,0.034926753,-0.010348175,-0.013134787,0.021042608,-0.022769459,-0.046864644,0.075428404,0.026862944,-0.01216994,0.018058661,0.006906404,0.04475096,0.024017535,-0.009809303,0.03082309,0.0033573061,-0.036212534,0.06276932,0.008431757,-0.0540761,-0.017888136,-0.0490531,-0.018509412,-0.07322032,0.0076506324,0.057800524,0.071149595,-0.05366926,-0.03399799,-0.017685652,-0.02685241,-0.009620228,-0.016685247,0.0033112054,0.0335464,0.03856409,-0.006612464,-0.0010892656,0.028401835,-0.038919803,-0.0043858597,0.0457348,-0.0030976096,0.05894823,-0.016963718,-0.004578963,-0.027614925,0.05049402,-0.030400667,-0.009379921
ENSP00000357129,-0.009878682,-0.032118548,0.009521241,0.004464938,-0.0144258775,-0.059785046,-0.017212838,-0.053473078,-0.036344238,-0.0022944617,0.007850767,0.039427068,-0.0109463325,0.051172096,0.00184775,-0.013522759,-0.009330255,-0.0568127,-0.046038013,0.02216406,0.0017446913,-0.020236786,-0.029725643,-0.021067616,0.015171325,-0.013499643,0.02594383,-0.02279793,-0.035356473,0.04638178,0.057285853,0.004763657,-0.019054897,0.004476388,0.010673304,-0.029733649,-0.05348644,-0.03299148,-0.005159225,-0.06399079,0.0068241684,0.047576223,-0.023282044,-0.025991566,0.06561303,0.0043818275,-0.028394165,-0.0056573832,-0.023941595,0.04394567,-0.012392082,-0.05296932,0.054104522,0.0007297201,-0.034135226,0.042241395,-0.045611233,-0.0010316353,-0.007916385,0.00398905,0.022742338,0.005270197,-0.004214496,-0.040149845,-0.021297649,-0.036672965,0.070610635,0.04612611,0.0021171938,-0.017738042,0.015199626,0.043467592,-0.059312653,0.037075385,0.03104813,0.05638573,-0.0377628,-0.010477474,0.03250703,0.02324476,-0.006262294,0.033760257,-0.02051919,0.067108974,0.0068809176,-0.037480414,0.03950475,0.023442384,0.03828308,0.040155645,0.038353372,-0.046509147,0.019611662,0.07616703,0.0016946867,0.0016175504,0.018096246,0.051268544,-0.012626681,0.052911036
ENSP00000365162,-0.041148063,-0.061045717,-0.063251816,-0.006702737,-0.0032739984,0.056292493,-0.01895014,-0.078871414,0.02569646,0.061967704,-0.0012532095,-0.0046993224,-0.018630903,0.04368872,-0.071427144,0.005907228,-0.003895292,-0.012967262,0.066132136,0.057572328,-0.021395627,0.012726334,0.011990228,0.031916834,0.0013546166,0.015082329,0.017113525,-0.044930458,-0.015421968,-0.060378168,-0.013147177,0.014146942,-0.0033859601,-0.017239101,-0.052058373,-0.017147975,0.06057735,0.03243258,0.0069304854,-0.029235955,-0.04522976,0.006111141,0.012045967,0.05413017,0.00051002204,-0.0013145017,-0.029602958,0.057281394,0.010606662,0.012212162,-0.01031481,-0.04966185,-0.050039366,0.008760844,-0.030610504,-0.009024667,0.05214127,-0.027343702,0.03811805,-0.007941453,-0.032652974,0.0095574865,0.06068005,0.0044273008,0.02092821,0.011816455,-0.027939107,0.008767694,-0.018389316,-0.0018554316,-0.0055382205,-0.013048148,-0.020457104,-0.059981193,0.0064151958,0.06843922,0.06800959,0.020183554,0.023498531,0.06771079,0.040625576,0.01474114,0.042083535,-0.0050467225,0.06849147,-0.011290876,0.0020658076,-0.006831724,-0.017341783,0.033207208,-0.0039004614,0.06695001,-0.011999233,0.06630858,-0.02717574,-0.031773612,0.04345483,0.0446108,-0.041191135,-0.01620206
ENSP00000380432,0.010956397,-0.048480872,0.0013006944,-0.06836597,0.05039361,-0.054133903,-0.014918698,-0.006773043,-0.03760404,0.067127,-0.053377014,0.06778604,-0.004012622,-0.02023082,0.053058073,-0.015722334,0.032726996,0.011161658,-0.04202263,0.058604203,0.007959848,0.039105132,-0.0018000065,-0.067423835,0.025376365,0.030821852,0.028121509,-0.07529069,0.010883355,-0.034564145,-0.0014645653,0.025461446,-0.014720121,0.0066463463,-0.009422419,-0.017721718,0.021554846,0.00031969487,-0.03283491,-0.039546862,0.033434052,0.005754571,0.024947237,-0.055003993,0.013410514,-0.03142127,-0.01615388,-0.010988352,-0.011075886,0.041301727,-0.03409479,-0.0659595,0.0074947835,-0.06207809,0.0601701,0.019721938,-0.019891476,0.016879875,-0.03203343,-0.005600657,0.010628421,-0.0022985316,0.032061417,-0.0646156,-0.023141313,-0.062983386,0.067387804,0.043068804,0.07531385,0.0010315115,-0.022849325,0.0028958127,-0.008351858,0.00827789,0.04520213,-0.017736685,0.039804235,-0.015795482,0.0053599463,-0.05024437,0.0019777825,-0.014146934,-0.0012227781,-0.0056230985,0.015879134,0.023055296,-0.00809724,0.039268263,0.012976278,-0.027016336,-0.023294799,-0.06079774,-0.019349206,-0.016644895,0.014336733,0.020875853,0.061308436,0.019355066,0.012671908,0.014221877
ENSP00000399403,0.025485387,-0.049660824,-0.01108154,-0.0021763942,0.06115396,-0.048662953,0.0022762204,-0.0013734829,-0.034753144,0.05621887,0.023109715,0.0711172,0.05977108,0.034147076,0.05275886,-0.0016220687,-0.034772184,-0.034528814,-0.02218106,-0.0016851104,0.024527756,0.015517741,0.03490543,-0.058320943,0.007756337,-0.03015597,0.039419536,-0.060799524,-0.0072003007,-0.033945903,0.039285,0.008596853,0.03032146,-0.04006034,-0.020763475,-0.05248982,-0.06702009,-0.063408,0.045981288,-0.03271359,0.050000664,0.051013324,-0.031797674,0.003331286,0.052628472,-0.05296123,-0.0012533737,0.029284814,0.05552116,0.006076056,0.054311793,0.018315643,0.0513845,0.015403484,0.012244102,0.025136806,-0.045999292,-0.020163687,0.033268586,-0.044969965,0.049856655,0.009419854,0.034921855,-0.0040494828,0.059889033,-0.004704562,0.021660183,0.028486678,-0.010683247,-0.005086427,-0.040946513,-0.010126696,-0.04655839,0.036825188,0.0033201396,-0.018205611,-0.016212413,-0.027612304,-0.017266154,-0.001452487,0.058839314,0.044546522,0.0044838046,0.0152174365,0.045805532,-0.012032172,0.04291132,0.057364583,0.043471962,0.06353858,0.009763062,-0.0072571514,0.030985845,0.069740325,-0.014198826,0.020926744,0.016180899,0.054884993,0.031693153,0.051379077
ENSP00000414982,0.052262347,-0.054584093,-0.011900504,0.008503195,0.026757926,-0.00046944618,0.0018268414,0.021437969,-0.0131803015,-0.008629548,-0.009924419,-0.024910782,0.046404496,-0.014450775,0.0660693,0.035918217,0.021958714,-0.025019808,-0.023712367,-0.008860832,0.01902783,0.014069568,-0.022286173,-0.042364918,0.003729323,-0.0067594387,-0.053698815,-0.064398475,-0.021361917,0.007952531,0.008784769,-0.016325273,0.02461466,-0.0027893288,0.068868294,-0.01083038,-0.044409934,0.021392701,0.047776084,0.0012900196,-0.033370003,-0.00843433,0.026311878,0.01818486,-0.0016902816,0.01727572,-0.023842575,0.06967997,0.04970443,0.036461793,0.045249373,-0.03790622,0.007954079,0.01113345,0.01945617,0.03134478,-0.031663563,-0.061320662,0.006052272,-0.0391152,0.025824595,0.041171562,0.011197055,-0.027362779,0.03968022,0.019443791,0.046432853,0.06831646,0.05121953,0.076638445,0.045668468,0.0424005,0.01115997,0.023811437,-0.012016571,0.051321737,-0.030991241,-0.023619376,0.020374145,-0.070338175,0.035361197,0.02609625,0.026005223,-0.0047763647,0.047808,-0.055275984,0.054173812,0.008693903,-0.035066556,0.04502102,0.054938953,-0.005631595,0.018927287,-0.021712514,-0.036548834,0.0014453358,0.022281922,0.06708373,-0.0034369265,0.02600716
ENSP00000477310,0.0015750653,-0.06984194,0.03508837,0.023405388,0.070011064,-0.058039304,0.0007145265,-0.01513406,-0.022060674,0.044919986,0.011303246,0.0014866577,-0.0007888824,0.044520892,0.028254665,0.02163943,-0.023027612,-0.04772032,-0.033120308,0.062131494,-0.010058412,0.052962784,0.044637416,0.015722621,-0.05878362,0.014662996,-0.06286717,-0.05023522,-0.035490997,0.055671282,-0.0014884588,0.016637588,0.06279239,-0.05192991,0.063248485,-0.040076856,-0.010537364,-0.06818726,0.05573496,0.0052267653,-0.039249796,-0.021424327,-0.04772035,-0.030022427,0.046532296,-0.02299527,-0.06279847,0.024444263,0.041708693,0.04929939,-0.005758552,-0.057442173,-0.0032732603,-0.051388957,0.008140835,0.012874588,0.0064440668,0.020043414,-0.028578335,0.02483565,0.06679455,0.045792002,-0.023137908,-0.05736742,-0.028034173,-0.0412746,0.018221421,0.014882573,-0.0017416258,0.04243503,0.007198932,-0.0032861545,-0.008537986,0.018528469,0.041097775,-0.005870454,0.016780943,0.019161552,0.058408245,-0.021443559,0.010453577,-0.0076861684,0.0067792237,0.004763577,0.005211814,-0.064273044,0.07243217,0.006266487,0.055577584,-0.009042674,0.06270346,0.0012777392,-0.024105882,0.026153887,0.019982236,-0.02745515,-0.004439847,0.0318342,-0.028220456,0.0040661455
ENSP00000243052,-0.04471144,-0.0035428768,-0.04156802,0.029068988,-0.0063370145,0.005507038,-0.020110304,-0.030627824,-0.03996702,0.0024567565,-0.014608931,-0.015023531,0.019146577,0.056630183,-0.0644324,-0.03288275,0.0153362695,-0.028181318,0.07072191,-0.003634092,-0.037652913,-0.023970691,-0.0417471,0.009507885,-0.011661507,-0.04233311,-0.001994595,-0.055084754,-0.0029125735,-0.021659061,0.0016505253,0.0066016717,-0.06391421,0.020594662,-0.04523085,0.043665193,-0.0014356188,-0.014599257,0.0026041968,0.02878399,0.030703995,-0.022326624,0.006338949,0.07270086,-0.0045743585,-0.031397447,-0.035149097,-0.00846661,0.029285103,-0.013157831,-0.04867979,-0.03240538,0.044220105,0.0711683,-0.021832548,-0.03984254,-0.01792391,-0.029966084,-0.04267335,-0.046908826,-0.02966537,-0.008965918,0.0015749689,-0.040585093,0.03774049,0.013135151,0.021367036,0.04643009,-0.023991885,-0.03262848,-0.042922385,-0.05806768,-0.022252219,-0.0020469083,-0.038173966,0.07559213,0.035139024,-0.009785619,-0.016217891,0.06107734,-0.026299998,0.037864856,-0.015974155,-0.031729385,-0.010606981,0.046723034,0.016668856,-0.0057565635,0.06307654,0.04670021,-0.015400519,0.059547044,0.032548457,-0.017241597,0.029191349,-0.0068360553,0.034421805,0.022357602,-0.022001877,0.031210795
ENSP00000262225,0.016602242,-0.0061982814,-0.03223577,-0.013442403,0.0041798954,0.023752697,0.051259357,-0.04997286,-0.0030198242,0.018699896,-0.0691216,-0.003172053,0.05081341,-0.0029706566,0.0077257236,-0.0580613,0.02647992,0.004974829,-0.0022301595,0.047341697,-0.024060395,-0.058024105,0.03241209,-0.042248815,-0.0050422857,-0.04079474,0.054046303,-0.016565353,-0.021878375,0.017023187,-0.008947008,0.05993614,0.03899996,-0.037217528,-0.0115749305,-0.04103554,0.02112548,-0.007654257,0.05803302,-0.052826546,0.0076984186,0.032463543,-0.029631643,-0.065905005,0.014213633,-0.04869236,-0.04316741,0.030204315,-0.0008184025,-0.01861663,-0.012797612,-0.037358183,-0.022902612,0.0056125056,-0.02847308,0.027079105,-0.001627164,-0.039670963,-0.007332428,0.013567215,0.010471409,0.04140209,0.060543425,-0.011625364,0.050500546,-0.037350222,-0.024246885,-0.015652915,0.051674966,0.02996959,-0.040839095,-0.022524431,0.014273926,0.012848318,-0.038585782,0.045613557,0.05094735,-0.029179668,0.06353715,-0.03755781,-0.0089921,0.045031395,0.007153337,-0.005225443,0.06331814,-0.0004216195,0.047406733,0.009393383,0.053136647,0.05115237,0.063649565,0.0043703476,0.0056720856,0.05174868,0.024027236,-0.029409518,-0.011495277,0.058651835,0.06837952,-0.015444186
ENSP00000264712,0.04418349,-0.0692779,0.043344013,-0.029894117,0.047694962,0.021149766,-0.024462057,0.0041060233,0.005419359,-0.009228541,-0.07004522,0.037291054,0.030521542,-0.027471818,0.00083439815,-0.016355209,-0.006639838,-0.050598267,-0.065880075,0.017380318,0.060293946,-0.058129735,-0.0010352915,-0.00013450673,0.030950218,-0.017994832,-0.029067554,-0.01795579,-0.06993265,-0.041215267,0.036302757,0.0040505435,0.051792495,-0.007615813,0.011083881,-0.05731008,0.0019403626,-0.019880023,-0.027522396,-0.03584291,0.051809695,-0.009556074,-0.015838735,0.004695169,0.041088887,-0.00077816006,-0.06969563,0.033324473,0.012112964,0.012083543,0.0072827134,0.0010008411,0.040076245,-0.040961523,0.011432556,0.06430587,-0.021120548,-0.04602267,-0.020633398,-0.028591217,0.056882672,-0.0074485107,0.040458035,-0.0022686406,-0.021661049,-0.025367195,0.033113267,0.07792436,0.019669086,0.061564848,-0.030894525,-0.020305887,-0.056276355,0.024812756,0.03262572,0.01536459,0.020389685,-0.06257915,-0.023414219,0.0034097526,0.05245103,0.0021677657,0.022236321,0.037447926,-0.02012092,-0.058619656,0.052536,-0.008304587,0.019222043,0.044748504,-0.011560459,0.031682383,0.03044299,0.031220648,-0.012471218,0.024363015,0.0033976992,0.039073147,0.029626539,0.04171239
ENSP00000288139,0.015413946,0.008042693,0.0036931438,0.045440644,-0.009491094,0.047620848,0.05425559,-0.026307981,0.00043063366,-0.022054795,0.027909406,0.06307408,0.07369898,0.0029056051,-0.013250919,-0.023002952,0.016520593,0.0039551733,0.028564207,0.06457188,0.031679098,0.0006116051,-0.049730718,-0.021807877,0.05011399,-0.012857788,0.011369446,-0.0064711263,-0.00670014,-0.05459648,0.039716758,-0.0036421902,-0.0072904695,0.044423833,0.01839237,0.041531857,0.004124608,0.023623398,-0.06754376,-0.010444122,-0.009824339,0.005198601,0.020329133,0.04878621,-0.009978401,-0.021498771,-0.0036967047,0.057675198,0.03337524,0.03345442,0.0084473975,0.0040714275,-0.045360718,0.010444976,-0.062175296,-0.058980748,0.061950587,0.027520299,-0.04426183,0.008179954,-0.004726391,0.025768965,0.024180157,0.01910911,-0.040290266,0.028827228,-0.036401168,-0.0148609085,-0.008039333,-0.035552803,0.01895991,-0.031677216,0.010301864,-0.022803927,0.0016495667,0.010333784,0.020821428,-0.04093217,-0.03320338,-0.027136186,-0.028574893,-0.039131314,-0.034034025,0.01971719,0.00015279977,0.024753986,-0.0058276923,-0.0048686084,-0.019178957,0.027194943,0.007950651,0.031835344,0.024612596,0.0414341,0.0374728,-0.06027767,0.01941121,-0.039702702,-0.061401136,0.028503828
ENSP00000317790,-0.01612786,-0.025403421,-0.0021550348,-0.04851149,0.0008384343,-0.041626446,0.040514976,0.0022424543,0.037081536,-0.023026006,-0.0040451083,0.030616192,0.054139238,0.042737357,-0.013918843,-0.029922599,-0.028252535,0.017500758,0.027289245,-0.008793633,-0.025371386,-0.0022270833,-0.024665846,-0.004206107,-0.0099449735,0.02033532,0.023315132,-0.060983144,-0.048496313,-0.03153319,0.053596176,0.040628083,0.010791885,-0.034411468,0.024747647,-0.012430118,-0.07776322,-0.036016773,0.04687888,-0.008848217,0.0519686,0.040956046,-0.05239735,0.020016469,-0.016262807,-0.041315664,-0.05163698,0.048301283,-0.016237374,0.028238941,0.043250605,-0.024700843,0.010821701,0.02789592,0.04390215,0.029107802,0.008937338,0.011119207,0.018209036,-0.057392534,0.0016769657,-0.007896194,0.029381126,-0.05460137,-0.0036154091,0.004084589,-0.003043416,0.06510344,0.0079353945,0.015216299,-0.0326908,0.02745038,-0.03536917,0.020523528,0.04751719,0.006304989,0.0371671,-0.018647742,0.008252465,-0.034007035,-0.019496849,-0.019383688,0.018109826,0.022514816,0.025661627,-0.038843475,0.00039635645,0.035405897,-0.02528142,-0.020976903,0.019062214,-0.04319882,-0.0028612437,0.0068941894,-0.015938671,-0.032686178,-0.0043537333,-0.0034642816,0.04882949,0.0103177745
ENSP00000345731,-0.03327085,-0.06669122,-0.024338212,0.021575745,-0.040919818,0.06208794,0.06690974,-0.0036100568,-0.035562113,0.0047421968,0.002756653,0.053212848,0.05699875,0.053444117,-0.037282303,-0.045677513,-0.00017651264,-0.035086896,0.059976928,0.016205564,0.024009915,-0.03987325,-0.07150995,0.05598421,0.07112558,0.016507234,-0.059888955,-0.02891887,-0.00078800414,-0.034973953,0.017393533,0.041940957,0.0018807361,0.059864976,-0.043705396,-0.011327204,0.0082197245,-0.02594345,-0.021696005,-0.00958489,0.02885499,-0.017045846,0.038554177,0.037907373,0.007708096,0.027204316,0.01757823,0.05512323,0.014640004,-0.066089116,0.011601021,-0.08018436,0.021945614,0.038077816,-0.0050241696,0.0007013045,0.04574313,-0.030056722,0.00093893055,-0.02569903,-0.00030090567,-0.036042474,0.0071085524,0.030164797,-0.014028604,-0.0072958055,0.018504519,0.03871638,0.02012509,0.014903933,0.016229443,-0.054633807,-0.006839985,-0.01722864,0.03577687,0.0030312482,0.032986294,0.023126598,0.059278123,0.0347938,-0.0073872907,-0.038996037,0.023949172,0.02608199,-0.0066055716,0.026268978,0.059851766,0.0294965,0.027971935,-0.01271097,0.007902936,0.03290347,-0.035020407,0.019566547,-0.04205364,-0.05147201,-0.022873586,-5.2852556e-05,-0.03185822,0.0616709
ENSP00000354791,0.06688081,-0.056985017,-0.024300009,0.0030424497,-0.022774909,-0.064438246,0.016960885,0.029447919,0.0027760472,0.032849517,-0.034288444,0.019273045,0.020992866,0.051256057,0.012288162,0.025756761,-0.032498606,0.014864335,0.0010607201,0.04514332,0.007237385,-0.05874769,0.03526611,0.006848224,0.048548203,0.038206078,-0.0060920976,-0.05250393,0.01767205,-0.024782205,0.031850167,0.07019169,0.023597129,0.01454028,0.0006698314,-0.039310206,-0.050926026,-0.067669675,0.056032263,-0.00041577662,0.05337432,-0.010480639,-0.028310478,0.010252105,0.019971948,-0.023157338,-0.061338168,0.018471822,0.052240353,0.035677545,0.054630816,-0.01897405,-0.035376348,-0.029859412,-0.019420492,0.04586812,-0.029223086,-0.063807726,0.053401783,-0.052774336,0.028742835,0.042772964,0.038946476,-0.00018340629,-0.0028859023,0.014477066,-0.019483224,-0.012205376,0.055706665,-0.0072169453,-0.03812956,0.01177212,-0.03608201,0.031506024,-0.03464877,0.028261919,0.03545907,-0.053024232,0.039114155,-0.061057825,0.005310304,0.0065385597,0.04154198,-0.013365133,0.017113933,0.013782997,0.01487857,0.032332532,0.027989253,-0.012410802,0.029802088,0.024957743,-0.018940432,-0.013779086,-0.034594864,0.03270846,0.040287573,0.054119803,0.063622296,0.07105933
ENSP00000360532,0.047673564,-0.05724146,-0.01917589,-0.066895396,-0.020212986,0.012947461,0.008386865,0.007922787,-0.01632306,-0.031324487,-0.01939931,-0.0043898667,-0.04404366,0.04131967,0.043839708,-0.04462289,-0.04498589,-0.05720383,-0.006833734,0.03850055,0.019261066,-0.07154576,0.017209576,-0.025459487,-0.015636463,-0.005566066,0.034885056,0.015305316,-0.069435455,0.009768449,0.025441885,-0.011513709,-0.006297297,-0.020895122,0.07035416,-0.025640825,-0.06604596,-0.020612461,-0.032598857,0.023868319,0.016576704,0.060829103,-0.0365852,-0.006670627,-0.008898849,-0.050710678,0.009383922,0.047098756,0.012915056,-0.00036053173,0.04195221,-0.0060971007,0.06317666,-0.05181715,0.05621259,0.008868774,-0.020959048,0.022027101,0.035675183,-0.03429398,0.060891557,0.03918039,0.03603393,-0.052667394,0.058437373,-0.06875331,0.042288885,0.018781526,-0.008896589,0.016715232,-0.031303436,0.009640291,-0.0077161817,0.004949807,0.0418202,0.051858146,0.037862726,-0.04062639,0.04829418,-0.04856001,0.025124894,0.014808447,-0.03527906,0.0024302434,-0.017668776,-0.04422296,0.072847396,0.012447631,-0.017102566,0.0315214,0.06303923,-0.036966894,-0.00998543,0.06916709,0.0013443655,-0.0079174265,-0.011908719,0.060946453,0.011615763,0.011147937
ENSP00000377284,-0.024454165,-0.016196936,0.022280963,-0.032288127,-0.018534072,-0.0567778,0.058584735,0.012282057,0.027130535,-0.021569682,0.005059084,0.053461432,-0.0022674892,0.0060031754,0.037448704,-0.031824626,-0.022412598,-0.062147625,0.022516385,0.0045555923,0.04197502,-0.0022841042,0.06221637,-0.0037851194,-0.03318915,0.03763017,-0.060532182,-0.06755156,6.365497e-05,0.023575243,-0.031211808,0.044683754,-0.0034684213,-0.0532265,-0.019915257,-0.07888527,-0.0063459617,-0.016078733,0.005125863,-0.037056003,0.025714226,-0.025402827,-0.024129935,0.030668333,-0.027577361,-0.010895402,-0.014523491,-0.0041380515,-0.017953753,0.05977394,0.012066798,-0.04856828,-0.023852726,-0.053024523,-0.031830557,0.033410892,-0.0701979,-0.04182895,0.050815135,0.016602272,-0.016551165,-0.024882946,-0.015982365,0.030313928,0.059130482,-5.0076284e-05,-0.008990155,-0.009194786,-0.018664151,0.027586304,-0.013269798,0.04415479,-0.06510865,-0.0034825057,0.050516114,0.00635546,0.012206181,-0.032869793,0.010337346,-0.000901361,-0.018472232,-0.044311892,0.025609553,0.035153225,0.06329806,-0.06683118,0.041057866,-0.020804463,0.009839335,0.0069235805,0.059976548,0.012684454,0.009516364,0.02232844,-0.026786802,-0.02343047,0.056181543,0.046065718,0.03523819,0.05006638
ENSP00000387875,0.051902357,-0.05253069,0.049869258,-0.07369392,-0.006909994,-0.061177127,0.065445006,-0.03870756,-0.047678284,0.024258865,0.026770601,0.07194937,-0.025973964,-0.005845366,0.012886495,-0.03221182,-0.023197915,-0.011019425,0.02373037,0.06795004,-0.020714838,0.01999143,0.02825253,-0.052976694,-0.001938479,0.0035840156,0.0013042307,-0.052589357,-0.047742516,0.052511424,0.018859534,0.06764931,0.012965348,0.0064849863,-0.005877914,-0.031380117,-0.076508984,0.023574432,-0.03744888,-0.02422275,0.007834041,0.03937486,-0.018514846,0.022330234,0.00018881541,-0.057711877,-0.050895765,0.0010379823,-0.013905721,-0.016675709,0.034389842,-0.04972278,0.028215526,-0.013964658,-0.0055589126,0.04871079,-0.05853259,-0.027242806,0.025626723,-0.014343044,0.025948359,0.011993954,0.071413435,-0.049773417,0.041661486,0.020411536,0.006612417,-0.00301925,0.06547934,0.0480434,0.031179585,0.0065643922,0.026887711,-0.005182715,0.0020825635,-0.0286787,-0.01587927,0.021697065,0.00586283,-0.037934095,-0.02563719,0.0009507083,0.033592865,0.0073508266,-0.021385191,-0.0032508858,0.07259004,-0.014742419,0.02497787,-0.013590261,0.004625544,0.0012923502,0.04973796,0.07156623,-0.025158504,0.043407768,0.00560287,0.03125142,0.07586851,0.010274409
ENSP00000405926,0.03467699,-0.010966459,0.012140116,-0.011314419,0.017442448,-0.06009249,0.05145498,0.032737616,0.015070653,0.07118284,0.0044035953,0.051793728,0.025023218,-0.01802048,-0.029836137,-0.016914492,-0.016266124,0.016358793,0.019835744,-0.006833036,0.018687971,-0.056292508,0.03788771,-0.066459484,-0.052723944,-0.020435695,-0.02095074,-0.06444917,-0.05985406,0.02757654,0.031020682,0.040452447,-0.037895154,-0.031851694,0.011208346,-0.05864184,0.0102673145,-0.049511332,-9.979075e-05,0.004882109,-0.029347673,-0.015782846,-0.06854422,-0.05603345,0.0050393147,-0.006028729,-0.045669265,-0.0005465308,-0.0386116,0.06785884,0.028015113,-0.011995444,0.04315727,-0.060833953,0.019058896,0.021197738,-0.061092332,-0.031043552,0.052695755,-0.0025846013,0.016501568,0.038054574,0.009767886,-0.061123095,0.07011566,0.01434029,0.06734877,0.016276658,0.057774365,0.06923092,0.0011483529,0.053442415,0.005211906,0.046569802,-0.015509343,0.03171977,0.0097210705,-0.013903989,0.06293943,-0.022129254,-0.029461466,0.0016265484,0.0020608644,-0.028794786,0.06450477,-0.061940443,0.0029752124,0.015290728,-0.024366222,0.065306455,-0.00710691,0.025964454,0.00936584,0.008859899,0.011983686,0.0057434086,-0.016157117,0.044314474,-0.012827942,0.043924805
ENSP00000442973,-0.06429709,0.017179072,-0.049046982,0.04861843,0.011090392,0.011744895,0.070519574,-0.06139133,-0.048307415,0.046067648,-0.0026509983,0.056319356,-0.00072475616,0.04581194,-0.0017792713,-0.071410775,0.030616207,0.014314851,0.012440608,-0.009394632,-0.012136163,-0.05948375,-0.038747583,-0.026935069,0.032578874,0.009913704,-0.012047743,-0.025063237,-0.07526126,0.0077456324,-0.020644698,0.059322767,-0.020484932,-0.006721192,-0.023908658,0.022758182,0.06686631,0.037021413,-0.03031378,0.01590954,-0.042803522,0.054086786,0.042710915,0.05764726,-0.02285305,-0.02621239,0.040500056,0.07153233,0.013042558,-0.046428427,0.015762024,-0.042488117,-0.04610167,0.020923398,-0.0021424852,-0.035244163,0.025069999,0.022793176,-0.042491853,-0.043114644,-0.019691825,0.05460203,0.06400552,-0.022977108,-0.019439932,0.039542276,-0.051001236,0.0644948,-0.022824109,-0.041767113,-0.025765048,-0.043937758,-0.06510654,-0.040958997,-0.04056775,0.046146203,0.014286537,0.0006640642,-0.0049881935,0.017920092,0.016970642,-0.0052225185,0.014905311,-0.06307566,0.040901326,0.07862939,0.020108057,0.061928235,-0.016708136,0.041983068,-0.010093577,0.06583316,0.03451128,0.061511762,-0.010332157,-0.05108446,0.017639335,0.080974005,-0.06451692,-0.025163762
ENSP00000158762,0.044191588,-0.019468615,0.011089903,-0.024353746,-0.015025951,0.015347558,0.012363818,0.036745228,-0.0068698595,0.006901958,-0.058117446,-0.013677503,-0.005440532,-0.03655672,0.03949559,0.030868072,-0.006733636,-0.074185826,-0.0021429588,-0.022155065,-0.0025291583,0.0033407034,7.597264e-07,-0.028385725,0.025478505,-0.04969215,0.020382755,0.0041678967,0.017083652,0.028748963,0.049513165,0.039804313,0.03578286,-0.032101024,0.02580649,-0.02209984,-0.0627905,-0.029199222,-0.008892702,0.026479606,-0.012503846,0.026033934,-0.064205,0.0049973885,0.0013173325,-0.05010066,-0.026773868,0.068465844,-0.0029964494,0.06193298,0.027771551,-0.073363855,-0.00063554716,0.014720787,-0.009880809,0.055437017,0.04286028,-0.056427732,-0.011158362,0.0008585575,0.005708964,0.0094989585,0.051797453,-0.045059282,-0.0068974025,-0.06939961,0.058217842,-0.01912021,0.04224495,0.06656552,-0.04194252,-0.014395902,-0.033516895,0.012983112,0.024561424,0.034238055,-0.014522891,0.015680442,-0.022424905,-0.052635495,-0.01800929,0.05038102,0.027722504,0.046611384,-0.019078728,-0.05830129,0.06574322,0.028561777,-0.016120505,0.03601507,0.04473319,-0.00019118353,-0.013038228,0.027650245,-0.052767627,-0.021252712,0.050097115,0.060031295,0.056062512,-0.010535444
ENSP00000258198,0.039038483,-0.012359209,-0.009991391,-0.057066575,-0.01199056,0.020844154,-0.005538908,0.0252413,-0.04439062,-0.013799417,0.024173727,0.040733747,0.027139582,0.048709404,0.061443724,-0.04846192,-0.022657955,-0.05031392,-0.06176723,0.024203828,-0.03186196,0.023158645,0.03198608,-0.027410444,-0.0364097,-0.0198331,-0.012362746,0.018813688,-0.056973055,0.011576455,-0.009295313,0.06473336,0.040319942,-0.017175611,0.073859364,-0.0642494,-0.049689125,-0.010080832,0.0042881025,0.028498475,-0.030762445,-0.012038007,-0.012841029,-0.06868803,0.044164333,-0.047968023,0.018633232,0.0629932,0.00602163,0.040764794,0.0052811536,-0.024618773,-0.03385025,-0.06100738,-0.006136068,0.0010522809,-0.058048807,0.023821523,0.029183842,-0.04127981,0.042864736,-0.010125609,-0.026746169,-0.07191026,-0.00092469715,-0.055803943,-0.0027977498,0.03196231,0.060855847,0.052839614,0.037120104,0.063685134,0.020293295,-0.013567478,0.0013913366,-0.041318625,-0.020239213,-0.049144663,-0.01992776,-0.021043947,-0.028456602,0.046882004,0.020375805,-0.0034388034,0.045179624,-0.007085446,0.021987872,0.04940193,0.020206116,0.06456102,0.059584573,-0.05287879,0.010202553,-0.002808211,-0.027679395,0.044334207,-0.010313552,0.064691044,0.039746255,0.0103195105
ENSP00000263181,-0.023985514,0.023614645,-0.025026351,-0.056047752,0.021594003,-0.021502633,-0.019370217,0.035821695,-0.028080124,-0.025932029,-0.024876961,0.013298953,0.036781035,0.0004769303,0.002010654,-0.012957826,0.043001674,-0.06952443,0.005155623,-0.008715166,0.049837157,-0.0017137156,0.04816148,-0.002300572,0.024387885,-0.016493008,-0.017879259,-0.068877175,-0.0007730406,0.010812629,0.046187397,0.014902823,-0.018953275,0.005626986,0.060552,0.0061948057,0.014372328,-0.012050301,-0.0011044871,-0.06601359,0.04792343,0.006516213,0.025351869,-0.01232419,0.02660009,-0.036048558,-0.01501783,0.05251544,0.061551403,0.06309545,-0.02410976,0.010177237,-0.03365235,-0.009877847,-0.040182233,0.008069828,-0.06017638,-0.024850447,0.05287507,-0.004150301,-0.024958592,-0.033159647,-0.02635824,-0.029858751,0.060981385,-0.06307281,0.02415175,0.036831655,0.0046333913,0.05165819,0.054169588,0.04817445,-0.016580163,0.061680473,-0.025671812,0.04372959,-0.024790753,-0.02537722,0.009533459,0.0015855301,0.021848192,0.04111591,-0.039070405,0.020441417,0.050387353,-0.02096355,0.025073182,0.019756041,0.053779192,-0.029612701,0.026249617,-0.036087677,0.03190445,0.020780077,0.0013527796,0.050370328,0.04264882,0.027277995,0.0014791782,0.07372323
ENSP00000268919,0.06465938,0.011152353,0.052879132,-0.04659325,0.00681663,-0.042415738,0.01645834,0.013708164,-0.035868876,-0.010722598,0.008563405,-0.010749551,-0.032645393,-0.0056476383,0.021895504,-0.021346096,0.018694023,-0.03748627,-0.036191568,-0.025835427,0.06487316,-0.0650502,-0.031691372,-0.053994626,0.030020466,-0.007112788,-0.009548896,0.01588574,0.00857136,-0.035180528,0.020983754,-0.02258984,0.009746842,-0.038586818,0.046351444,-0.077225566,-0.045598034,0.017687809,0.013944377,-0.026159529,0.019147594,0.06513491,-0.06533137,-0.05844293,0.026776664,0.01833572,-0.034822173,0.07155904,-0.028370693,0.062359,0.019620337,-0.0023011789,0.02818606,0.005817456,0.02737757,0.014488797,0.03931554,-0.06375408,0.018718604,-0.0426404,0.06503514,0.011385037,0.03684223,0.020053571,0.070503816,-0.050216954,-0.0121367695,0.0012250561,-0.017038222,0.0044529336,0.005094247,-0.007909305,-0.041602515,0.010172943,0.016762367,-0.01998282,-0.035018407,-0.044369552,0.004482384,0.020705495,0.009497032,-0.031394422,0.02651106,0.026412744,-0.013868161,-0.046591654,0.014215868,-0.016128754,-0.006558435,0.0089726215,-0.02174809,0.008483164,-0.020825624,0.017874546,-0.041045424,0.02541053,0.030784814,0.054374147,0.04351174,0.0077564837
ENSP00000299705,0.057462964,-0.020928472,0.041137926,-0.05910129,0.06822905,-0.017274287,0.06388029,0.025052045,0.015953075,0.04658134,0.006712644,0.031326838,-0.03753733,0.062382456,0.049817305,-0.036186248,0.039433725,-0.016056456,0.018188179,0.026498454,0.038887292,0.038810775,0.02953195,-0.008031031,-0.0005006562,0.00012612203,0.0072025876,0.00033539394,0.022382803,0.054965496,0.023629148,-0.025573906,-0.030296728,0.018006008,-0.00091171544,-0.07782417,-0.043193623,-0.04168992,-0.012859717,-0.04352059,0.039441828,0.04053841,-0.067854434,0.018772282,0.059364002,0.022552155,-0.056979693,0.032378774,0.027414221,0.059404254,-0.027361058,-0.049731985,0.020282615,0.024523903,-0.022216141,0.013693567,-0.054087356,0.018660577,0.052492924,-0.009123599,0.061953247,0.008576965,-0.009009907,-0.057647802,-0.022913821,0.019907229,0.061421894,-0.017560918,-0.014543147,-0.011160119,-0.028124392,0.013199873,-0.020526392,0.015089277,-0.020731594,0.019145485,-0.006497089,0.013998812,-0.009555559,-0.017489322,-0.0055080657,0.008493101,0.051783316,0.023198862,-0.012882356,-0.062115997,0.06738483,0.0140435975,0.023084965,0.03498493,0.00528624,-0.058085132,0.048313946,-0.0102755595,-0.053802364,-0.05248897,0.04180446,0.06598523,-0.002170308,-0.0015480834
ENSP00000321427,0.0048425198,-0.01203067,-0.066123135,-0.00036777096,-0.0220104,0.06872619,0.003032866,-0.004785264,0.009833105,0.0040752175,-0.03482573,0.011598084,0.025374664,-0.012277575,-0.020878498,0.022097286,-0.023997817,-0.050082106,0.026225686,0.04307653,0.005390979,-0.06501192,-0.0067734327,-0.024327079,0.021248104,-0.040521123,-0.018654196,-0.009305665,-0.016853629,-0.005409848,0.05595893,0.019685399,0.02044047,-0.020924648,0.021738453,-0.025870489,-0.026881404,-0.0020521106,-0.05892481,-0.030698443,0.032500744,-0.018651232,0.014925269,0.047616884,-0.039198264,-0.046026032,0.043012418,0.032742046,-0.025808297,-0.06710402,-0.03608183,-0.022453602,-0.053904735,-0.007848505,-0.021741286,-0.0690113,0.071726315,0.027996413,0.026106331,0.0028690407,-0.07716783,0.02048902,0.0043458273,-0.027504701,0.01413641,0.031030364,-0.06482881,0.039026834,-0.05574609,0.03035209,-0.020000715,-0.05807072,-0.058980048,-0.038689714,-0.025599472,-0.011515638,0.019359618,-0.06635826,-0.023652576,-0.009260268,0.00014055613,0.044478953,0.040497385,-0.057061173,0.054942768,0.0191816,0.044125214,-0.010607015,0.04732017,-0.000586045,0.026822422,0.06239871,0.03354906,-0.012171472,0.0017956281,-0.03336233,-0.004602114,0.03904031,0.0006288453,-0.01373917
ENSP00000352608,0.009983417,-0.009367035,-0.055176765,0.0469231,-0.052885666,0.06570486,-0.00907635,-0.034144774,0.026932074,-0.007933851,0.0030636594,0.00736528,-0.016019762,0.059771255,0.019062161,-0.0558981,-0.018528223,-0.061441917,-0.009623587,-0.009789785,-0.0055834586,-0.028789112,-0.041714683,-0.043182828,0.0155125465,0.028877418,-0.019098494,-0.02304505,-0.007934483,-0.012516516,-0.0019899765,-0.018806394,-0.049786635,-0.011095562,-0.047472674,-0.0144205885,0.062330037,-0.03767963,-0.058006726,-0.024926636,-0.023703864,0.042282917,0.06406873,0.046493262,0.04851754,-0.03136643,0.036242433,0.04849112,0.0040038405,-0.03884466,-0.03558991,-0.07352479,-0.0036021667,0.023402179,0.009286632,-0.064564854,0.028188333,-0.018699372,0.028870149,8.08395e-05,-0.039698336,-0.006920124,0.018030003,-0.058396306,0.031272393,0.06180982,0.035003442,0.040050246,0.01229537,-0.056641705,0.0203847,-0.0654183,0.0030835667,-0.010723807,0.04680089,0.03777569,0.019329417,-0.06049503,0.037660223,0.052162033,-0.036963355,-0.04355936,-0.03787185,0.008703531,0.054565802,0.074521385,0.022800192,0.052782167,0.012772007,0.01874022,0.04348669,0.004540289,0.02370135,0.043336857,0.048634514,-0.018908393,-0.029505674,-0.008050175,-0.06312858,-0.011338023
ENSP00000357048,0.042506065,-0.025418678,0.03399162,0.0017959876,0.031424068,0.016090682,0.0018784842,0.0085568875,-0.049510982,0.05340629,-0.06445225,0.05493398,0.013181739,0.011461219,0.064770594,-0.044733457,-0.013740769,0.008686135,-0.03327928,0.02978617,0.053985894,0.008296489,-0.032529533,-0.030014176,-0.046544578,-0.032017753,0.030999739,-0.02858755,-0.07223866,-0.028481795,0.028748944,0.03147787,0.058446817,-0.014734394,0.034825705,-0.056947544,0.014551213,8.2490966e-05,0.025518205,-0.05080749,0.0013434254,0.057722002,0.02568347,-0.043620393,0.011940742,-0.03987981,-0.014618059,0.06002649,0.010394983,0.026726032,0.005179011,-0.04034679,0.057638146,0.029853681,-0.012721911,0.053050183,0.025132779,-0.0600864,0.009442089,-0.037699696,0.008599911,0.057645105,-0.019840874,-0.005157238,0.013130138,0.00082938233,0.06452224,0.004488075,0.012098061,0.060886197,0.036402177,0.010123583,-0.008750508,-0.004584697,0.01554831,0.03853128,-0.029044071,-0.055968687,0.03071924,-0.01982442,-0.0041562584,0.046722088,0.006103871,-0.02927583,0.02164669,0.0070964308,-0.023422543,0.018745475,0.040577557,0.043096766,0.013766414,-0.0124756815,-0.022956343,0.06950163,0.03555954,0.009467423,0.04343675,0.015053729,0.02081582,0.014696353
ENSP00000361298,-0.0013794145,0.00093863986,0.010633922,-0.039125558,0.021633405,0.0115423715,0.06991708,0.031176984,-0.040795952,-0.014925839,-0.05778478,0.0038185935,0.028552901,0.04371545,0.0033921297,-0.017727401,-0.015216656,-0.0009972723,0.02455694,-0.015951544,0.041168585,-0.023113413,0.006511503,-0.053610045,0.03560175,-0.040580165,-0.05021834,0.0045356816,-0.028143764,0.0034701107,-0.023600992,-0.018107163,-0.018424578,-0.00078277104,-0.012319488,-0.054389928,0.016615886,0.018993394,0.029357156,-0.0632416,-0.0022714548,-0.03639394,-0.0033654328,-0.019275708,0.03163393,-0.011511436,0.024933245,-0.014464812,-0.023476707,0.02790458,-0.0033604885,-0.062300216,0.034724414,-0.00073491875,0.017361972,-0.014144268,0.017150145,-0.013344564,0.029883925,0.02051251,0.005834887,0.038107183,0.057247713,-0.023575252,0.043132957,-0.042940944,-0.019424325,0.032750003,0.014892368,-0.015078253,-0.03294383,0.058920614,-0.014185086,0.07713665,-0.005785554,-0.021427933,0.0498549,0.0027855812,-0.026851598,-0.07067803,0.065199636,-0.008176525,-0.042296063,0.06481767,-0.0057074437,0.005107466,0.013087625,-0.008900182,0.012904372,0.05480501,0.05781568,-0.0013119751,0.001187833,0.035914462,0.02380672,-0.036677826,0.04983916,0.040705785,-0.0111619895,0.001808099
ENSP00000380308,0.06597556,0.019872576,-0.011042468,0.0054620802,-0.017177366,0.0014377823,0.050676335,-0.018144986,0.00071912387,0.030273244,0.0059939744,-0.010452462,-0.0012988448,0.04759522,0.0431045,-0.021967452,-0.0011013902,-0.017653089,-0.019502308,0.06354471,0.0042877337,0.0063581774,0.036265295,-0.013046075,-0.042354174,0.024576917,-0.060505763,-0.011689077,0.020466194,-0.02187045,0.03767633,0.005542962,0.015994895,-0.009354936,0.009873601,-0.031946104,-0.0600665,-0.00016539264,-0.03428563,-0.06547707,0.036858313,0.060022444,-0.030460292,-0.035932306,0.008020445,-0.0031938828,-0.04309993,0.008841164,0.042809643,0.05290058,0.059219237,-0.06524379,-0.009400969,-0.054037057,-0.034857307,0.028166227,0.0105653405,-0.015496976,-0.01707828,-0.05007578,0.061838835,0.029199827,0.030043026,-0.0042256853,0.061557423,-0.06161734,0.06842158,0.051712107,0.055916913,-0.021428842,0.04603688,0.023467153,-0.012425151,0.07427026,-0.011087227,-0.0012529837,0.00072057685,-0.0067485925,0.051573128,-0.069128886,0.022218216,-0.010381842,0.040897295,0.061583716,0.05422069,-0.023065057,0.02367447,0.016381904,0.038535915,0.020114252,0.01995385,0.0074072843,0.038836196,0.05723444,-0.009039273,0.025681365,0.01582126,-1.5388243e-05,0.058676492,0.021109711
ENSP00000393963,0.021012854,-0.031373095,-0.032290872,-0.05540738,0.0075416416,-0.052025415,0.06431924,0.0118851485,-0.019221645,-0.03847075,0.014971496,0.016787495,-0.04068341,0.039504893,-0.019174112,0.0031122346,0.031488746,-0.077764615,0.010859124,0.040796522,-0.015050981,-0.005524537,0.0222539,-0.039176244,0.007741108,0.028367082,-0.021017948,0.0019805287,-0.027169786,0.04799342,0.0529469,0.009223291,-0.014678124,-0.008394694,0.01787597,-0.02763511,0.020405935,0.016270699,0.01142289,-0.015872432,0.026839618,0.0015534018,-0.03689798,-0.04028763,0.03575389,-0.042676188,-0.023450475,0.06883914,0.06501134,0.010740705,0.020995904,-0.0053690746,0.017513322,0.021246988,-0.0051987283,0.06790296,-0.013193719,-0.041133158,-0.008885464,-0.03596445,-0.020163959,-0.016703619,-0.022740662,-0.011583943,0.029075956,-0.0070465724,-0.010441697,0.031625103,0.031409815,0.019372558,0.024125673,0.00019985065,-0.05958455,0.019621074,0.010380885,-0.053495947,0.00071734143,0.022429954,0.034255967,-0.05356306,0.06296686,-0.04676604,0.0053193597,-0.040959544,0.020894056,-0.011881862,0.06411742,0.0055671427,0.05434599,0.04345644,0.05592786,-0.014937647,0.008662263,0.030465348,-0.0065820194,0.0023688697,0.054567665,-0.0011148877,0.0020049438,-0.021240959
ENSP00000410257,-0.0067492174,-0.042263426,-0.020427208,-0.028842412,0.019292966,-0.007833258,0.049751516,-0.05919943,0.021239268,0.06623919,-0.047278922,0.0015505184,0.053672865,0.017877767,0.0058390703,-0.014127068,0.017507032,-0.02828176,0.047010433,0.008990668,-0.061579265,-0.04825759,-0.059101623,0.002399649,0.0045366143,-0.023420662,-0.029040685,-0.014284156,0.010443836,-0.06985007,-0.010327957,-0.021777473,-0.062227115,0.008928006,-0.042581115,0.056910075,-0.020955373,0.0060215974,-0.019582234,-0.04403633,0.03782027,0.063702814,0.041512292,0.032962404,0.013212056,0.034804083,-0.036409598,0.054583915,0.04495347,-0.01928282,0.0031296336,0.010973778,-0.029520007,0.067879416,0.006963038,-0.033161145,0.057369072,0.010172912,0.0052630603,-0.040916078,0.0036431458,0.01972813,0.011776036,0.013614034,-0.0111893825,0.037348144,-0.012125727,0.06293908,0.021618485,-0.049342524,0.034627333,0.008186096,-0.052064307,0.012282114,-0.03056145,0.0009932416,-0.012713227,-0.0043122554,-0.0062395986,-0.0097865425,-0.0011499368,0.028732806,-0.029683731,0.006459874,-0.025620393,-0.0104468195,0.05799369,-0.006524157,0.058362976,0.060043834,-0.0011370657,0.075974345,0.004120191,0.07139434,0.05476485,-0.04882811,0.0024998786,-0.0014061518,-0.04102442,0.009661274
ENSP00000465992,0.039358415,-0.009274029,-0.021582507,-0.017937068,0.048613567,-0.049737208,0.0022357637,-0.0076918183,-0.0561166,0.01765946,-0.04196811,0.021014355,0.008764239,-0.012063842,-0.016049013,-0.043895423,-0.0022603702,-0.039765727,0.006143373,-0.014481194,0.07553648,0.030640561,0.020232577,0.0048237895,-0.02798183,0.045301717,-0.054937765,-0.03490796,-0.057210993,0.003723777,0.018421564,-0.004630775,-0.0036999197,-0.014527399,0.007843241,-0.046202134,-0.026110157,0.002417964,0.055623904,0.025030233,0.032340758,-0.024718486,-0.012030973,-0.06279249,-0.004972865,-0.024330603,0.023664288,-7.6659024e-05,-0.008463138,0.05797181,-0.01543407,-0.004018927,-0.018622592,-0.05503205,-0.030186947,-0.03487638,-0.065326266,-0.006458359,0.012186008,-0.027104592,0.020187246,0.013177961,-0.017376715,0.02472131,0.0007649278,-0.07170725,0.056439664,0.006002972,-0.008815148,0.047499217,0.016151473,0.0124163795,-0.04861994,0.03937859,-0.0098850895,0.034664743,-0.047039777,0.01336783,0.007310652,-0.0028743,0.032942005,0.019800192,-0.026941616,-5.4360833e-05,0.011114527,-0.03312907,0.029604627,-0.028509902,0.00094123604,-0.004495062,-0.017998084,-0.043417323,0.040272184,-0.014216434,-0.0659978,0.021039817,0.041978713,0.055187523,-0.032047033,0.0033963672
ENSP00000223369,0.022121653,-0.025802223,0.020254975,-0.00012141047,-0.0032639178,-0.0017468878,-0.020977188,0.0017107055,-0.052481107,-0.021747801,0.012289229,0.053111084,0.009209235,-0.016940664,0.043614626,-0.042596094,-0.04112797,0.0031760666,0.011810496,0.026110167,0.0060773315,0.04195584,-0.021497704,-0.003549905,0.008475255,0.020308107,-0.03137943,-0.02826365,-0.05340226,-0.043388024,-0.03376567,-0.023401696,0.024104575,-0.0018777354,0.051166262,-0.06153273,0.00509687,-0.029066807,0.028208297,-0.055117585,-0.007056688,0.035008565,0.00413383,-0.06618715,0.014585024,-0.04036213,-0.030820817,0.014716974,0.024861606,-0.026662203,0.015232727,-0.010069012,0.020684814,-0.0026876759,0.028490765,0.036359884,-0.009647639,-0.009117249,0.06982401,-0.0016938753,0.00498394,0.05348139,-0.0011647884,-0.03284344,0.060469553,-0.026344849,-0.00090719014,0.055512846,-0.019126568,0.03317488,-0.0068844208,0.06769116,0.0054142247,0.018821241,0.048090935,0.041259147,-0.005792382,0.02412755,-0.022275649,-0.02702986,-0.032148357,-0.030836271,-0.005445603,-0.01112926,0.042866677,-0.0576246,-0.025498979,0.05718177,-0.03821881,0.06594832,0.040121447,-0.009740109,-0.03759311,0.053083643,0.028893288,0.032028154,0.05775193,0.019688495,0.077115476,0.024508446
ENSP00000260731,0.064448014,-0.017838292,-0.03894922,-0.0741236,0.04212232,0.010712663,0.0052081323,0.020907395,-0.024639972,0.0011624146,-0.04327268,0.046171185,-0.0056917034,-0.027143799,-0.019439708,-0.017175095,0.026034134,-0.058510374,0.009532974,0.03951829,0.056102872,-0.018968184,-0.03327419,-0.055818178,-0.043426443,-0.03779933,-0.035133086,0.018896872,-0.07201545,0.058036678,0.026194405,-0.028759306,-0.0027820622,0.0015579555,0.056888457,-0.05877935,-0.014094039,0.026540387,0.037747122,-0.034857947,0.046721224,0.04458023,-0.06768999,0.011181541,0.0452554,-0.0086836815,-0.0073783677,0.039148077,-0.023497853,-0.006993685,0.03776735,-0.069857374,0.043726314,-0.040895887,0.022877121,0.06865997,-0.075009264,-0.013644714,0.049348693,0.027167104,0.0149365645,0.004186378,0.003554197,-0.008013321,-0.012491919,-0.04378788,0.0034598615,0.07283618,0.059506394,-0.01698568,-0.03348836,0.02129561,-0.028507749,-0.005495563,-0.027554968,0.04559975,-0.007032207,0.018932454,-0.025580496,-0.00022066571,0.037809093,0.045818396,0.008420302,0.0066271797,0.014591647,-0.073879324,0.020467427,-0.03657084,-0.015423729,-0.0011349386,-0.02468229,0.02015786,-0.022256255,0.053989023,0.026509454,0.03371273,-0.010677241,0.061800543,-0.008237874,-0.014025992
ENSP00000264028,-0.019901749,-0.0028542911,0.012831325,0.0013214834,0.013563867,0.0055399146,0.01797182,0.015223372,-0.029487232,-0.025478493,0.0150002865,-0.010359856,0.0100335665,0.036417775,-0.018949816,0.006819699,-0.0263247,-0.06903881,-0.02839676,0.03938172,0.022877686,0.021961272,-0.034270655,0.018699422,0.015313948,0.004876217,0.046388514,0.013805735,-0.077552356,0.05173581,0.040193424,-0.01925936,-0.029535607,0.009938469,0.07785386,-0.081139304,-0.07232651,-0.050948236,-0.008463154,-0.05722901,-0.015834004,0.0235321,-0.06326996,-0.071472816,0.02257095,0.030409817,-0.011310205,-0.028229985,0.047383174,0.044667777,-0.017974993,-0.059744526,0.040828593,0.030157488,0.025313774,0.025933772,-0.03652183,-0.06999634,0.057670347,0.010389679,0.03627814,-0.025715925,0.020158347,-0.011161093,-0.0032602195,-0.0031741802,0.025746312,0.019249473,0.05410491,0.047940426,-0.03749361,0.053214714,-0.060568787,0.06431541,0.007705662,0.0352402,0.035585124,-0.06639531,-0.021214636,-0.02486023,0.061206527,-0.042517163,0.021788713,0.049154714,0.07404815,-0.06466311,-0.012057756,-0.032701697,0.04201334,0.04840384,-0.020496689,0.02706776,0.006190214,0.061685,-0.027741678,-0.028474182,0.026084345,0.054874495,0.024326995,-0.021849275
ENSP00000287152,0.050284877,-0.010447422,-0.014837531,-0.015830465,-0.016205356,-0.014364984,0.026118975,-0.020405088,-0.04690635,0.04851016,-0.04951089,0.06265675,-0.039578557,-0.0049854964,-0.03596596,0.007379315,-0.026295014,0.010045846,-0.040496293,-0.022704516,0.022652714,-0.039305933,0.05602458,0.012502452,-0.0040649585,0.0071250573,0.008722402,-0.013202864,0.018347498,0.00655035,0.008133875,0.061097044,-4.4270884e-05,-0.007993025,0.010848312,-0.061541073,-0.020834517,0.007021497,-0.040029265,-0.0032977401,0.04597698,0.0053721005,-0.06364311,-0.0037767743,0.0046898816,-0.05413413,-0.029851852,-0.015975669,-0.009409136,0.06337815,0.028002502,-0.05496595,-0.020034742,0.026183791,0.024585595,0.03359777,-0.028920203,-0.06644664,-0.025125554,-0.00015122921,0.024194023,0.0009846163,-0.004766699,0.01814304,-0.01315004,0.0059036994,0.030673355,0.0060747126,-0.010100495,0.019419335,0.043803193,0.011790386,0.031410016,0.043512207,0.045251653,0.024668977,0.04267952,-0.036703333,0.022279808,-0.0050065857,0.017314628,0.017218122,-0.0105019715,0.02651584,-0.003972915,-0.040228132,0.006389658,0.0037181615,-0.03572016,0.027652644,-0.0065805954,-0.028473891,0.035241216,0.06349833,0.028875386,0.030134778,0.056894902,0.047476273,0.034296826,-0.009009814
ENSP00000314615,0.010790555,0.018977396,-0.013602693,-0.015789952,0.058863215,-0.051640205,0.014266031,0.03632803,0.040721133,-0.043899145,0.0055455626,0.06895259,-0.0069513964,-0.0051219626,0.0073274556,-0.014715974,0.033198327,-0.0017984053,-0.0104522295,0.039950542,-0.0075305654,0.034903776,0.027730657,-0.02129827,-0.017167803,-0.029442087,-0.0046425248,-0.02457352,-0.007585239,0.0066512735,0.046014838,-0.03211983,0.03321332,-0.03548287,0.0758631,0.0246628,-0.03209039,-0.07049,0.0057252636,-0.03170057,-0.016108166,0.007966914,-0.05771404,-0.062206186,-0.004083664,-0.011152767,-0.060248338,0.05243778,-0.020536268,-0.023942405,-0.003048934,0.012494894,-0.020536387,-0.020219691,-0.024585979,0.013922214,-0.048738528,-0.062133063,0.050122183,-0.02120317,0.058727134,-0.005263245,0.017997202,-0.027971333,-0.020782532,0.0082615875,0.035834447,0.012260564,0.0658104,0.0546797,-0.0026547532,0.07128457,-0.050986584,0.021050517,-0.036814027,0.00442562,0.004407407,-0.010725267,-0.0020779166,-0.064765505,0.004934625,0.045254555,-0.0077370033,0.0025313317,0.019379057,-0.042980928,0.0248066,0.050950717,0.012263672,-0.030081999,-0.012357767,0.027616723,0.0111451475,0.05527616,-0.064233385,0.021089718,-0.028079841,0.018835116,-0.029935922,0.03898225
ENSP00000345055,0.0031823255,-0.038839992,0.013926693,-0.02618338,-0.024024718,0.0141494125,0.0454567,-0.039039128,0.03048105,0.0070810704,-0.022002839,0.065795176,0.06996704,-0.027271016,0.017296731,-0.029945754,0.013271902,-0.052909017,0.052267116,0.056502864,0.027075674,0.021386215,-0.03936457,-0.027610535,0.027977789,0.022790302,0.024216948,0.0022732085,-0.013554545,-0.05877454,-0.038459715,0.04846412,0.009739204,0.01881687,-0.027887035,0.05575754,-0.019566394,0.008652239,-0.04301369,-0.03462582,0.025668975,-0.013039253,0.0021287892,0.00051721674,-0.0064561134,-0.029328078,0.019087091,0.0016335854,0.018096395,0.004255969,0.009601194,-0.048880108,-0.019476771,0.026346385,-0.01930331,-0.02888655,0.06483381,-0.012888165,-0.04622729,-0.0099921785,-0.035769176,-0.012032608,0.023387542,-0.042526115,0.051375028,0.070523806,0.005549031,0.025959488,0.022102376,-0.044786803,0.038398772,-0.031058885,0.0120560555,0.0019561788,0.047127698,0.0033031097,-0.005398388,-0.06921475,-0.0076246457,0.041125864,-0.062004127,-0.00081480434,-0.012358401,0.009124332,0.0152498605,0.011746924,0.06004511,-0.011475351,0.010614636,0.058972917,-0.032029044,0.044297222,0.03984669,0.0361691,-0.042683493,-0.020107992,0.018925,0.005200793,-0.033283263,0.030944
ENSP00000354560,-0.0028753164,-0.013591698,-0.013504121,0.0035659275,0.055533137,0.00915991,0.04299844,-0.048824016,0.0074153636,0.037415687,0.0008423622,-0.017004294,-0.028532168,0.058202736,0.025494924,-0.016059445,0.02591426,-0.039324,0.012637299,0.0052763256,0.051561743,0.046020344,0.03881099,-0.049998634,0.034127973,0.016716504,-0.017373212,-0.045173995,-0.02277346,0.044626627,0.035342436,0.052752722,0.008774829,0.0016996507,-0.0016270317,-0.053344347,-0.052590266,0.011153048,-0.034995016,0.0076906015,0.041688755,0.034823142,0.015604275,-0.060287416,-0.0030106585,-0.04471065,0.01105378,0.04400274,-0.019558687,0.045239456,0.0043380475,-0.052475337,-0.012409759,0.0074540973,-0.025359696,-0.021483695,-0.00850728,-0.034571238,-0.04469571,-0.067620665,0.05941637,0.028664922,-0.002267288,0.0044521773,0.03898836,0.006906608,-0.0042725727,-0.00673021,0.024342714,0.041688606,-0.038296446,0.040679142,-0.004113226,0.045395434,0.03438185,0.017109122,0.048751995,-0.041241977,0.038443454,-0.06833972,0.036448885,0.028688382,0.028796528,-0.03672501,0.065834984,-0.046885286,0.04953496,-0.032731056,0.030285077,-0.021000596,0.039367024,-0.04110381,-0.01799196,0.01504931,-0.015339368,0.05912938,0.06441343,0.07407741,-0.018514626,-0.026974183
ENSP00000360423,-0.057179272,0.0048814653,-0.049172062,0.022038367,-0.009287182,0.042865776,0.058377434,-0.06456704,0.032926444,-0.023731163,0.024518318,0.0611684,0.049713235,0.023038454,-0.022022545,0.012303398,0.06169272,0.017783891,0.03614322,0.030206632,-0.05001248,-0.018062105,0.013032352,-0.0048976364,0.050657038,0.0108698895,-0.05207539,-0.06254979,-0.031177051,-0.059288695,-0.012462832,0.0419275,-0.07380088,0.035797957,0.031959742,0.0052302494,0.041153815,-0.0069299657,-0.018272106,-0.046952486,0.031358734,-0.028692491,0.003298319,0.05410054,-0.045963943,-0.016868392,0.032239184,0.06156489,-0.04843719,-0.01541391,0.023482302,-0.019363707,0.029549995,0.013268701,0.021822779,-0.047949303,0.031514063,0.020032464,-0.02627917,-0.059402354,-0.0020739827,0.047530133,0.058212757,0.026263954,0.01613241,0.047859367,-0.02449248,0.04661192,-0.062453717,-0.011916757,0.039389424,0.01974452,-0.0014637462,-0.024061915,-0.027619585,-0.0033689886,0.033282444,-0.058397833,0.008008234,-0.0041694744,0.013964233,-0.013919267,-0.050732914,-0.025209406,0.0017213523,0.07047968,0.032654267,0.05880464,-0.024283325,0.045414627,0.0642129,0.05575233,-0.02846361,-0.017689636,0.038413435,-0.029432274,0.026440691,0.049332716,0.0024958109,-0.00043500727
ENSP00000377148,-0.005276759,0.003098351,-0.031265795,-0.025674485,0.03725206,-0.044924915,-0.021366987,-0.038293056,-0.05840201,0.003741217,-0.044291534,-0.016717823,0.03629309,0.008625846,0.007958274,-0.053761948,0.0022809277,-0.012855233,-0.031563878,0.069587186,-0.0025094096,0.03627113,-0.029940384,-0.033558574,0.0034431156,-0.015426962,-0.0017261733,-0.059684683,0.0021382235,0.002108138,-0.055860884,-0.019130941,-0.01913438,-0.013531147,0.0784762,-0.07088925,-0.056332566,-0.0070250137,0.029306505,-0.034201216,0.021217212,-0.023643158,0.0096186735,0.00043600798,-0.0065470887,0.0141391875,-0.06248786,-0.027588904,0.060183197,0.03410441,0.012163356,-0.073007524,0.029105354,0.013701255,-0.004126361,0.005142795,-0.03193354,-0.055721164,-0.03307529,-0.017287545,-0.012218647,0.058059633,0.038518112,-0.07162208,0.028716361,-0.047818758,0.049464513,0.001160698,-0.022582833,0.06170754,0.05113973,0.06935276,-0.014550685,0.044533864,0.023222076,0.024416551,-0.0003599394,-0.04597966,0.057630654,-0.016277231,0.015210373,-0.02177692,0.009559097,0.009680342,-0.012354979,0.0018281117,0.05948991,0.00861958,0.029926013,-1.4800578e-05,0.010639366,-0.048599277,0.041291844,0.060586743,-0.053710774,0.017027557,0.018362058,0.008471195,-0.009282569,-0.02405154
ENSP00000386918,0.07282473,-0.026955182,0.01165253,-0.06936344,0.06163448,-0.030346038,0.02459883,-0.014961377,0.04388655,0.053491987,-0.054675426,-0.01465403,0.02458649,0.034670584,-0.032810915,-0.029710729,-0.009649,-0.04478503,-0.0052246302,0.0682006,0.045818463,-0.0042512845,-0.0037013143,-0.0031693862,-0.03901642,-0.044567537,-0.016758714,-0.010141464,-0.015192403,-0.027224882,-8.500833e-05,-0.026629312,-0.033381414,-0.011653878,-0.0069010425,0.016251504,-0.010873877,-0.03670248,0.05787277,-0.029262709,0.025963709,0.05713158,-0.0328518,-0.004527666,0.060052324,-0.048447788,-0.00036803028,-0.026051754,-0.0011181133,-0.011164533,-0.0060086525,-0.05205846,0.057963997,0.022934612,-0.002217912,0.013115843,0.004820468,-0.05185789,0.030461937,-0.060205135,0.048424456,0.045456737,0.019245286,0.01798887,0.038927414,-0.044494048,0.05672805,0.07236484,0.01737506,0.029303694,0.041516837,0.045473367,0.020834109,0.0047336277,0.009784744,0.0028065187,-0.03541331,-0.06425598,0.019736916,-0.07285259,0.050173864,-0.037850175,0.048528083,0.0036669164,-0.02602312,-0.009166775,0.043636255,0.059408642,-0.023851562,0.029382896,0.067065105,-0.010461632,-0.0033606128,0.01071612,-0.03379418,-0.029099068,-0.016171781,0.03123704,-0.016933994,-0.02501739
ENSP00000404190,0.058367554,-0.031256277,0.016153019,-0.01349518,0.026454946,-0.029291134,0.06137353,0.007363042,-0.008980619,0.015434744,-0.04253002,0.06492674,0.021983739,-0.004408532,-0.030255364,0.00064908713,0.01096012,0.0068654055,0.008542236,0.019371111,0.023129217,0.007155535,-0.006431019,-0.049193554,-0.013637607,0.022179028,0.04922294,-0.074151896,0.016705446,0.022472352,0.022333635,0.02737312,0.021620806,-0.059040125,0.022496428,-0.049317744,-0.06366033,-0.04872211,0.023014657,-0.066848256,0.0041408194,-0.027716536,0.023450729,-0.0006360607,-0.023058387,-0.019882027,0.018991174,-0.013709716,-0.032931145,0.04149763,0.029959245,0.004887351,0.02490296,0.021336162,-0.012775179,0.052625213,-0.03116523,0.0029506101,-0.0058868206,0.028236728,0.04699444,-0.027491678,0.03108675,-0.07297313,0.017007347,-0.041788854,0.05036037,-0.00400512,0.06758066,0.044493027,0.03715805,0.05987661,0.009700093,0.05542431,0.010535158,-0.0040139044,-0.027972829,-0.037121013,-0.016006693,0.02417297,0.045227557,-0.036193267,0.04951127,0.06463398,0.037796028,0.0034758407,-0.026601346,0.039055973,-0.029791513,0.061620362,-0.023591531,-0.016619923,0.040798523,0.06597496,-0.035347976,-0.034357805,0.055341918,0.045722283,0.077642225,-0.0051852902
ENSP00000438388,0.001514568,-0.012125205,-0.031100662,-0.029415011,0.00051166955,0.003408744,0.0037922007,-0.0046744384,0.009083598,0.045727827,-0.009870458,0.041815393,0.004410119,0.04003436,0.008209262,0.028015338,0.025697554,-0.0077873766,-0.071231805,0.050173655,0.07126242,-0.020142177,0.025340531,-0.011454634,0.023926057,0.038829423,0.03976702,-0.0074014165,-0.07346128,0.02302593,0.012881177,0.012232894,-0.030450832,-0.07769521,-0.0071000475,-0.061595812,-0.07288525,-0.025637174,0.049594022,0.0055984347,0.059046652,0.050747417,-0.030352479,-0.019459521,0.012693389,-0.0057225674,-0.06893692,0.020459957,0.028532565,0.06894125,-0.023604836,-0.04607107,-0.020864965,-0.045866348,0.061325584,0.03571236,0.03906143,-0.02789982,-0.028430976,0.026932416,0.023283761,-0.03532944,0.0074349903,-0.044637546,0.0003263494,0.012251638,0.0027188733,-0.002348329,0.04384728,0.008659163,-0.034492385,0.028983556,-0.052832462,0.065423794,-0.037299786,-0.0352245,0.0027940394,0.0025348119,0.044763044,-0.024969572,-0.034735672,0.015457893,0.011313255,0.002092032,0.009867745,-0.0010888996,0.045923382,0.0051041762,0.0571472,0.06442652,0.011188501,-0.056942884,0.026598107,0.060873177,-0.06416301,-0.016870273,0.030567372,0.055852484,0.039878532,-0.009075848
ENSP00000484121,0.059085663,-0.056947656,-0.0059350524,-0.04482845,0.0048526297,0.015408344,0.026435655,0.044233985,0.013424259,0.06574218,-0.0022011027,-0.014005408,0.02377735,0.028379105,0.03225305,-0.05759069,-0.047943383,-0.027256256,-0.014530495,0.01388847,0.00037070177,-0.03606471,0.025512181,0.0015902556,-0.038462058,-0.043571223,-0.0112164,-0.00045961747,-0.039253168,0.04289154,0.05522172,-0.026540149,0.016125923,-0.0388683,0.0499385,-0.033983577,-0.03835042,-0.06579668,-0.010548822,0.00493362,-0.006730183,-0.019065935,-0.017906848,-0.011764563,-0.02130121,0.0117186615,-0.03528621,0.023759305,-0.011324037,0.026968706,-0.03043788,-0.058325965,0.020915393,0.021847596,0.008392903,-0.024895906,-0.023739656,0.0050429534,0.01470764,0.00016926398,0.027112458,-0.021262882,0.045989018,-0.052086882,0.04070811,-0.0076296837,0.011375951,0.0011986401,0.037870683,0.051363874,-0.016685806,-0.024577307,-0.0020544857,0.034510173,0.013405461,0.03528283,0.033137508,-0.0586421,0.036940977,0.00011511799,0.032482706,-0.03896871,0.033409163,-0.027682042,0.069087,0.019327033,0.00031069363,0.031694125,0.0101036625,-0.009700841,0.0641934,-0.019421654,-0.03999924,0.02741875,-0.06657677,-0.0009908443,0.034990955,0.038962957,0.007915832,0.032103196
ENSP00000221114,0.026625756,-0.018827185,0.039122283,-0.07395733,-0.022192374,-0.048492692,0.076094136,0.0033814833,-0.03571594,0.029550357,-0.0043588607,-0.0076672896,-0.009604355,0.052269127,0.034893177,-0.00030077063,-0.039828867,-0.02004712,-0.06867932,-0.013678466,-0.027220452,-0.011200303,0.03904661,-0.0399316,-0.030945117,0.036234185,0.017435089,-0.0031080008,-0.055823855,0.035157077,0.030113142,0.032452464,-0.036804114,0.006973209,0.020353045,-0.07827109,-0.029490259,0.0191731,0.02959722,-0.048750978,-0.014753536,-0.0024799109,-0.018648796,-0.02289221,0.024100468,-0.011399731,-0.0077545764,-0.014671804,0.015651638,0.022676088,-0.0101972185,0.015595127,-0.018160881,-0.010260247,0.0059174644,0.07085685,0.015598315,-0.060083248,0.03407067,-0.0182648,0.02137469,-0.014221234,0.06329102,-0.055835243,0.016885359,0.0027217139,0.014476906,0.030756086,0.018249026,0.06911874,0.014990939,0.048760775,-0.06566545,0.048983406,-0.013146097,0.03960271,0.00036773644,-0.0013523065,-0.009125661,-0.008681153,-0.003544479,-0.014295024,-0.0010930805,-0.029837359,0.014473456,-0.01684777,0.0010501919,-0.020601545,0.048444647,0.008355094,0.026095059,-0.063826844,0.02512496,-0.007918852,-0.03944537,0.026592344,-0.027507592,0.05095131,0.0007907888,0.022145297
ENSP00000259708,0.006271807,0.004701227,0.031379864,-0.012599297,0.06258931,-0.041113462,0.020354636,0.0023448952,0.039948788,0.057431675,-0.03044009,-0.015380839,0.025386369,0.0006823805,0.06323712,-0.032933433,0.0015860596,-0.06944542,0.015435584,-0.020720031,0.009340951,-0.04633434,-0.025875976,-0.012854228,0.021382181,0.04472642,0.013918038,0.018112553,0.0055775624,-0.048488863,-0.0022452464,0.006317478,0.0068610185,-0.059799112,0.05945773,-0.0056755682,0.008406452,-0.012838859,0.018646525,-0.0020951023,0.050996386,-0.023539659,-0.009172755,0.022833247,0.046374075,-0.062254887,0.021345684,0.0743565,0.01043547,0.038389795,0.065244466,-0.07838426,0.059183184,0.009943655,-0.0144802695,0.034793645,-0.004757667,-0.056290604,0.039841544,-0.05804778,0.015981188,0.013914585,0.06856017,0.02701183,0.026670013,-0.043884277,0.016122337,0.019990962,0.05375658,0.074868776,-0.032250788,0.053883553,-0.06782654,-0.0013484461,-0.0048705894,0.047433432,0.02590517,-0.026671596,0.047867388,-0.06482431,0.018115886,0.017034722,-0.03373033,-0.0034329596,0.0116265295,0.019105667,0.030474663,0.06264999,0.047735453,-0.019710887,0.071354516,-0.031423945,-0.038385577,0.05443634,-0.022789296,0.029022083,-0.02011912,-0.0022698706,-0.002149492,0.031127838
